1854 100
930 0.785165 -0.476394 -2.112332 1.084282 3.053241 1.922856 -0.005277 -1.704088 0.973731 1.148095 -2.173808 -1.660104 0.926929 0.343281 2.454777 1.617734 0.148126 0.642296 0.570738 0.541060 -0.457549 0.635560 1.069730 -2.149415 -0.055796 0.676380 1.175086 1.299641 -1.021006 -1.132590 0.654760 -1.144681 2.231763 -1.082778 1.902143 -1.598035 -0.224181 1.120383 -2.693609 0.468643 -1.783726 0.925600 -1.677813 1.005297 -1.473021 1.132373 -0.085866 -0.639145 0.457316 -0.183329 0.187552 1.680386 1.757056 -0.103277 0.504831 1.116947 0.227531 1.966114 -0.715772 1.847642 -0.354611 1.941069 -0.976576 0.040779 -1.567559 1.053302 -0.336741 0.141134 0.273713 2.040653 -0.240853 -1.013165 -0.196141 -0.102852 -0.870732 3.295598 -1.829358 -0.945512 -0.695840 -1.402013 0.194941 -0.880468 -0.616083 0.572438 -0.356191 0.677689 -0.060260 0.597467 0.619862 0.180900 1.077854 1.766384 -0.110884 0.162940 -0.387991 0.939426 -1.642075 -1.087304 -0.126242 1.230607
655 -2.032916 2.123019 -1.806523 -1.386974 3.688020 0.278109 0.453542 0.313641 1.789012 -3.054825 -0.350217 -0.688772 1.962071 -1.619773 2.227984 2.533978 2.219618 -2.973902 0.594989 0.474665 -1.387599 1.322055 1.131617 -2.256181 0.149453 -0.061301 0.183007 -1.722480 1.682004 -2.654782 0.710894 -3.200228 1.855226 0.223282 3.271158 3.488723 -2.117396 -0.345995 0.936743 -2.597523 -2.964007 -1.589090 -3.965255 0.720002 1.122163 -1.681107 3.182775 2.492528 2.334517 0.643725 -0.516939 1.747817 1.908816 0.200761 0.148016 0.018421 -1.123638 0.842464 -0.486668 3.223977 0.015393 4.539037 -0.667646 2.106416 2.107898 1.149947 2.397576 0.501621 -1.029628 4.027285 0.870406 1.768663 -0.169257 1.186029 -3.090002 1.451053 -3.735604 -3.621789 -3.294912 -3.189779 0.649411 -0.452921 0.236640 -0.275263 0.160843 1.729314 0.652952 2.287342 -0.183570 -0.522049 0.110642 3.589318 -2.068063 0.180881 2.478621 1.262038 -4.377595 -0.365481 -0.499143 0.665355
91 -0.248394 -0.452774 -2.617833 0.346071 3.386633 1.465140 0.726326 -2.131858 -0.304266 0.429481 -0.675862 -2.091141 -0.265365 0.957394 2.856806 1.997908 0.273202 0.218771 0.371562 0.263413 -0.894815 -0.366675 0.443490 -1.166584 0.507879 1.167749 -0.117506 1.504209 0.052998 0.017135 -1.797770 -2.255100 1.619892 0.609607 2.022612 0.353783 -0.701840 0.734017 -1.335313 0.784451 -0.450702 2.101614 -2.087253 0.860297 -0.083365 -0.313541 0.775215 1.033179 1.613111 -0.017135 0.767419 0.595096 1.569340 -0.036274 -0.258751 1.326032 0.362917 1.690254 0.224220 1.830108 0.872841 0.971250 -0.118148 0.967696 -1.405370 0.242502 0.689883 1.359307 0.036403 2.268549 0.434318 -0.772680 0.663254 0.229420 -1.042032 2.840939 -1.117101 -2.416984 -0.317165 -0.793828 0.397492 -1.111533 1.477238 -1.210847 -1.611546 1.955487 0.184962 1.786729 1.680522 0.357298 2.095290 2.253779 0.396412 -1.608865 1.974405 2.624837 -1.080781 -0.045593 0.970515 2.077682
768 -0.723563 -0.033756 -0.186521 1.980737 1.322441 3.156023 -2.903331 -3.301505 -1.894288 -1.272412 0.588359 0.771715 0.205096 -2.827707 2.326385 -0.708072 -3.293871 1.763829 1.900476 1.466418 -1.507809 -2.681920 -1.316545 2.026083 3.264286 0.327001 0.590070 4.549888 -2.342090 3.925260 -2.781651 -0.201379 -2.248901 2.861029 -0.838271 -1.469050 1.976365 2.016137 -5.300713 0.003635 0.734548 0.937960 -3.508273 4.012241 -0.361133 -0.612127 -4.074740 0.539401 1.843521 -0.199854 0.986974 -2.519450 -0.729489 -0.742742 4.208108 -3.600740 0.899784 -3.167144 2.575484 -1.833232 -1.190930 0.809289 3.314470 -0.095742 -1.500890 1.378496 -2.835609 -2.149323 0.094434 -1.668967 0.658150 3.493790 0.468430 -0.799170 0.353460 -0.736146 -2.610384 2.752434 -0.711688 -0.208965 1.275229 3.067359 -3.385192 4.522932 -1.830999 1.942308 1.292025 -2.581420 0.125100 -0.425973 -1.695008 1.305886 4.412597 -0.757344 1.197032 3.191616 0.819405 -5.438172 -2.004449 -3.625280
1352 2.049244 2.385728 -0.296149 0.463721 1.061207 -0.514002 -2.012902 -1.685477 1.943919 -0.465256 1.374131 -1.482165 0.029759 -0.560502 0.522504 0.235970 -0.716968 -0.468327 1.409262 -1.558233 -0.117205 -0.336688 -0.078639 -1.153655 1.234985 1.981500 1.378403 3.289732 -0.359657 1.067211 0.036276 0.412982 0.209950 0.324291 0.168797 1.062398 -0.428730 -0.781796 -0.861070 -0.877097 -0.476982 -0.042811 -1.058530 2.620313 1.478783 0.379391 -0.350967 -0.435952 -0.509093 -0.893807 0.176086 -0.390244 -1.016654 2.198167 1.089082 -0.694573 0.756208 -0.921610 -1.352575 -1.125606 -1.290654 1.497142 1.599177 0.456083 0.224799 2.597265 0.864813 -0.014121 -0.766289 -1.655733 1.521120 1.324931 0.638961 0.645240 1.178542 2.171583 -1.414263 1.592703 -2.174111 -2.338088 1.216176 -4.305343 0.966728 2.873045 -0.041519 0.125415 0.294859 -2.467241 2.192537 -0.724748 -1.974351 2.435508 2.721473 -0.772128 0.001024 1.587414 -1.322072 -2.887183 -1.012389 -1.807358
829 2.388213 -0.438761 0.668673 -1.044588 -0.112055 2.802890 -0.338118 -0.877817 0.668318 2.185864 0.170909 -4.589246 -1.522070 -0.171668 -0.635964 0.703618 0.251073 0.261539 2.619414 3.010095 -0.317838 0.683308 1.291911 -0.176826 0.058043 -0.974094 0.193173 3.586966 0.464631 1.951832 -0.112449 1.093721 1.543249 0.604249 -1.404408 -2.510250 -1.936981 -0.991043 -0.277309 0.616953 -0.964516 1.946978 3.960489 2.579050 1.653839 0.385561 -1.845054 -1.646847 -0.069629 -1.292907 -0.608412 -1.280969 -2.253311 -0.279276 -1.106905 1.323872 -1.590478 0.435285 2.730684 -1.657768 2.195625 2.201331 -3.206995 0.691533 -0.553679 0.206996 2.228840 0.654601 1.353652 -1.976749 -1.659146 -1.357171 -1.539636 0.243815 0.355809 2.254440 0.336785 1.584039 0.530100 -0.254720 0.893319 -3.217591 2.173980 0.713977 -0.062745 1.175138 0.740567 0.334646 -0.238093 1.955706 -1.927609 0.017208 -2.831617 2.007407 -1.140579 0.007319 0.389826 -3.424482 -1.369625 -1.765752
853 -0.393762 1.622144 -4.245878 -1.064750 2.806624 4.400514 -3.189738 -0.878728 -2.423177 0.471524 0.945371 -4.445072 -0.967475 1.085771 -0.406577 1.381541 1.257838 0.427343 1.452133 -0.671277 -0.905958 -1.705222 1.426682 -0.334742 -0.242950 2.374428 -0.397405 1.490153 -0.877213 2.033760 0.637378 -1.489379 1.071095 1.574767 3.895822 -3.356436 1.035700 -3.556781 -1.782141 1.366577 -1.757727 3.230044 -1.685957 1.273368 1.531815 0.966001 0.070629 -1.096341 0.698584 -2.519728 0.224419 1.536542 -1.977654 3.917816 0.019840 2.055798 0.449624 2.998806 1.526832 2.006505 0.904907 -0.195233 -0.457312 1.070073 -0.079957 2.669281 2.791490 0.745465 -0.448814 -0.408489 3.482687 -2.498708 0.347635 -1.408332 -0.899408 4.607374 1.646330 -0.901442 -0.707505 -1.645504 1.969363 -4.621434 0.677560 -1.886661 -0.230944 -0.062813 2.436970 -1.402361 0.220790 2.077828 0.376374 3.356117 -2.216973 -1.207435 1.209734 3.454601 0.412468 -1.060750 -0.908209 -0.408004
166 -2.000473 -0.454969 0.711111 2.638103 -2.667649 2.917218 1.471580 -2.461664 -1.024894 0.862743 -1.721306 -1.955986 -1.204922 -2.861413 -0.412879 -0.872298 -2.136741 -1.467594 -1.470340 -0.490241 2.103513 -2.130821 -2.646966 -2.166356 -3.928716 -0.499025 3.829462 1.049680 -2.404370 -1.640915 -3.492617 -1.004067 -0.920737 -1.631190 -2.500102 -2.087967 1.026993 1.277514 1.461946 2.061628 0.579022 -0.327439 0.508390 1.212645 2.554322 -0.329676 0.715907 -1.070123 -0.486020 1.691342 -1.642018 0.842715 -0.073471 -1.821521 -1.978014 1.142490 -2.491233 1.175223 2.545643 0.947902 -2.279149 -0.814743 2.082381 2.558860 0.100703 2.785710 -0.639844 -0.403004 3.783612 -0.826592 -1.144464 -0.680300 -0.661440 -1.828328 -0.318645 0.766263 -1.411684 1.522465 -0.050652 -0.821039 2.128097 -1.552807 -0.634919 1.618946 3.534073 2.193202 -0.717407 0.567942 2.710095 -0.632826 1.128952 -3.277060 -1.436005 -0.690757 0.526739 -1.713098 0.448020 -0.026509 -3.828043 -2.822606
1841 -3.533889 0.451253 -0.724916 -0.206421 2.843234 0.989382 0.533014 -1.015324 -2.826411 0.124300 2.361890 3.193535 2.314471 -2.106959 2.646227 -2.395811 0.906248 3.143409 -0.084860 -0.605368 -2.395468 -1.615434 -0.281416 2.286517 3.167504 -0.849420 2.006258 -0.600225 0.978284 2.168493 -2.378534 -0.964157 -4.527884 4.730448 -0.521323 -1.709068 1.201821 1.377459 -3.143274 -1.549039 1.769293 0.640988 -2.547120 2.701639 0.260829 1.196416 -2.476795 1.983923 1.744570 1.768207 -1.947612 -0.738342 -0.180099 -2.445228 4.579151 -4.465638 1.380357 -2.965766 2.517184 -1.500038 -0.900856 2.419482 0.195691 -1.317212 -3.301645 1.739315 -0.607634 -0.907359 1.017930 -2.583544 0.730697 3.193104 5.098187 2.442428 0.365719 1.084148 -2.242295 2.408697 -1.434338 1.767863 -1.335263 5.024260 -2.445613 1.257226 -3.045145 1.937371 0.823411 -1.513235 -1.237051 -0.148141 2.499666 0.801838 3.135280 -1.915102 4.822551 2.966007 0.939991 -2.603698 0.352078 -1.773187
1104 0.847362 -2.318869 -0.662657 -1.349578 1.406686 -3.201967 -0.766153 -3.038590 1.732206 0.722930 -1.747276 -0.447080 3.282991 2.438285 0.386110 -0.524785 0.667723 -3.726755 -1.603040 0.132021 1.692625 1.808288 0.787270 -1.199322 2.799049 -0.007323 -0.082201 -4.864138 1.644013 -3.292564 2.700363 -0.136478 0.144668 0.725241 -0.044512 0.049388 -0.069109 1.135450 -2.081536 -0.400674 -2.549804 -0.500582 -4.915839 -0.012610 -0.459699 1.645302 2.167064 0.048489 -1.616360 -0.885643 1.018217 1.172023 -1.049726 0.341494 0.390068 0.055902 -0.336240 4.775835 -0.058248 1.249682 -0.158327 -2.722023 -0.504581 0.408530 -2.658228 2.102705 -1.294837 -0.109936 -3.694420 -0.916516 0.530489 -1.230663 0.851510 -1.914579 -1.594915 3.494893 0.238001 0.681440 -1.835732 -1.261200 0.409064 -0.748915 1.464554 0.495616 2.173702 1.727528 1.114421 1.121894 -0.340709 -0.585430 -0.388062 -2.446910 1.112905 -2.961549 -3.750648 1.244264 1.172341 1.004700 -0.417450 2.211915
1203 -0.084000 1.320497 -3.581932 0.123805 0.839924 2.744747 1.561638 -0.295873 -2.565212 -1.971494 -0.220247 -1.504077 0.271982 0.090685 0.247755 -3.379436 1.174851 0.428530 1.869512 0.625219 -0.616680 -1.238511 -1.859718 2.690892 -1.488222 -1.015912 -0.799194 1.021774 -0.214108 1.740677 -2.700227 0.627821 4.300890 2.016435 2.843064 2.716711 -0.835795 -0.031562 2.824924 -1.817583 -1.855690 0.235383 -2.402783 -1.943157 3.011892 0.590515 0.204830 -2.329928 0.138607 3.366152 3.650710 0.120485 2.489847 -0.656853 3.184339 0.911550 -0.290389 0.316475 -0.191049 0.726300 0.495101 -2.381193 1.829524 0.064405 -2.721002 -1.323074 0.996783 1.554911 -1.023933 2.089860 -0.200531 -1.738219 0.353651 -2.468136 -1.855674 0.608579 2.640334 -3.944422 -5.924730 3.245831 0.276118 -2.328520 0.752105 -2.385508 -2.559324 0.459601 -1.806859 0.147572 0.572632 0.108641 2.498306 -1.609665 0.570429 -0.859287 3.329424 3.406429 0.069574 1.194412 -0.968275 0.261161
1349 2.658853 2.451629 -1.077420 -1.327270 -1.399118 0.032643 1.903367 2.693683 -1.409491 -1.695848 0.404015 -0.449585 3.810789 -1.324485 -2.513415 -1.523480 -0.531351 1.178586 -2.153948 1.602164 1.109874 0.224636 -3.172549 2.373377 2.071444 0.942137 -1.102114 0.012988 -3.367778 0.593093 2.269405 -2.093825 -6.179030 0.153666 -0.305614 -0.767840 2.258228 -0.486857 -1.527632 1.346058 -0.647509 -0.897874 1.638330 -1.151402 1.595520 1.996944 0.687423 0.239733 0.402064 -2.447713 -4.704637 -1.711389 5.182565 -1.635696 -0.922010 3.117275 2.177998 2.180162 -0.490237 3.930003 0.066390 2.542870 0.254415 -0.913671 1.426278 -6.639009 -2.886192 2.931679 2.963329 1.227000 -2.752596 -0.170417 1.289548 -3.832189 0.454379 1.928641 3.587779 -1.772168 1.993580 -0.681337 -2.170751 -0.121022 -0.229843 -0.277812 2.966635 0.065605 -1.501034 0.484929 0.806952 3.782738 0.458574 -1.471168 0.915172 4.174208 -3.107642 1.828275 1.307034 -0.227743 -1.840424 0.936945
1759 -1.702725 -4.000012 -0.323658 3.461639 0.745426 -1.103083 3.482251 2.391830 -1.387175 4.979834 2.584679 -0.460509 0.369657 2.677771 -0.548605 -0.077084 -0.288105 -1.996660 -0.913776 -3.160981 1.084463 -0.151743 0.859136 2.151567 0.790743 1.383041 0.178030 2.427219 0.391254 0.684182 4.389661 -0.629737 -1.166507 -2.120500 0.161860 -0.452277 1.398999 1.055895 -4.873916 3.202851 0.452959 0.800015 0.091090 0.534550 -1.707557 -0.860929 -0.538242 0.256438 -3.038332 -0.670615 -2.157486 3.487787 -0.787219 -0.514581 1.029092 0.511114 3.144755 2.184754 -2.702977 -0.834072 0.223839 -1.421942 2.334993 1.457761 -2.152563 -1.163407 0.070674 0.643521 -1.918173 1.837765 -4.607404 -1.821331 1.966195 2.038374 4.519699 2.006722 4.487657 -1.058859 -4.043970 2.186039 3.077596 0.227104 -3.173708 -1.204056 1.754027 1.286746 -1.941739 -1.848602 -1.075576 -0.117983 0.467156 2.018157 1.034172 -2.311265 -1.218654 -0.671875 -2.362085 0.443650 0.983980 4.565966
321 0.285560 2.281853 -1.002923 0.626919 2.415872 -1.625635 0.938671 -3.558306 2.472302 3.088608 2.327567 -1.617141 -1.192658 -0.685713 0.026478 -1.293088 -0.576100 1.947025 1.830831 -1.626533 -0.366154 0.561055 2.123850 -0.433257 0.071274 0.234238 -0.587374 4.009093 -1.718604 1.268679 0.240327 1.605825 1.537674 -0.674082 -2.080507 -0.505775 -0.721272 1.899536 0.670461 1.417168 -0.694831 -2.101034 -1.928684 -2.647601 -0.187972 3.295246 -1.810695 -1.566130 -2.849812 2.142150 -2.121592 1.417580 -0.447412 1.653072 -1.786891 1.331428 2.435807 -1.879334 -1.404247 -1.442513 -0.615934 1.538746 -0.871393 -1.853071 3.118581 -3.048732 -2.052330 5.636869 -3.647153 -3.548748 -0.559105 0.826691 -3.721279 -2.386909 1.312525 0.495465 1.712284 -0.321869 4.241518 2.353740 0.444635 -2.161547 1.981691 1.161874 2.343710 1.529696 1.509693 -3.145032 -0.717601 0.559629 -3.437328 1.212098 0.469405 1.884194 -2.340159 -0.644869 -1.792056 -2.642403 -2.534807 -0.859744
219 2.691848 -3.743521 -0.690253 1.837586 2.830567 -2.514183 1.325709 -3.482449 3.392823 -0.618948 -0.838872 0.990483 0.627223 0.328227 2.372713 0.701883 -1.259523 -1.062815 0.737221 1.918587 1.086561 0.341318 -2.134645 -1.577027 2.492231 0.127832 -1.005759 2.536810 -1.409318 -2.659989 -2.066453 -1.213653 0.179631 0.678629 -0.300977 0.987509 1.330713 3.850796 -3.087882 2.032594 -0.503189 2.267887 -2.800277 -1.707815 -1.106345 0.124459 0.276388 1.675366 -0.750964 0.052266 0.898051 -0.938428 -0.136925 -1.028800 -1.706349 2.853919 -0.748973 1.159738 1.246927 -0.787290 2.673252 -0.082442 6.444987 0.664604 -0.970345 0.952287 3.352369 1.263625 -2.602484 2.450994 -1.327268 -2.930223 -0.512869 -0.725560 1.025271 2.638745 -2.800723 1.078245 1.292919 -5.402899 -0.392029 -1.660330 1.800668 -2.140934 -1.538052 3.314937 2.590515 1.630201 2.816382 -2.249287 1.256922 0.367502 5.262181 -4.770861 -1.542750 4.806667 -0.034070 1.634165 1.349666 1.147751
1162 -2.808338 -1.736362 0.760259 0.391607 -0.057842 -1.950028 3.093390 3.293586 -1.086873 3.006992 0.651745 -1.483920 1.612384 1.064572 0.519714 -2.522665 -2.108029 -1.949548 -1.390286 -0.542009 -2.066089 -2.411802 1.797318 1.149881 1.696391 0.504673 1.158131 1.498420 -0.317119 0.512943 -0.527944 -2.020138 -0.827255 -1.465649 -0.939301 0.014255 1.539614 -1.543003 -3.025852 1.718165 2.013206 0.056128 -0.469891 -0.020477 -2.085639 -1.300083 -0.218098 3.038110 -4.191017 0.513578 -1.996081 1.829818 1.322161 0.671862 1.623145 0.187967 1.356843 1.883476 1.643270 -1.115125 0.696347 0.336618 2.799707 1.738891 -0.014296 -1.781635 1.402897 0.039063 -0.760229 0.557645 -5.880201 1.372825 1.090491 2.940453 4.636499 0.849187 3.719726 -0.382727 -3.281246 -0.901411 2.900163 0.754220 -2.142812 0.316996 3.313647 1.360865 -4.088246 -2.726661 0.416827 1.461340 1.028323 -0.492787 0.595638 -2.824649 -1.473269 0.781348 -2.730476 1.661349 1.349725 2.575109
1851 0.242726 -0.761248 2.016572 2.513124 -1.269654 0.365804 1.040381 2.540300 0.329138 1.834984 1.222570 -2.506764 -1.219643 -1.576886 1.350877 -0.518146 0.066745 -2.496700 -1.705045 2.385736 2.434729 2.816684 -1.899508 1.687568 2.571136 -1.541175 -1.995390 1.394431 1.207603 -6.404058 3.053762 -1.187554 -0.258558 -1.540751 2.205033 1.465868 0.978702 2.187729 -1.554437 0.919761 1.230795 -1.444525 2.787946 -1.387479 3.712191 2.298142 2.924831 0.607238 -1.198710 -1.580416 1.695724 -0.224505 0.979012 -0.251168 0.833360 -0.337666 -2.684913 -1.273654 -3.729491 1.968669 -0.094530 -3.948985 2.837240 2.138698 2.508748 2.689601 1.064571 0.148717 -4.723833 0.212006 0.742861 2.617642 2.255999 -2.258374 -1.249500 -1.135709 -0.050152 1.606228 3.226354 0.558990 -0.853780 1.046865 -1.625854 1.596524 1.179773 -2.083133 0.733941 -0.369974 3.282459 -5.272120 1.761229 -0.532252 0.585829 -2.678784 -1.479492 1.411941 1.882131 -3.057478 3.138967 2.415665
1218 0.843090 0.777612 -1.356824 -0.982649 3.531671 3.078269 3.171773 -1.225646 0.161007 0.747393 -1.746152 0.001970 0.160335 -1.558341 0.064245 0.289947 -3.452184 -0.597295 -0.956588 -4.297208 -0.056296 -0.789149 -2.145798 -1.293673 -2.045336 1.623108 1.565566 -0.219389 -2.210479 -2.159632 -1.544233 -0.840647 1.500107 -0.128475 3.998047 1.735657 2.426688 -1.309427 -2.713675 -2.963867 1.817341 0.718869 1.611985 -0.504291 -0.287810 -0.434847 -0.366083 1.800436 0.801086 -0.767616 5.291296 2.333055 1.855667 -5.233740 -3.078655 -2.301333 -2.029760 -0.961407 -2.677844 0.794251 -0.796813 -0.437257 -2.239768 -0.609005 -0.858745 -0.293003 -2.433493 1.215454 0.614861 0.865359 4.446651 1.785773 -2.636533 1.628979 -0.571827 4.258678 -2.639565 -0.652390 0.779232 -1.153136 -1.336297 -1.636163 -2.012665 -2.900976 -0.532650 -0.889313 -2.282437 1.272030 0.332479 2.020262 -1.303834 3.796304 0.934046 1.524496 0.252454 -1.234052 -2.182450 -3.033379 2.032086 2.142407
1502 -1.109149 -3.378362 -0.118670 1.341066 1.129290 -1.085432 1.658478 -2.156851 -0.005419 1.097849 -1.523346 -1.380644 -1.696088 1.356833 2.155864 1.987321 0.145542 0.885760 -0.217412 0.651281 -0.233223 1.912990 0.253877 -0.098527 0.394386 1.434606 0.098047 1.181932 -1.838295 -0.323810 -2.228507 0.229962 0.667987 -0.575612 2.181434 0.152544 -1.684489 1.691606 -0.268297 0.231939 0.372077 2.419157 -1.098783 -1.067991 -0.848558 -0.485104 0.755425 -0.504229 -0.328899 0.124618 -0.080441 0.009173 4.028625 -1.249713 -0.103915 -0.847187 0.238973 0.162290 1.076101 -0.258792 0.481575 0.104963 -2.000127 -0.426174 -3.426701 -1.964353 -2.008223 0.080120 -0.982548 0.522182 -0.554474 1.121489 0.592639 0.749867 0.204922 0.740689 -1.578910 -1.499379 3.007009 -0.332205 -1.104011 1.413581 2.192004 -2.361180 -1.414348 0.209251 0.430122 3.602599 0.306078 -0.057011 3.744934 0.488219 0.374830 -1.945056 0.650985 1.051893 -0.789306 -0.214921 2.805800 3.377015
1245 0.132618 3.744843 -0.055096 -0.656570 -0.677197 -2.844403 -1.112363 2.814352 3.689130 -1.443733 -2.722928 1.748168 3.481772 -1.019217 0.481009 2.443284 0.220954 -0.937857 0.302890 -0.799078 -0.805001 1.236028 -2.567274 -3.203217 -0.639277 1.697267 -0.186604 -4.279648 3.056956 -0.328629 -0.078498 -2.227043 0.064753 0.176277 0.654601 0.184330 -1.273636 0.190926 0.440982 0.431206 1.219308 1.767514 -1.554304 1.289810 -0.174791 3.205167 1.161842 -0.600514 -0.499750 0.538872 0.346902 1.037107 -1.986085 1.306837 0.602644 -0.268445 -1.407742 -0.311642 -0.584529 3.238032 -1.540997 -0.053254 -2.417082 2.447397 -1.205985 -0.480131 -1.299348 -0.998938 0.126247 -0.052731 1.542256 0.230231 2.961539 0.012925 -1.947900 -0.354348 -2.323864 -2.048678 -1.322950 0.210400 -1.216726 -1.430519 2.529772 -1.110629 1.964892 -1.373883 0.344028 -0.533712 0.491497 2.308024 0.415987 0.210935 -1.219891 0.058762 -3.794108 1.682982 0.649642 1.533954 -0.921350 -0.503498
1035 2.121367 -1.547568 0.930514 -0.391138 2.251574 -0.955472 2.615597 -0.065351 -2.391666 -2.940562 2.125910 -2.062105 -6.594946 -1.871673 1.326196 -0.105893 -2.500733 -0.384000 2.416431 -1.648227 -0.464800 -4.040347 -4.092472 0.527646 -1.518920 0.934402 -1.896733 4.392158 2.872055 2.660851 -5.067772 -4.627189 -0.377646 1.728928 -0.782906 2.485466 0.006617 1.490169 2.883224 -1.739418 0.246975 3.202432 4.050378 0.567726 3.836559 -5.584021 2.995361 6.014063 3.110685 -0.019264 2.359484 -2.029903 -0.146873 0.170633 -1.809312 -1.963228 -0.834690 2.418623 1.853679 0.558191 2.445614 -2.762557 5.068096 1.537063 3.666249 0.393593 1.184144 2.345878 -0.111025 0.658923 -0.513041 0.485181 1.729906 2.791481 1.712290 -3.726633 4.377863 -0.327857 1.954653 1.927140 -0.504425 -3.216261 4.020811 -0.856682 -2.753717 2.723444 0.815124 0.012154 4.266285 -0.615910 -4.666520 1.126390 3.384061 -3.054680 2.196862 -0.521341 2.080364 -1.559035 -0.341758 0.505472
1487 -3.229977 2.349692 -1.436840 0.851549 0.608040 2.971875 -4.760413 1.329644 -1.706883 -1.968729 1.149021 -1.873157 -0.128870 -0.207860 -2.169675 1.989842 1.299507 -1.086653 1.186331 -1.557679 0.118962 -0.291013 -1.210589 0.204390 -0.626615 1.024399 0.977223 -0.445199 0.328458 4.705493 -1.077733 0.809375 -2.112460 1.819243 3.738199 -0.550610 1.075995 -2.055738 -0.976548 0.428183 1.144741 4.016791 -0.799245 1.124553 0.440088 0.342200 -1.001025 -2.842008 0.902865 -6.025677 -0.626696 -3.270188 -4.033380 3.327414 1.305210 1.114321 0.022173 -1.419334 2.493262 2.750235 0.787667 2.192159 1.011715 0.136250 -1.021521 0.161173 -0.190336 -2.634440 1.515320 -1.553293 2.664662 -0.265102 3.048325 -1.109004 0.830394 2.899912 1.151514 0.947230 -0.328193 1.783880 -0.191957 -3.556323 0.197571 -1.366557 -0.123276 1.037259 1.200262 -2.986622 0.707247 3.520050 2.233905 1.802035 -2.703119 0.475349 -0.741578 0.898155 1.670883 0.980547 -3.265224 1.492630
1701 0.848891 -1.548918 0.194031 0.862236 0.877371 -0.403967 2.641187 2.199194 -1.933093 -1.100284 -0.773383 4.693145 1.456377 -0.781718 0.876692 -0.989062 -1.607714 -0.049262 -1.214575 2.090790 0.986057 -1.636820 0.456226 0.209137 1.022670 -2.901966 -1.217024 0.755549 -4.329611 2.729722 2.579854 0.085167 -4.399839 0.426325 -0.985982 0.290407 1.630837 0.470517 -0.484129 1.470742 0.375207 0.285034 2.943492 -0.599196 0.111164 -1.756692 -2.269249 0.443253 -2.042455 -1.012073 -4.354300 1.568473 3.000019 3.040240 -0.908524 0.005847 -0.853813 0.314153 -0.625346 -1.468909 2.131488 0.828420 -0.143128 -0.536805 -0.718370 -1.826276 0.599124 3.653733 3.171030 -1.937460 -3.183753 0.281608 0.680953 2.616216 -0.894741 0.728131 1.901622 0.423959 -2.057714 0.067699 -1.529115 -0.801176 -1.205546 -2.901235 3.439127 -0.008506 -0.782423 -0.179946 0.643488 1.587113 -2.525121 -0.352002 -1.776696 1.750168 -2.457253 0.221080 -2.672055 3.247068 -1.044737 -2.746138
1600 -0.510375 -0.426177 0.547065 0.027107 -1.495861 0.494581 1.354756 3.059122 0.810090 1.099576 1.388116 -2.458755 -1.795897 -0.052914 -0.650431 1.273367 0.259835 -0.146930 0.103729 0.986985 -0.376263 0.524391 0.504072 2.579320 0.109460 0.910232 0.278234 0.801950 -0.245641 0.144727 0.111985 0.815716 0.099229 1.422881 0.859777 -0.497806 -0.986725 1.315740 -1.284776 -0.652419 -2.046218 1.191632 0.138436 0.744334 0.336823 -2.038551 0.830194 -1.086086 -0.352444 -0.415215 1.082689 -0.768919 1.884324 -1.114356 0.966170 -1.429991 -0.781036 -1.036104 0.202907 -0.616676 2.142401 -1.580090 -2.632438 1.757040 -1.740501 -0.827167 -0.958505 -2.087460 -2.964188 -0.319575 -0.110365 3.075251 2.536430 0.637827 2.648043 -1.850371 -1.059303 -0.271401 2.989762 1.067206 1.192837 1.526610 -2.037093 -1.760790 -0.176423 -1.412733 0.114207 2.270264 -0.065246 -0.503071 2.520225 0.875163 -0.554340 -1.562249 -1.012395 0.677954 -0.804504 -0.360142 0.786400 3.385211
1279 0.505209 1.313271 -0.372838 -2.776644 0.606424 0.060634 0.041572 -1.410693 -0.000976 -0.454207 1.154805 -1.139421 -0.174711 -0.584583 -0.109919 -1.720322 2.376870 -1.999611 0.964478 1.002289 -1.978818 1.293398 2.056536 -1.445841 -1.318094 3.119781 0.860972 1.916055 0.405467 0.194462 1.274202 3.267996 1.495731 -1.835982 -0.062452 1.456569 -0.288544 1.214781 0.703723 -1.846005 -0.107754 -0.539794 0.498307 -1.149735 0.018452 -0.683099 -0.965067 -1.206521 0.439136 1.499295 0.460009 -1.064978 -2.913146 2.591391 0.217373 -2.319135 2.353992 0.871349 -0.663652 0.782535 0.926890 2.528711 -0.236033 -0.823986 -1.138478 -1.932776 1.373101 2.428379 -2.244915 -0.724724 1.315512 0.583567 2.081592 -1.087045 0.929349 2.301861 0.219696 1.789316 1.330070 0.029262 3.923009 -1.453968 0.338374 -0.343553 -0.019974 2.665764 3.613206 -0.728431 -1.290922 1.363766 -0.755337 -2.393275 -1.880484 0.747211 -0.654092 -2.095419 2.265332 -1.298893 -1.887053 -2.401364
1075 1.376246 3.507835 -2.400918 1.129144 1.634769 -2.764834 -0.555505 -3.357806 0.665513 -0.664215 1.292734 -0.121917 -3.065673 -4.178243 0.165162 1.861830 -0.350938 2.130069 0.608874 -1.996724 2.482044 -0.124475 1.579609 0.064932 -0.141018 0.913379 2.526080 0.596219 -1.782752 -0.242050 2.555703 -0.091753 1.974255 2.495861 3.786140 0.011111 -1.670436 2.715405 -4.963270 -1.521639 -1.820006 -0.600712 -3.353903 2.658120 -1.240661 -2.409860 0.773652 -0.420917 -0.061629 3.432580 -0.021047 -0.053085 1.185721 -2.754837 1.271893 -2.087791 -1.379401 -1.311244 -0.587385 0.077658 2.165675 -1.155212 -1.340936 -0.532837 1.970382 -1.614527 1.393812 -1.138321 -3.340102 0.212720 -0.329889 1.120114 -1.405764 -0.472382 0.676053 -1.755561 1.552736 -2.136453 0.170112 2.468781 -0.060483 1.386084 -2.899561 -1.159922 -1.796315 -2.357181 3.369720 3.296170 -0.086621 0.172691 -0.558811 2.754544 -2.873434 -3.059268 -2.245964 -0.436199 0.713126 2.898803 -1.606862 5.330501
807 1.980306 -3.537581 0.587855 5.267539 2.220588 -3.633736 5.511968 -2.461499 -1.156543 -1.528185 -3.460347 -0.140065 -3.211929 0.952035 0.077864 -1.371984 0.193702 1.776886 0.143068 2.461569 0.239442 2.581928 0.212086 0.652835 2.322135 2.272309 -3.013798 4.340022 2.054707 -0.021548 -0.735490 0.294884 -3.554696 -2.039105 1.641652 -0.512332 0.541239 2.902838 -0.084011 0.587633 0.230039 3.592331 3.635464 2.674901 -1.302599 0.745394 -0.050615 0.812563 -1.635168 1.938362 -2.176477 0.225984 2.384853 -2.451123 -0.783919 -2.129242 1.944891 -0.066236 0.504524 1.747927 -2.301205 2.368580 1.432459 -0.946125 -2.690212 -3.162029 -1.636608 2.493143 -0.282954 -0.466269 -2.652033 0.076005 -0.559919 -0.827351 2.805854 -1.032146 3.099758 -1.683887 -0.097218 -1.849604 -1.316335 -1.341684 1.557545 -2.250203 -0.898914 0.190206 -1.033513 -1.575424 -0.232291 2.407142 1.165873 1.634975 3.029187 -2.507299 -1.799278 -1.482677 3.330353 0.093708 -0.733812 4.095872
1484 -0.053170 1.118399 -0.629916 0.002507 -1.096220 0.713024 2.131565 -1.812483 -0.938370 0.804785 3.965611 -0.309031 2.634662 0.838846 6.728408 -2.793947 -2.030852 2.462220 -0.897058 -1.555301 1.118644 -1.298829 0.935590 -1.218567 0.619755 -1.662118 -0.751822 1.047588 -2.283700 0.571327 0.907858 0.184274 -1.404122 -0.905831 -0.600966 -0.272504 -0.336099 1.490811 -2.954336 3.381026 0.587126 0.132589 0.784052 0.343301 -3.858972 -0.147407 -0.346477 0.292853 2.371658 -0.546105 -0.147705 -1.872568 2.494895 -1.449001 -0.215088 -0.486326 0.234990 5.329245 -1.848593 1.986603 -3.078119 -3.538545 -3.039358 1.792952 -5.104144 0.789082 1.280090 -0.571815 -1.707437 -1.894917 -2.111595 -0.694214 1.426173 2.189255 -1.827608 3.619906 0.314887 0.772598 0.610423 2.427357 3.069245 1.948894 3.370209 -0.624482 -4.179366 -0.163397 -0.488945 1.151477 3.835556 -0.550793 1.200683 -0.801916 -2.216675 -1.026339 3.186265 0.667415 0.099339 1.271949 4.975807 1.657534
672 -0.993462 0.417466 2.853052 2.050470 -3.255295 -2.679147 -0.736814 2.221273 0.182157 0.622448 1.553996 2.082625 0.180191 1.518226 0.608440 1.927061 1.970367 -3.254279 -2.656311 4.486336 2.377573 1.666977 1.430452 0.513119 0.534013 -0.331027 0.410093 -0.507967 -0.896503 2.159945 -2.134977 0.392361 0.356639 -2.329979 2.952436 1.972412 0.474821 -0.733355 0.208844 0.689300 1.652204 1.972423 -1.800948 0.300341 -0.373231 1.560676 2.700678 -3.659149 0.586471 -3.716232 1.238393 -0.708045 1.261407 0.389354 0.112432 4.380068 -2.346748 1.773561 1.019484 1.542618 -1.670566 0.777919 -1.310602 -1.357475 4.320929 -2.757699 1.996634 0.790069 4.577081 3.749808 -1.140619 1.708536 0.234790 1.588229 2.196071 1.668368 0.787520 2.761142 0.160779 -2.127808 -2.201340 -1.284220 1.858427 2.197214 -1.187257 -1.364889 -1.839176 0.795852 -1.424573 -2.939634 -1.189702 -2.400146 -2.216158 1.114257 -3.037964 -1.591945 0.069037 -0.557888 2.865605 -2.331191
1639 0.112768 1.909690 -1.943779 0.196373 2.381591 -0.456759 -0.977845 -0.419204 -0.712073 -0.526584 0.032762 -0.608710 -0.335593 1.038830 -0.009279 1.996699 -3.857030 3.099172 0.961308 -2.381490 0.359506 -5.205167 -1.229977 -0.867494 -1.271711 1.449277 -3.264158 0.457185 -0.335036 -0.452751 -0.656466 1.772452 0.811439 -2.259974 -1.235961 -1.461699 -1.720598 0.054890 -1.494171 -1.776604 6.673049 3.197767 -3.765655 0.917784 -1.578661 -1.099381 -1.815355 -2.221619 -1.485162 -1.046977 -2.441932 -1.241663 2.051313 -0.374762 -1.683173 1.372023 2.247458 -1.909288 0.374069 0.753616 1.051280 -1.547284 1.035219 -0.953569 -3.006226 0.525575 -1.715933 1.212622 0.257357 -0.550360 3.401658 -4.202599 -2.613986 0.528429 0.703930 -3.654397 1.458341 1.497070 0.232951 3.374290 -0.400119 4.595792 1.453608 1.893793 -0.077483 1.364796 -0.923775 1.528505 1.755465 0.280091 -0.193577 1.211287 -0.446546 0.997896 3.678558 0.032594 -0.423678 -0.413871 -0.066942 -0.221427
687 -4.999204 -1.723437 0.537551 -3.253983 -1.220737 1.980524 -0.555247 1.935070 -0.138548 -0.450949 2.293975 2.178017 3.547300 -3.313914 -1.904886 0.132927 -3.427763 0.693264 -3.722629 0.190563 -0.475390 0.793351 -0.153177 0.524643 1.316120 0.614085 -0.817020 0.266118 -1.539225 -0.012603 1.062474 -1.253021 -1.361849 -1.134665 2.140619 -0.847284 3.130029 0.111866 0.671496 0.811216 2.091563 -2.388855 -1.135411 1.236462 0.318682 -0.854373 0.290560 3.614500 -1.789062 1.063773 -3.785622 -1.647822 0.317217 0.608224 1.323014 3.990055 0.307028 1.289180 -0.804826 1.200101 -0.402473 -0.533235 3.287030 0.897223 -1.617042 -5.132935 -2.070254 -3.072168 1.603922 -0.534680 0.063153 -1.824793 -2.357560 1.007042 0.710557 -0.174471 1.395189 -0.785914 -1.508245 -0.649528 -0.823891 1.714327 1.287193 -0.052052 0.982833 1.303384 -1.692004 -1.956543 0.220357 5.278769 1.829128 -0.856983 0.097317 0.145630 -3.593907 0.691153 -1.272957 -1.671086 -2.332165 0.264668
147 -0.074327 0.402594 -0.988739 2.046791 2.054938 -0.342758 -0.150756 -2.097393 -0.030642 -0.290992 -0.447388 -0.795083 -0.041651 0.231384 1.459604 2.104526 -1.554292 0.427752 0.006194 -1.750597 0.746288 -0.424266 -0.121513 -1.251873 0.674948 1.867467 0.470989 1.006777 -1.827623 0.099176 0.020829 0.366756 1.395349 -0.089168 0.868724 0.738128 -0.772988 -0.957579 -1.736657 0.582120 2.175174 0.462563 -1.492150 0.012069 -1.202785 0.497508 0.234707 -0.009683 -1.190311 -0.385606 -0.336609 0.324939 1.451206 -0.542181 0.052298 0.725872 1.399770 -0.466132 -0.670070 -0.017711 0.501226 0.345218 -0.272718 -0.207730 -1.614995 0.013751 -0.247271 0.932196 0.034533 -0.130091 0.018841 -0.142822 -0.905015 -0.042414 -0.301203 0.250957 -0.881487 -1.607327 0.641178 -0.032291 0.210924 1.491076 0.863578 -0.391756 -0.197500 0.949014 -0.253512 0.671906 0.092740 0.170788 1.412674 1.824461 -0.636187 -0.395049 0.852255 2.142694 -1.664643 -0.501899 0.552090 2.692608
1219 0.143613 -0.572456 -1.740582 1.573955 0.953410 -1.608537 -0.376250 -1.891605 -0.289175 -0.187283 -0.723108 -2.705438 -0.288015 1.408015 3.537431 1.574587 -1.643200 1.329715 -1.010763 -1.975099 0.253105 -0.505878 -0.004529 0.078126 0.887626 2.301034 1.017083 2.120625 -3.583855 1.104485 -3.825088 -0.336658 1.511878 -0.977685 0.140511 1.276208 -0.992548 0.131406 -1.559835 1.011717 1.856855 1.326570 -0.792481 -0.721315 -1.359043 0.734742 -0.378172 0.639306 -0.975602 0.553837 0.777300 -0.678002 3.979028 -0.836259 -0.000922 0.543731 1.179274 -0.611042 -0.800326 -0.943807 0.891955 0.007485 -2.628649 2.557853 -2.306532 -1.420581 -2.199975 -0.512136 -1.013085 -1.601111 -0.000692 1.454233 -0.622826 -0.058094 -0.637905 -1.037908 -3.047377 -1.556597 3.415958 0.120159 -0.651658 3.026074 2.692778 -2.211751 -1.630564 0.777701 -0.327558 2.162242 2.265661 0.176418 3.716220 -0.401482 -0.039396 -0.230106 2.293525 2.517867 -1.708872 -0.849542 1.380001 3.792570
1184 -1.504504 2.153252 -0.416908 -2.587113 -0.189679 3.473757 -0.264892 -2.216814 -3.519027 1.022084 -2.287524 -0.817004 -1.170573 2.262019 0.973239 0.316066 -0.889336 0.200582 -0.284625 -0.968625 2.263637 -0.484159 1.051326 0.712241 -2.327832 0.308125 -0.911862 -0.379808 1.330706 -0.712632 1.787444 2.147659 2.370704 0.712221 0.432636 -1.962976 -0.312168 -4.285082 1.552896 1.508733 -2.764757 1.039083 0.066244 -1.063213 1.646564 1.891505 -2.285262 -0.528163 -0.070371 -1.477920 -1.108682 2.603115 -4.455818 3.124040 -1.990533 3.737840 -2.484808 -0.082766 2.114836 0.820839 1.540025 -3.903070 -1.528820 1.678222 1.636814 0.149561 4.604184 0.965909 1.109279 0.269276 1.822391 -4.197089 -0.067902 2.311254 -1.996204 0.737328 0.405616 -0.285698 -0.726745 -0.881112 -2.189536 -5.219427 1.340122 -2.933437 1.053230 -4.727877 3.355878 -2.570280 3.207045 2.681014 2.133524 0.248011 -2.116670 1.236239 2.787717 1.455064 1.197470 0.930639 0.300732 1.716956
1186 -2.924932 1.428917 -0.888590 0.285717 2.177732 2.931919 1.025628 0.351774 -1.360328 -3.860840 0.840741 -1.472060 1.184448 0.060494 0.184737 1.779848 2.087850 -1.405475 -0.123714 -2.011214 0.156506 1.504308 3.133400 -0.459190 -0.180115 -1.063781 -2.101500 -2.682311 1.454763 -2.883247 0.147731 -0.559000 4.806433 0.671435 4.200393 4.152657 -1.267691 -1.492218 2.301867 -3.578583 -2.767642 -2.410568 -2.618938 -1.636558 3.209796 -2.028483 3.091317 1.911075 3.666935 0.248841 -0.450866 0.031439 2.523185 -2.161570 -0.829426 0.448304 1.563154 -0.325333 -0.480182 3.218008 0.692967 3.661098 1.419100 1.429822 2.398957 1.863764 2.380054 1.039793 -2.087245 2.297050 1.450351 3.422601 -2.536245 2.263174 -1.720316 1.004495 -2.493518 -1.922383 -0.604165 -4.897422 1.102239 2.192553 -0.450595 -1.920805 0.425465 1.883700 -0.242778 1.607228 -1.349378 -0.380882 -0.527063 3.286580 -1.738011 1.865450 3.387249 -1.779963 -3.910025 -2.262201 0.044488 0.623204
427 2.166097 -0.739403 3.470775 0.528874 -0.633253 -0.943339 -0.040319 -1.481654 -0.658091 3.025272 3.049205 1.344653 1.143930 1.010419 -0.053382 0.145721 0.948617 0.258729 -2.175288 3.309264 1.788616 3.430810 -4.105360 -0.969960 -0.806697 1.295240 0.675105 -2.073900 2.298559 1.149152 1.252757 1.105028 2.791642 0.215994 5.774622 -0.159184 0.858773 -1.860036 0.594861 0.016052 0.659277 1.929759 -0.222919 0.851138 -2.759486 2.303380 3.524389 0.894013 -1.551543 -0.792818 -0.009785 0.546525 -0.479695 0.748208 0.087736 0.183840 -1.616067 1.296902 3.653475 0.323089 -1.050959 -2.922765 2.959745 -2.276378 3.084648 -0.429716 3.862945 -1.615609 4.166338 0.337938 -0.410746 1.695522 -2.899091 2.629420 1.700435 -0.489796 -0.082288 0.582425 1.825895 -0.051668 -3.465953 2.237806 1.902022 2.803376 -3.621454 -0.109726 -3.047985 -0.893367 -4.085909 -2.049415 -1.121273 -5.515514 -2.876583 -0.150593 -0.469235 1.542548 -0.986794 1.481441 -2.130005 -3.684520
289 6.121047 -1.147707 -1.159700 0.525463 -1.835306 0.007988 -1.957941 1.691561 3.125907 -2.678011 -2.468971 0.910020 -0.004914 -3.551199 -0.623314 0.622751 -1.948524 1.936259 -0.971230 0.962754 3.793200 -3.332318 -0.769432 -1.172987 2.063168 -1.530231 3.410673 1.377908 -1.050991 0.029664 -0.512036 -1.403864 -4.463804 -1.196864 -0.365045 1.553587 -0.780070 -0.910147 0.722665 1.452229 2.544311 0.496410 2.224973 -0.902224 -4.389263 -3.089901 -5.459496 -0.141223 1.156707 -2.192727 -2.799001 0.229165 2.039619 -0.811763 2.202476 3.662734 0.776657 0.762464 -2.457426 -0.851422 0.663618 1.719882 -3.215292 0.910506 -2.619402 3.016146 0.538293 0.343131 0.410721 -0.650555 -1.727414 0.307694 1.728868 0.869302 -1.655168 -1.597452 1.335334 -0.152291 -2.184617 -1.405125 -2.006432 -0.916595 0.788096 1.682312 1.771751 -0.469219 -1.412751 -3.054475 3.307073 -2.587995 -4.157001 -0.200016 2.321574 2.732613 -0.135291 -0.501628 -1.072337 1.778897 -0.891248 -1.605825
312 3.863372 -1.235601 0.073266 2.113616 1.755027 -1.364929 1.111893 -1.247455 1.639024 2.516613 -0.094638 -1.525253 -2.054082 0.827671 -1.037541 2.104991 2.638019 0.668609 -1.016835 2.061773 -1.481811 1.532015 -2.272514 1.425493 4.157197 -0.660049 -2.069633 -0.136720 0.756988 3.005107 -0.772777 -5.018625 2.023710 -2.944264 2.806963 -0.744326 0.655951 -3.824095 1.624822 -1.419098 0.657296 4.376761 1.109244 2.778460 -1.319667 2.286026 1.388839 -0.177275 0.348045 0.993778 1.627813 2.685920 -0.604958 -0.365332 1.650852 -1.686882 -0.218648 3.800273 2.213410 -1.024726 3.130069 -2.955567 1.360458 -3.628976 -0.179951 -1.237059 0.412517 2.747713 6.405689 -2.032206 -3.278624 -3.807045 -0.416106 -0.694983 4.510930 2.498775 0.436502 0.961315 4.105093 1.893027 0.557333 2.173771 3.385380 -0.410312 -2.694987 0.292175 -0.886101 -1.389707 -2.694373 -3.355131 -2.475796 -0.755594 -0.858253 -1.038837 -2.468600 -2.074350 -0.953483 -1.722984 1.917835 -0.284292
898 1.150001 -2.942068 1.205412 3.187931 0.464773 -3.107603 0.898818 -1.900947 3.382926 -2.275200 -0.205016 2.649411 1.843911 -0.743119 2.318856 0.753300 -1.029349 0.931256 2.643793 1.943541 0.383703 -0.568829 -3.183491 -1.151768 1.262503 -0.348642 -2.138570 1.377714 -2.432747 -1.641737 -1.547336 0.828393 -0.839320 2.449397 -0.030838 -0.366172 0.600031 2.346656 -4.338408 1.891071 1.384330 2.215834 -2.797979 -4.010416 -2.669767 0.040409 0.462690 1.363423 -3.437661 0.164486 1.054776 -2.505165 -1.890099 -3.617037 -3.072220 3.223178 -2.402395 -2.894146 1.592401 -1.212683 2.205335 1.980563 5.084175 -0.900688 -0.442955 1.323482 3.191859 2.058249 -2.347958 1.704287 1.953244 -2.400654 -1.597256 0.446062 -0.656331 1.372251 -1.348702 3.195583 0.674614 -6.612505 -1.717503 -0.657102 1.030579 -2.450058 -1.181397 2.030757 2.332135 0.924866 -0.274959 1.172929 1.390342 1.572300 4.653617 -2.291146 -2.837803 3.443399 -1.077794 1.005858 2.018498 0.521109
1024 1.907153 -1.239588 2.674550 0.613114 1.413147 0.806669 -0.242011 -2.561215 1.101032 -0.884684 0.796337 -0.600624 2.557664 -0.752039 0.236715 -0.452434 -0.679413 -2.103116 0.077422 1.018015 3.528145 -3.112252 0.436037 -0.397213 -3.057237 -2.217794 1.847905 -0.407735 2.063465 -2.962067 1.851539 -0.185090 2.397998 1.240058 -0.711800 0.591545 1.243587 1.338531 1.623107 -1.443917 -5.031087 -1.201850 3.572245 -0.637149 -2.575946 3.280656 1.406555 2.931020 -0.123887 -2.170707 -3.412901 2.183169 2.591196 -2.413505 -2.345751 0.311507 -0.045545 -1.096723 -1.006068 1.913271 -3.551071 -3.411357 3.064503 1.140993 0.909600 1.836710 2.889952 1.268504 0.655430 -1.398161 -0.297070 2.088050 1.299978 4.532767 -0.444016 -0.271474 -1.668966 1.799415 2.654015 -1.665293 -0.709025 -1.623315 -2.397677 3.223070 1.394669 -1.708975 -3.540495 -1.329430 1.045526 2.700554 -0.233863 -0.727524 2.323485 -0.573882 -1.727103 -1.110978 3.302720 -0.599480 0.612677 -1.958373
1077 2.520281 2.375776 -1.290196 -0.385794 0.448465 0.369658 1.450097 3.330026 -2.522888 -1.236611 3.894581 -0.587862 -0.402209 -0.126405 -2.743150 -1.494791 0.214089 -1.615707 -2.275898 0.690667 1.312937 -1.124945 -2.517846 1.384550 0.432543 -0.277779 -1.758023 -1.639545 -0.515745 1.084422 1.587730 -0.941141 -5.071919 2.055386 -0.152361 1.227044 1.309722 -0.490120 -1.879864 0.165098 0.411031 -1.316536 4.054038 -3.901687 1.742659 -0.389275 -1.242107 2.397830 1.602891 -2.677752 -4.738656 -1.822726 0.450990 -0.774766 -1.239217 1.407910 3.248843 0.399289 1.227344 4.720579 1.771469 2.657528 1.260356 -1.316122 2.499691 -4.041483 -2.599203 2.863877 2.290394 -0.111914 -2.324835 0.462345 3.420566 -0.895546 0.416299 -0.400244 2.600041 -0.201879 1.151428 -0.961989 -2.600248 -0.130383 0.837236 -1.695337 1.277834 2.147157 -0.541727 1.085224 -1.634013 3.149536 1.826318 0.484720 0.689975 1.959668 -1.256181 0.608298 1.090775 0.858583 -2.459152 1.472465
1224 0.897214 -0.035586 -2.540627 -1.390555 0.754232 2.552997 0.469255 0.334106 -3.307388 -0.276670 0.905873 2.260592 -2.070182 -0.187685 -0.314942 -3.539836 -0.781802 0.474030 0.406979 2.041007 -2.607662 -3.417453 -1.595936 3.148366 -0.257457 -0.793762 -1.716385 0.883740 3.325579 1.178116 -2.485526 -0.583792 3.568408 2.206338 4.630559 2.881746 -0.826555 0.222061 3.700513 1.478637 -1.864642 2.104301 -2.458114 -0.750330 2.967934 -0.600725 -0.256144 -1.996161 -0.529077 1.641507 5.037517 -1.375245 1.729957 0.029282 2.210345 0.597790 0.083498 0.501484 -0.252877 0.462067 -1.500906 -2.216385 -0.553934 0.680091 -3.237787 0.485902 0.551604 0.424495 -0.467662 4.293493 -0.775812 -1.449033 0.656782 -1.160618 -0.953001 0.169689 3.451081 -3.318790 -3.501234 3.049779 1.198241 -3.521412 -0.199895 -4.741478 -1.878595 1.376782 -0.342704 -1.146417 -1.385320 1.228537 1.428762 -2.059164 -0.762549 -0.300609 1.427120 2.625624 -0.112374 0.699793 1.237559 -0.714216
568 3.219605 -3.415326 1.389656 1.791199 -0.274234 -0.776803 -0.057247 -0.731632 -2.992759 -1.477734 0.865411 -1.561497 -2.595484 -2.282073 1.976426 2.678777 -1.722522 1.148530 3.041226 -2.743629 0.279051 2.303194 0.270642 -0.321502 1.306733 1.079738 2.553260 0.510815 -2.411057 1.035818 -0.839365 4.074093 0.646697 0.694486 -1.931242 -3.532504 3.069231 -2.393553 -1.334595 -0.050959 -0.413130 -0.583673 -1.153232 3.533562 1.472584 0.793024 -2.567958 0.812295 -0.046230 -0.870738 0.888174 -4.600497 2.845589 0.550574 1.032176 -0.336463 -0.341039 -1.639684 2.118919 -0.401368 1.639957 -1.245103 -2.231417 -1.296076 -2.607865 3.952488 -0.665892 -1.244519 -0.911862 -1.581316 1.805366 -1.380075 2.259094 -0.585825 1.836344 0.771175 -0.963147 0.129092 -2.618062 0.108523 2.669398 -1.296166 -1.265152 0.137157 -2.242907 2.169170 -2.332541 0.898413 -0.975972 2.488094 0.115611 -0.434620 0.953734 -0.779368 0.591288 -0.206406 -1.651519 -1.499838 -3.308187 -0.412743
1181 -0.226047 3.096428 -4.950645 -0.114001 -1.892777 0.631289 -3.924091 0.714884 -1.068603 -0.604630 2.389083 -2.748404 1.871918 -0.385058 4.772419 2.124873 -2.166432 0.093067 -2.145801 -5.048765 1.047551 -1.722648 -1.763597 0.960908 -2.465098 -1.554978 -0.093910 0.444006 1.845356 0.716157 0.538067 -0.433311 2.428945 1.484167 -2.214676 1.643944 0.743947 -3.802653 -4.293412 3.333280 1.839990 -3.730746 0.451955 -0.052092 1.133798 0.244083 0.578391 1.861408 1.110646 -0.939088 3.442124 -0.028485 0.439525 2.332972 0.466527 0.454018 0.807857 2.480339 -1.814318 1.207210 1.910896 -1.744633 -0.258198 -1.167054 1.988977 1.743391 -2.459458 1.965305 -1.289624 -1.065818 2.091055 -0.011283 0.754251 -1.602757 -2.680660 0.346775 1.794481 0.474480 1.781822 5.533632 1.357406 4.054968 1.235707 0.970787 -1.921699 1.543517 0.221190 -1.218790 1.751873 -2.038703 -0.612262 0.893214 -3.953896 -2.678323 1.243909 0.967447 0.202764 -4.235560 0.773462 1.202930
1774 0.449557 -1.677193 1.067682 -0.215728 2.277117 -1.220868 2.688836 0.295121 -1.944194 -0.959843 -2.499889 -0.321077 0.575179 2.033978 0.623847 2.131537 -0.488436 3.079605 3.146861 0.467705 -1.509421 -0.712184 -1.660998 -2.450087 -4.443044 0.380348 1.565058 0.742958 -0.894782 1.023600 0.293190 1.799146 4.388305 -0.084252 -1.215724 -1.227630 1.212713 4.461416 1.189314 -2.269222 -3.420002 -0.692260 0.777267 -0.604137 0.343962 1.483864 1.213073 4.199429 1.127346 -0.036609 -1.182568 0.322193 1.596878 0.505123 4.237921 4.084695 -1.328139 3.126534 -2.721488 1.541412 0.152405 2.198661 -1.058132 -0.005979 -0.572003 2.178298 -2.902396 -0.404694 1.845403 -0.023804 0.882211 -2.771642 0.090587 0.077112 -0.908030 0.506974 1.658719 0.464925 0.149286 3.473820 0.899354 -0.488839 -0.507303 0.318492 1.552718 -2.331078 0.047412 -0.823614 -0.027917 -1.583259 0.742256 3.050117 -1.117495 -0.437077 -2.482451 -0.197061 2.727320 1.403438 0.923430 -0.762099
378 0.736886 -2.784106 -1.331003 -3.511299 2.307582 0.167653 1.348941 -0.975167 -0.433618 -2.908974 2.628252 -1.465662 0.774608 -2.119966 -1.504542 -3.747359 -1.580853 -2.310841 1.660230 0.472554 -0.284617 4.894010 -0.338595 -4.602893 -0.150201 -0.815047 -1.027361 -0.031400 1.429825 -1.242267 1.851344 1.436085 -0.540274 1.324759 -0.860280 0.120137 -6.344723 -1.393739 -1.674995 -4.566478 0.832186 -2.626557 0.368895 -0.335102 0.387424 2.484649 -2.134593 -0.818120 -0.127115 -0.780628 1.383129 3.028144 -3.311858 1.077091 -1.089318 0.519898 -0.945215 -0.223323 0.560014 -1.005054 -0.953360 1.353330 2.281778 -0.619560 4.158792 1.113798 0.107457 -1.851431 0.914979 -1.213496 -1.884874 -0.438302 -4.600635 -1.512123 -1.225785 0.362598 -1.602630 -1.151131 -1.166688 0.932250 3.727712 1.493416 0.568928 1.287183 -1.295990 -0.346309 0.759716 -4.899400 1.652689 -1.206492 0.436303 0.699874 1.924062 0.811848 -1.125026 0.348953 0.902284 -2.758945 -0.236221 -1.975777
1128 2.556727 -3.527397 2.638940 0.126853 -1.462641 0.474780 -1.139689 -1.160754 -0.883703 1.266625 -4.175830 -2.869774 -0.693982 -0.724566 0.244956 1.735575 -0.930365 0.300630 -0.828730 3.946128 -0.960753 -1.628161 2.658691 -0.979051 -1.668841 -1.107839 1.953444 3.931917 -4.474025 1.378557 -1.610675 4.672547 -0.070649 -1.134487 -2.205989 -3.976839 1.140380 -0.600269 -1.575576 -1.598692 -0.574539 2.006860 3.220820 3.626054 3.198959 -3.360711 -2.846977 2.937543 1.680182 2.417766 1.675211 0.235800 1.646222 1.542723 -0.055882 -1.159349 -2.677972 -0.965435 4.076295 0.738268 1.389721 0.253588 1.803297 1.444268 -3.594551 -1.103124 0.168061 -1.092202 -3.430025 2.462198 -0.093116 0.000106 0.607638 -1.727163 -0.465849 1.884219 -0.863003 -2.442150 0.683201 -0.066408 2.187505 1.785588 1.292075 0.721246 -1.125051 1.299958 2.163661 1.070550 -1.956836 1.523430 -2.382625 -2.560978 1.881606 1.748865 0.066910 -0.202454 -0.242595 0.218568 -0.023822 -1.354697
1222 0.872746 -0.430156 0.722462 2.061018 -1.484244 -0.720394 -1.206907 -5.153353 -0.977629 -1.431551 0.029403 0.616843 -1.497089 -2.917160 -1.067461 3.004893 0.011488 0.049379 -2.467738 -1.762165 -0.424251 -0.661291 0.990128 -1.802435 2.269451 3.352862 -1.029228 1.957840 -1.994115 -0.104256 1.972601 -0.906279 0.677868 1.604983 1.737402 1.763104 0.184780 0.856465 -3.822836 1.282149 1.660546 -0.832947 -2.413876 -1.241679 0.419729 -1.881668 1.811959 0.607135 -1.612727 3.359840 -0.273016 -0.667049 1.841532 -1.893617 2.329721 1.011136 -1.042357 1.347708 -0.883480 1.571474 0.318433 1.046543 -0.482946 0.894395 -0.660736 0.624678 0.120128 -3.252222 1.860415 0.493095 0.313037 0.239508 -2.787210 1.034246 -1.549192 -0.283173 2.342492 1.696186 -2.625654 2.467340 -2.600721 1.072461 -2.976866 1.223969 -0.042314 -0.693565 2.633044 3.576161 -0.811239 0.523700 -3.577718 -0.289166 -4.035781 -0.120080 2.132475 0.806185 -0.072033 1.511057 -0.846336 5.479981
767 -3.486180 -0.982209 -0.166620 0.017623 1.969274 -0.310966 -0.470461 -0.231188 2.836955 2.881398 0.428363 -1.489459 -1.648173 0.890009 2.480959 6.879324 -0.093951 -0.270104 -0.028384 -1.140852 2.056522 1.715260 2.144437 -3.972451 1.617289 4.161425 1.431767 -1.956217 -0.660345 -1.966116 1.488837 -0.158760 -3.214445 -0.818973 -3.432133 -2.407241 0.302603 0.273545 -3.302345 1.903024 1.780684 1.498608 0.767192 1.909388 -3.532637 -0.649153 1.029624 3.532548 2.481853 -2.308685 -3.442382 2.453429 -1.413981 -1.294339 -2.892526 -0.791451 -1.037828 -0.622800 0.451207 2.251466 -0.081579 1.361387 -0.588319 -1.372339 1.665655 -1.173948 0.848756 0.445248 1.350525 -1.397305 3.501353 0.088032 0.123216 -0.372331 0.397956 2.303727 -4.178918 2.938516 4.389510 -1.570557 1.207408 1.919019 -0.324377 1.263870 0.226768 -0.163220 2.441071 3.524650 1.506490 1.433908 -1.401304 4.919615 0.297598 1.496906 -0.240345 -0.583536 -1.175174 -1.500123 0.275573 1.903630
40 -0.987920 -1.017424 -1.068436 0.018900 0.337234 0.974218 0.296234 0.497083 -0.147296 -1.609629 3.331626 1.358318 1.143571 -1.663345 0.281616 -0.154828 -3.121316 1.475990 2.204757 1.010116 -0.892720 -0.860612 0.827632 1.756396 4.450564 -1.254775 1.052490 -0.349958 0.069182 2.793456 -2.221161 -1.529335 -1.125562 3.154108 -0.192570 -1.034270 2.164232 3.356864 -1.680294 1.655245 -1.437173 1.255004 -1.013077 3.843904 0.293783 -1.219241 -1.625211 -1.582301 0.360643 -0.599304 1.361383 -1.476211 0.552739 -0.393772 2.348303 -4.567339 0.182920 -1.061386 0.250504 -0.620110 -3.683722 1.326912 -1.044461 0.594004 -1.679819 -0.425730 -4.706584 -0.449982 0.056889 -1.332983 2.854411 1.904136 0.482936 -0.375895 1.427740 -2.012568 -1.788290 2.340077 -0.073096 0.482641 4.015621 3.667023 -5.355575 2.128013 -2.577376 0.564206 -0.446412 -3.093914 -2.758948 -0.789475 -2.826585 0.650062 2.813256 -1.549182 0.103240 2.380883 0.842253 -4.190850 0.099351 -1.832698
1296 -0.296229 -0.730858 0.616364 1.436637 -0.834390 -3.872958 1.712245 0.701337 -0.368353 1.721246 5.237171 1.182948 -0.079196 -1.353838 1.197413 -2.465150 -0.041205 0.256497 0.979661 -3.779665 -0.045838 0.729310 0.602800 0.159290 -1.857141 3.368404 2.632828 -0.592195 -1.429349 1.218739 0.716880 -0.423243 -0.480713 -0.978071 1.613179 -0.852333 3.557661 2.867086 -3.012677 0.291473 0.719551 0.734883 -4.524957 1.367398 -0.884133 -2.318267 0.069093 0.127734 1.215055 0.507856 -1.999656 -0.218912 -0.047391 -0.248879 3.066966 -0.106108 0.265868 -2.066267 0.344660 -1.810112 0.347446 -1.657930 -0.269840 -1.446060 -1.504445 -0.746258 1.302505 -3.252857 -1.558998 -1.064934 -0.223914 -0.068497 1.908566 0.762472 3.416557 1.457072 2.177816 -0.526248 -3.431751 2.243522 3.252143 -0.918723 -4.765254 -1.209147 -2.771549 1.045811 2.890390 -2.571013 -1.318509 -1.896258 -0.574905 2.993132 -1.078870 -2.386197 0.426687 -0.265210 -0.145250 2.142785 -0.087014 4.003281
129 -0.200939 -1.472073 0.978100 1.007730 2.567534 3.640864 -1.471079 1.024390 -1.263702 0.600604 1.043841 1.650438 0.355660 2.407125 0.534304 0.910307 0.415388 0.711229 1.744177 -1.272773 -0.885726 1.312536 -0.980777 -0.940538 -3.588985 0.388129 0.631296 -0.974496 -1.243155 -3.196268 -0.470221 -0.806297 -2.215226 1.222312 1.082103 -4.637424 1.973137 -2.868275 -1.039714 -2.815871 1.613709 2.548447 -1.788880 1.097909 0.035008 1.091100 -1.574529 0.704178 3.524780 2.045123 3.019192 -0.928223 2.394728 1.422010 0.077643 -2.821093 5.289411 -0.134071 -1.512337 -0.641204 0.753791 1.925018 0.486102 2.258435 -1.587741 0.439394 3.254174 1.721812 0.651609 2.608566 -1.505174 -0.807543 -1.564083 1.303814 -1.083835 1.492249 -0.425083 2.100384 0.599612 2.315952 -3.020581 -1.778064 2.294182 -0.887229 0.460862 -3.122791 3.176152 -2.349198 0.463871 -0.961884 -0.882489 1.855670 -0.739507 -2.482240 -1.621227 4.088982 1.579097 -1.816872 -1.005115 2.552673
646 0.215914 3.016308 -1.810926 -2.489039 2.606665 -0.492488 -0.359272 0.239563 -0.956421 0.703587 -0.811114 0.325692 -0.396980 1.150450 -1.530195 0.745973 -4.849710 3.134677 0.721050 -1.987451 -0.647567 -3.825207 -2.678650 0.385482 -2.814148 1.311774 -4.971628 -0.115682 1.917385 -2.091929 2.151757 1.194073 0.617690 -1.798628 -2.589370 -2.440581 -0.629087 0.841606 -0.923939 -2.198979 4.054029 2.654959 -3.539891 0.936594 -0.474135 -1.813778 -2.134844 -3.131622 -2.015566 -0.675604 -1.836623 -1.923216 0.700634 -0.114633 -2.242881 1.419800 2.286196 -1.013748 -0.343799 1.998912 -0.760767 -0.093535 1.169357 -0.935108 -1.489219 1.016034 -0.217090 0.787755 -0.701199 -1.614555 5.377843 -2.759748 -1.029956 1.726333 2.853497 -3.456938 1.002441 2.766723 -0.896167 4.363569 0.754907 3.816468 0.783059 2.580443 -0.783006 0.873535 0.024420 0.992611 0.990381 -0.779087 -0.694624 1.244043 0.969032 0.373677 2.681799 -0.246357 1.077084 0.374989 -0.357316 -2.228729
743 1.938134 -3.251324 2.375174 -0.829217 1.169883 -2.654800 1.633301 -2.796946 -3.218918 -1.535293 -0.093232 1.450831 -1.288868 0.712479 -0.312270 -2.122576 2.150687 -5.099808 -0.598899 -1.564765 2.210420 0.249158 -2.599228 0.884039 1.139511 0.842981 0.456454 -2.307305 2.285354 -0.428439 -2.881405 -4.401247 -1.843467 1.326071 -0.764352 2.877325 -0.054290 1.965175 3.076729 -1.801721 -0.169766 1.235989 -2.121910 1.531396 4.384024 -2.983690 3.069091 2.922159 2.170843 0.817183 3.673001 1.147465 -3.553427 -0.756375 -1.323752 0.505485 1.373034 3.654580 2.273242 -0.607815 0.743645 -3.521494 2.755706 -0.834949 1.123225 1.755183 -0.362720 -0.694096 -1.221337 -1.648760 3.120577 -0.430048 2.653992 0.241623 0.328980 -1.080809 2.934369 0.343581 1.253074 -1.376763 -0.136362 -1.511666 3.657507 -1.605739 0.029435 1.548373 1.126199 1.651899 1.483060 -0.589037 -6.546884 -1.410517 0.627968 -2.137316 -1.839527 -1.570429 3.153089 0.252554 1.074454 2.147064
880 1.020091 3.706533 0.655168 1.058363 -0.171848 1.339057 0.994755 -1.735622 0.460827 -0.471439 2.620872 0.978784 -0.422952 2.481160 2.274136 -0.789863 0.416854 -0.029353 -3.149973 -0.111478 0.246705 -1.840948 2.765220 1.099086 1.075598 0.950031 0.298189 0.470675 -1.517613 -1.555960 1.176443 0.154651 1.041469 1.378090 -0.153257 0.989093 2.945181 0.948933 0.560904 3.151875 2.713959 0.342222 -0.583291 2.943072 -0.859542 1.751219 -3.234708 1.582478 0.634376 -0.728409 1.586490 -0.533587 -0.959070 -1.712637 -0.948715 0.571855 -0.101862 3.291240 0.336658 3.208388 2.269727 0.306629 0.314106 0.392880 1.430060 1.032295 0.771439 -0.046445 -1.607034 -0.130027 1.636524 -2.813894 -1.175091 -0.469915 -0.210260 -2.196423 -0.294391 -1.965536 -1.757766 3.345126 1.003921 2.808622 0.903156 -2.004716 -0.077815 -0.106351 -1.229013 0.545262 -1.685030 -1.170861 -0.105312 1.379694 1.217382 0.693386 0.108685 1.483012 1.006901 -2.069424 0.234120 2.327901
288 0.127048 -0.091598 0.529813 1.197047 1.381153 0.943825 -4.035944 -0.002705 3.429613 1.040869 1.078994 2.693394 -0.367875 -4.159112 1.547364 -2.224705 -2.859539 0.741450 -0.363963 -1.480696 0.581805 -0.612792 1.420595 1.514673 2.496702 0.698435 -1.466551 1.900641 -1.672902 1.080693 3.069322 -0.877330 0.435659 0.082216 -0.063168 1.901396 -0.637476 -0.002625 -1.024017 0.880364 -0.437867 1.314840 0.188404 0.454987 -2.836910 0.296739 1.015211 0.284781 1.426117 2.172828 2.384625 2.016819 0.665189 -0.801919 -1.414312 -1.848576 2.560798 -4.931929 5.012424 0.830678 -0.698874 -0.822797 1.201311 0.110588 -0.697465 -1.297906 -2.254762 1.857190 -0.062648 0.425573 -0.084774 0.975459 -0.650945 0.272606 -1.101996 -1.725081 -1.385304 2.358431 -1.351074 0.028119 1.407443 -1.852428 1.027153 1.949717 -0.333937 2.876168 -0.220778 -0.760258 0.154778 -1.402909 -0.555773 -2.781358 0.889184 1.765498 2.656672 0.471200 0.428295 -1.814437 -0.827737 3.248474
665 -0.651797 0.498716 -0.657215 -1.719174 2.643859 -0.976911 -1.383613 -0.773694 -1.045017 -1.189703 0.185431 -0.802954 -0.403442 0.782519 -1.196092 1.221209 -1.507869 1.204308 0.143780 -2.031529 1.646718 -4.078019 0.625618 0.621585 0.363646 -0.293884 -6.154854 -1.932402 2.130791 -1.754335 0.119679 0.672601 0.452515 -0.932725 -2.801971 -1.069966 -1.778620 0.539377 -0.269608 -2.671329 3.924956 2.315172 -4.335595 1.199834 -2.186981 -2.718412 -0.127131 -1.659613 -0.054191 0.400761 -0.654671 -1.614631 2.292924 -1.529265 -2.263908 2.612187 1.285027 -0.022719 -2.068586 1.200428 0.208152 -2.707628 -0.839533 0.134016 -2.457735 0.808707 -0.861389 1.874521 -1.575988 -2.738907 3.308385 -2.566771 -1.435666 -1.029914 0.972174 -3.526812 1.340979 2.620383 -1.316418 2.735734 -0.853187 3.879028 1.737867 2.090944 0.986395 -0.318295 -0.592019 0.667963 1.045990 0.204613 -0.317557 -1.508828 1.387084 0.495450 0.374920 -1.967285 1.321363 0.587092 -1.991162 0.023787
707 1.959331 -0.944756 -0.475365 0.665895 -2.352324 0.953631 0.573972 -0.202673 -2.467337 1.966419 0.363096 -1.988847 0.883264 -0.353799 -2.823590 1.531065 4.730693 -1.043416 -1.408634 0.509034 2.186435 0.609966 -1.239761 -1.409603 1.844471 1.281081 -1.617435 -1.033642 -2.570267 1.688941 0.883494 -0.860984 0.535411 -3.065232 -0.795966 0.774721 -0.750914 -1.798296 2.348035 -1.699295 -1.428177 3.905448 -1.098220 -0.300829 -1.225340 4.477370 1.238190 0.661671 -0.372114 6.808392 -0.318157 -1.125483 1.575353 -0.066514 2.273450 -0.986694 0.596462 -0.948809 1.622847 -0.465855 2.674881 -2.763846 -1.090530 -0.997618 3.396492 -1.124654 0.845416 -1.295022 2.221213 -3.323289 -1.401117 -0.061994 0.624636 -0.241897 -0.559786 0.454763 0.515765 0.177911 -3.045955 2.101048 2.138749 2.651762 4.734029 1.729033 -1.207525 -0.938872 -1.157470 -2.107957 -0.554111 -4.235741 -0.867510 3.082618 1.069842 0.273280 -1.362603 -2.844472 1.163564 -1.935577 0.518370 -0.505358
468 -4.550119 -1.216661 0.375136 0.478173 2.500266 -1.236825 0.555212 3.690426 -1.802041 2.336883 0.978488 0.471369 2.138992 0.641175 1.175074 0.320873 -0.228277 -2.938843 -0.589316 2.108976 -3.576530 -3.741672 2.032704 1.704047 1.084003 0.106850 3.915756 1.940558 -1.288410 2.995163 1.081336 0.314668 0.412397 -0.938030 1.291997 1.443671 0.034303 -1.131391 -1.303700 1.903248 3.484976 0.354436 1.011337 -1.550281 1.203504 1.253475 -1.205931 3.279097 -2.381275 1.436928 -0.543249 1.597312 -0.679685 1.793068 -0.860489 0.589032 2.851685 0.008179 -1.234492 0.004616 1.367204 -0.354949 1.660048 1.098298 -0.024850 0.258556 0.533418 0.654010 0.032398 -0.453671 -0.991592 1.422563 -0.884031 3.127876 1.905137 -2.304687 2.871630 -1.815968 -2.388234 -2.504109 1.534416 0.444935 2.772312 -0.640899 0.912233 -2.011851 -0.772505 2.212089 -0.845798 1.953473 0.350178 -0.287383 -1.132391 -4.144212 -0.304021 0.657203 0.181395 -0.849659 1.113984 -0.486134
1724 -1.325401 0.680021 -0.610963 2.226607 -2.978630 0.776246 0.648068 2.873494 0.756724 -1.397557 2.418011 -1.660835 -2.443426 -2.312588 2.083791 1.301492 -0.283851 0.258515 -1.651253 1.671818 1.975621 0.481044 -3.955074 1.434882 -0.070600 0.879997 0.929769 2.273521 1.655990 -1.623438 3.204405 -1.849170 0.915860 -0.772928 -1.156877 -0.142069 2.567033 -0.853418 -2.141564 1.612268 1.041252 -3.172200 3.396850 -1.005184 0.433540 0.404359 2.051929 0.741381 0.033473 -1.161728 1.547693 -1.944040 0.900034 1.570414 -0.533743 0.427037 -0.904039 -1.605805 0.498387 -0.934444 1.267274 -2.437136 1.912974 -0.474422 2.415415 3.981215 0.585236 2.525372 -2.730881 -4.828287 0.970727 3.597561 0.516664 -0.879552 -1.319272 -3.722415 3.139309 -1.110628 1.021494 3.338072 -5.168560 2.157653 0.863980 0.553347 0.429193 -1.919464 -0.267304 -0.083485 3.192326 -3.365589 0.996892 -1.938827 -1.548492 -0.138702 0.820301 1.823010 2.257042 -3.664972 3.909432 1.485574
1001 1.873945 0.823306 -0.183360 -1.831715 -0.371894 0.424098 1.813138 0.471764 0.487659 1.593647 0.889109 -4.926445 -2.307228 0.696828 1.326349 0.483941 -1.122643 1.199429 3.357652 5.919508 -3.807410 -0.040507 2.705320 2.920678 -1.789155 -2.991176 -0.452398 3.244658 1.236334 3.246182 -1.961508 -0.907274 -1.510190 -0.705539 0.184705 -3.579684 -0.105058 -0.582238 -1.527647 -0.069135 -4.822307 4.381624 4.276886 -1.743586 0.406601 -2.532715 1.246682 -0.346432 3.925618 -0.428061 1.165033 -0.256817 -0.246345 -0.056737 -0.799535 -0.301710 -2.302601 2.819344 3.174462 2.243330 3.329287 -2.833569 -3.131166 2.186282 -0.233146 2.855735 -2.382481 1.816914 0.189841 0.669853 1.174831 -2.851879 -0.299182 1.366430 -2.423713 -0.723245 1.873441 -1.092194 0.043838 1.159666 -1.464983 -1.254763 2.833775 -1.622882 0.500707 2.308120 2.692144 4.270178 0.209102 2.401749 -0.627252 0.297191 0.125581 -2.543021 1.009045 -1.775733 3.000603 -1.658875 -0.292188 0.324460
280 -4.333113 2.803536 0.292399 0.558615 -3.445246 0.031097 -0.879825 -0.973792 1.522857 -2.077268 2.107135 -2.217943 -0.023251 2.941584 -1.757727 0.788700 -0.868565 0.041270 1.081141 1.093848 -0.740509 -0.701788 1.339280 0.555883 -1.571619 -0.203263 1.665329 1.752284 -0.615616 1.846975 -1.953238 0.532642 0.287997 0.941572 0.427067 3.494182 2.098108 0.344674 -0.464059 -3.285241 0.417984 1.504244 1.648336 1.632458 0.654679 -0.148642 0.633848 -0.504439 1.478247 -1.587783 2.214908 -2.950432 -0.168958 1.060179 0.832286 0.132220 2.055874 -3.340747 0.884171 -1.000975 1.516816 -0.104667 -1.567269 -0.639329 -1.751224 0.616058 0.121584 -1.254090 2.749127 -0.548561 1.790894 0.569467 0.402232 0.469251 -1.037418 4.720901 -0.706375 -1.263363 -0.245107 -2.826430 0.406728 -0.306113 1.161735 0.447847 -1.184120 -0.088268 -0.705870 2.041425 -0.109224 0.585314 2.919480 0.914353 2.909667 0.194544 -0.859916 3.703969 -3.588310 -1.347323 -1.562590 0.310198
301 -2.041377 2.664713 1.513366 -3.605809 -2.892882 -0.781000 1.544440 0.399062 -1.127678 0.770966 -4.319343 1.849742 -1.641286 -0.467377 -1.361297 1.026426 -0.614255 3.084526 4.561612 -2.679597 0.900488 -1.266975 4.413544 0.948942 4.461768 -2.663938 1.177580 -2.455299 -2.426481 -2.650081 1.647706 -2.386602 0.344024 1.912329 1.729426 1.789863 1.586065 -0.824003 0.288890 0.895070 1.741214 0.990085 0.657371 -1.501242 -2.011368 0.270941 -2.331002 0.278897 2.778964 2.457280 -3.238568 -0.010658 0.995192 4.382357 -0.788970 -0.178559 1.535557 2.358423 -2.556404 1.129492 -1.969713 -0.267858 1.634648 -0.785524 0.669235 0.199339 2.215685 -1.589427 -0.511032 -0.998911 -0.667204 0.611611 1.990604 0.042013 -0.875699 -3.188038 0.481299 -0.572052 -0.951818 -1.754866 0.030556 -1.573278 0.313111 0.283864 1.658619 2.063170 1.093574 -1.886572 -0.427902 -0.405001 -2.211550 -1.837476 1.433121 -0.725681 1.739023 2.944791 -3.230159 1.376528 2.418413 -1.004199
963 -0.580696 -1.385841 1.498288 -0.803082 2.446543 -0.234407 -0.390448 -1.346886 -0.505401 0.884225 0.132689 0.847386 -4.265868 -0.446987 -0.511409 -0.936107 0.427573 -0.395352 2.652633 0.329616 -1.565663 1.405182 0.317768 -1.275010 3.227240 1.137209 0.253195 -1.112605 -0.862609 1.594356 1.920198 1.513262 -1.416275 -1.266818 0.881795 -0.194570 -0.266603 2.481218 1.383785 -3.859541 -1.426009 4.054471 1.226870 -0.808715 0.242532 1.089267 0.161854 -1.109668 -2.710334 -0.096513 -0.421121 -0.810070 -1.825791 -2.338609 1.594834 0.326434 -0.738549 -1.767036 -1.697865 -0.066756 -2.783649 2.430515 0.932623 -0.341075 -2.166122 0.164687 0.380586 -0.192245 -2.248592 0.553584 -0.927523 0.435199 1.346224 0.775445 1.866235 0.720678 0.006427 -1.777327 -0.803631 0.421888 -0.505425 1.689158 0.054010 1.287058 1.543053 0.742115 -0.583832 0.869615 0.927061 2.853423 -0.853581 -0.904314 -1.279448 0.869536 0.499500 1.912481 -0.732357 0.683009 -0.007768 1.784745
290 -1.072089 1.898101 -1.313039 0.697711 1.854571 0.651819 0.815490 1.403492 -2.112766 -0.206272 -3.764437 -3.537293 -1.404585 -3.586217 0.123033 -0.849004 0.194817 0.197628 -0.984939 -0.448713 0.931652 0.202533 0.081215 -1.690184 2.689899 2.305464 -0.792213 0.873769 0.354450 1.821950 -0.797293 -0.404078 3.168087 -0.371809 0.109016 1.150684 0.458119 2.005120 -4.009708 2.120388 -1.288560 2.335295 1.005555 -0.928312 -0.354432 1.613428 -1.312205 0.323181 -0.439949 -3.994953 -2.739556 3.027024 -2.414755 -3.092409 -0.557673 1.581595 -2.319415 0.648042 0.809684 -0.941884 1.360146 -1.259085 -0.635675 -4.116292 -1.432754 1.536785 -2.142823 -2.154359 -1.606560 1.211555 2.718935 -0.248558 0.868838 -2.634578 -1.081598 -2.131284 1.041393 0.475365 -0.699903 -2.141193 0.488309 1.534299 0.328892 -1.380380 -2.551991 -0.375369 -1.105067 1.678018 0.123984 2.099435 2.030697 -1.383282 0.924210 0.923569 0.464656 -1.643419 -1.543785 0.276336 1.131879 -0.384659
334 1.455650 4.669487 1.121133 1.568213 1.788945 -4.846948 -0.361538 -1.367599 0.828444 -1.840538 -0.463920 -2.162139 0.829937 -3.494159 1.434851 0.784602 -1.093662 1.786788 -0.529813 -3.110417 1.719629 0.937411 1.671768 -2.907022 0.273397 0.829206 6.609599 -1.397642 -0.369696 0.344088 -0.247076 -1.163750 -0.176940 -0.859967 1.457716 1.574882 -1.158383 -1.044804 -1.752085 -3.177890 0.500262 0.566604 -1.366345 1.470146 0.932571 -1.474921 2.003491 0.805760 -0.602637 1.985818 -0.497732 3.135518 2.727367 -2.165085 0.367371 -2.021944 0.466487 -2.222852 -0.195704 2.765864 -0.440709 1.432964 -0.321219 -0.429704 1.764207 0.176521 4.153534 0.115240 -2.710966 1.853721 0.680196 -2.789629 -1.071783 -0.726547 0.430336 -1.644516 0.947351 -1.772401 -0.752229 2.260594 -1.380223 0.466383 -1.219087 1.574064 -2.450310 -0.586092 0.485162 -1.431449 -0.665965 0.426598 -0.271401 0.152308 -0.863439 0.539656 -2.467238 -0.416676 1.788313 0.952182 -1.230250 2.304145
1452 0.158589 2.263537 -2.463366 0.871981 1.905306 -0.191720 -0.147478 1.953681 -1.184021 -0.527104 -2.453181 0.510055 -1.835436 0.833558 0.672446 -0.169695 0.144267 2.259905 -2.419099 2.529658 0.484501 0.333860 1.088537 2.217766 0.463995 1.905882 -1.625245 -2.373977 -2.390681 1.344425 -1.143129 1.918006 -1.444748 -0.248355 -0.686664 -1.183113 -1.209880 1.635880 -1.244731 0.474947 -4.506067 3.674733 -1.897453 -0.341026 2.005663 -0.573148 -1.330565 2.077537 0.298767 2.186422 0.340966 3.069235 1.923605 4.076061 0.126028 1.010341 1.210154 1.581339 0.621857 4.872887 1.527264 -1.291564 -1.529475 0.335154 2.047676 -0.536672 2.615513 1.147601 -1.773217 -0.534338 1.440733 -0.431058 -1.614631 1.565198 -2.491848 1.238488 -1.867282 0.327667 -0.404166 2.509145 -1.135326 -2.568803 -2.293923 -0.240179 -0.148104 -0.845164 1.006531 -3.481652 -0.563121 3.933017 -2.547195 0.220871 -0.383119 2.680895 1.817191 2.299718 -4.069608 0.253736 -2.446072 -0.679596
931 1.461027 -1.490827 -1.123070 2.287136 -0.515883 2.929932 0.721072 -1.896999 0.651106 1.714600 -1.706665 -0.778453 -0.672187 -0.051785 1.454930 2.363714 -5.683417 -0.111089 2.154625 0.941975 -0.688267 0.067428 0.659605 -0.323972 1.288083 0.300553 2.049105 -0.730965 2.087523 -0.201476 2.541199 -1.401636 0.969632 -2.152716 0.428003 1.117966 1.638564 0.095479 0.223925 -1.090278 0.074409 -0.938903 -1.819221 -1.433714 1.682511 1.611568 -1.636754 -0.324819 -2.576406 0.109443 -1.995702 -0.370288 -0.822592 3.017421 -0.364013 -1.292262 0.532647 0.353181 0.175964 2.071322 -0.121473 0.139637 2.206512 -1.464017 2.802276 -0.902438 -2.739524 2.056356 0.765819 0.124598 -0.073141 1.907557 -1.330341 1.265337 -1.150858 0.721678 1.409042 0.035685 -0.996455 -2.174070 1.478468 -0.826115 -1.856229 -1.466228 0.013694 -3.172240 1.070736 -0.250137 0.106108 -1.199389 1.254976 -0.859654 -1.216127 0.571973 3.127167 0.940295 -0.350024 0.599640 -1.431723 0.874166
268 1.134662 -1.594784 0.021506 -1.214572 -1.896524 0.792603 -1.776371 1.484512 -0.873206 0.435938 1.684060 2.352408 -1.187357 1.345911 0.742734 -2.389811 -1.516885 -1.808779 -2.200964 2.373325 -0.959043 -1.998043 -2.047719 -3.526865 -1.774930 -1.913262 -3.103299 -2.796488 -2.489475 0.245338 0.686459 -1.182073 -0.048351 1.377257 0.830105 1.329460 -0.021198 -2.346227 -0.556270 0.373394 3.233212 -0.829529 3.717128 -1.379011 1.394712 -0.663306 -1.368371 1.782605 1.327348 -0.241502 -1.674447 0.816222 1.366690 0.198840 3.115872 4.487836 1.319529 -0.660986 3.639420 0.834078 -0.575458 2.299169 -1.355440 -3.015496 -0.445173 -2.488226 0.356580 0.875648 1.736475 -1.229286 -0.665253 1.569210 1.950228 -1.162346 -0.142381 -0.561493 0.705101 0.623801 0.677519 -1.626675 0.645489 1.141444 -0.010872 -2.516571 -0.240445 0.076921 -0.331967 -0.204363 0.543800 2.586945 -0.434084 3.145855 0.534360 -0.748277 0.536383 -1.164258 0.290943 3.892484 -0.523265 1.436667
863 2.043530 -0.914028 -0.146878 -0.836897 1.125142 -4.135804 2.331129 -0.833946 1.455729 3.134402 0.540348 1.445564 -0.406922 -2.385083 1.967762 -1.142040 0.584075 -0.742454 1.245661 0.038484 0.909565 1.349961 3.667541 -2.640001 0.055829 1.357562 -2.793364 0.633904 1.728411 1.668455 -0.457690 2.411587 0.663342 1.217105 -0.230982 -1.934054 -1.168119 1.285924 2.826418 -0.075163 0.493729 -3.503688 1.213420 -1.675560 0.980639 0.346609 -2.710041 -0.541754 -0.962824 0.160689 -0.733078 1.889343 -1.062286 -2.690703 -0.064943 0.812889 2.305522 -1.027237 -1.047753 -1.221688 -1.104228 1.201998 -1.861987 0.677379 0.190184 -2.289540 2.379517 0.877034 -1.015593 -2.695611 -1.430485 0.480892 -3.235551 -2.095914 0.985806 -0.304333 -0.172104 0.670829 0.777838 0.447780 -1.279178 -1.585133 1.811826 -0.158192 1.568135 -0.567713 2.904631 -1.904477 -0.645805 -1.596893 -1.953879 -1.216490 -0.771862 2.657756 -0.364305 0.868782 -2.987983 -2.085482 0.330902 -0.796656
339 0.623761 -0.715722 0.538635 -0.299465 2.090611 -2.345420 -1.510324 1.064014 2.857438 1.741293 0.501226 3.740454 -2.335240 -1.652166 0.711111 2.749006 2.727570 -3.183909 -2.485176 1.088336 1.456481 -3.537769 4.641138 -0.323842 0.138611 -2.443032 1.042504 -0.823342 1.560003 -0.100162 2.040944 1.184500 2.086083 0.263886 -2.950175 -0.397976 -0.041188 1.748949 0.856237 0.118444 1.302391 0.257457 0.930920 -1.622778 -0.442663 0.285647 3.361123 -2.177716 -0.189397 -2.639379 4.229266 -2.161821 0.290406 0.791368 1.544159 -1.347833 -3.210281 1.935022 -4.629010 3.645205 0.867774 -1.465271 1.585464 -2.349142 2.422868 -0.567441 -1.928774 2.060473 -0.668477 1.939405 1.872808 0.830115 2.391492 -1.852765 -0.376051 1.057338 2.475843 2.473913 -2.085350 2.225700 -1.898247 -1.843370 2.335184 -1.930975 -0.980506 -0.011804 0.563679 -1.157329 2.990950 0.285262 -1.458893 0.873884 0.863490 -5.490942 -1.756411 -0.721426 2.302789 -1.500568 -1.598292 0.529683
624 -1.148942 0.128771 0.415393 -1.640764 -0.058312 -1.445109 2.469498 2.429440 1.946145 -1.069309 -1.319018 -0.091150 2.786287 0.102132 -1.580883 -0.263693 2.207206 -1.714496 -0.988112 -2.086925 0.579967 -2.103842 -0.640733 -2.651845 0.508161 -2.321288 0.254285 -1.245887 3.711746 -2.169358 2.657809 -0.949613 -2.371910 -1.664755 -1.155339 1.230744 0.512675 -1.123959 -0.602901 -1.008584 -1.853798 -1.319653 -0.812566 2.707255 -1.176365 1.110346 -1.794955 1.826200 0.054773 1.245458 -1.087364 -0.945000 -0.224801 1.426804 0.507394 1.196320 1.306530 -1.319444 -1.587114 -0.633918 -0.081411 0.131739 1.870590 0.630968 1.418431 2.260135 1.416295 -1.140662 -3.603518 -0.860517 4.388476 2.263749 -1.876092 1.089179 -0.064144 -0.616112 -0.932613 2.906463 -0.519130 0.013092 -1.078985 1.285293 -0.259688 -0.500139 -2.002800 -2.421695 0.538396 -1.752465 -0.874357 -1.917925 -1.073753 -0.904529 0.914856 0.886029 2.206082 0.902312 -2.695857 0.859509 -0.670942 -2.592025
25 -1.832219 -4.178263 0.816591 -0.294194 0.635659 -0.595598 -1.406062 -2.105870 0.090489 0.134231 0.422623 0.423984 -2.182679 -0.738817 -2.343577 0.353063 1.413244 -0.833252 0.656692 1.241423 -0.122495 4.509349 3.053331 -1.445634 -2.419439 0.981440 -0.326376 -0.347821 1.589797 1.503870 -2.098372 5.752281 -0.491732 -1.872901 -2.042364 3.581445 -4.506226 0.856882 0.509450 1.423131 0.825403 2.259560 1.856974 -2.060146 0.215633 -1.376709 -1.369594 -1.310096 -2.155982 -1.686371 0.531253 -2.171038 -0.964016 -0.094710 0.869646 -2.076853 1.958177 1.309631 0.436971 1.361385 0.675502 3.607606 -1.031137 0.993640 -2.383252 -4.323343 -0.699288 0.198123 -4.197652 0.657785 -1.811628 -2.397097 1.814331 1.381288 1.682269 0.725083 -0.759215 0.091836 2.109159 -0.038721 0.787421 -0.578212 0.915403 -2.726367 -0.488286 2.416251 -0.093363 -0.795727 -3.536043 1.583633 4.121019 0.416608 -2.672351 1.551889 -2.921076 -1.941426 3.512825 -2.191988 -0.863916 2.988141
940 -0.628735 -0.004482 0.808644 1.905742 -0.978935 -1.992543 3.766945 1.445941 0.787302 1.221230 1.564330 -3.200534 0.267511 -3.412586 0.819869 -0.966848 0.407381 0.123514 0.208302 -1.134472 0.206634 3.689141 0.240768 0.231722 -1.860376 -2.228583 -2.743042 0.625306 -0.747050 1.513397 0.971532 2.269728 4.813475 -0.572450 -1.058434 -0.209137 -2.656377 1.479513 2.566592 -1.614863 1.219396 -1.551106 3.486938 -2.828881 -1.134970 -2.387842 -0.151065 -2.532481 0.918263 2.789711 -0.166047 2.773245 -4.090038 0.110846 0.773488 2.710553 2.647465 0.009716 1.233905 -0.216184 -1.550658 1.609751 -2.619521 -0.832230 -2.914198 -1.719553 2.428945 -0.338561 1.257322 -1.551036 -2.892160 -1.781366 -2.283210 0.654644 0.358941 -0.046578 0.610505 -1.057114 0.246961 -1.765410 -0.097513 -3.065057 1.497317 0.718726 1.077510 2.193648 1.263278 0.554068 1.024215 -0.466686 -1.947610 1.306246 1.596719 -1.396839 -0.775220 1.644323 -2.662695 -3.327704 0.393810 0.568174
144 0.186991 0.226026 -0.461305 2.806422 -0.114413 -1.671710 -1.116925 0.727351 1.950324 -0.638119 0.067213 -0.246937 0.712792 -0.825565 2.497973 0.013654 2.953197 1.383029 1.730084 2.148248 -0.380876 1.625331 2.161392 -3.635765 -0.343694 0.226926 0.847552 0.524422 1.826223 0.765793 2.752787 -1.083724 -1.419935 1.729329 -0.568572 -0.492703 -2.308472 0.333676 1.142596 -0.362487 -0.962287 0.746390 -2.240885 1.046699 1.355564 0.007338 -0.210822 -0.230776 2.330456 1.033181 -0.745429 -1.945788 0.773182 3.290281 0.478855 5.581306 0.643235 -0.467515 1.900705 0.134102 -0.968715 0.159289 2.990733 1.382384 0.661093 0.554073 -0.422243 0.001675 0.317132 1.712576 -2.906382 -0.732373 0.613835 -0.230844 1.256362 -0.718683 2.561090 -0.876051 0.502138 0.325153 1.813098 1.950668 0.741188 1.248921 -0.204959 -0.341325 -0.413244 0.453853 2.017576 2.772049 0.373604 -0.096479 -0.815483 0.142258 -1.253450 2.410268 -0.507501 -1.138262 -2.444517 -1.000501
1699 -0.162913 -0.903977 1.367913 1.383869 -0.573757 -1.097207 0.128308 1.889942 0.882181 0.374075 1.340213 1.123757 2.484486 -1.997793 0.164572 1.163048 0.307311 0.407123 0.508059 1.175350 -0.065959 -1.216377 0.244870 -0.520639 -1.913721 3.229541 -0.822234 -0.237280 1.259022 -0.724559 2.649989 -2.515665 0.835020 -1.304711 1.094100 2.136685 0.702948 -2.818822 1.432620 2.154447 -4.930219 -1.007612 -0.117314 0.257110 0.922242 2.053765 0.857635 -1.741428 1.066203 1.400231 0.159479 2.481900 -1.201574 1.258610 2.963406 1.552139 0.401880 -0.501617 -2.639942 0.839831 -0.941520 3.099578 0.310292 -1.148399 0.442102 3.006818 -0.300765 -2.444158 -2.000253 2.574262 -1.377927 0.048945 1.785191 1.337934 -2.120739 -1.962451 2.238266 0.581010 -1.867359 1.738626 0.725537 2.316673 1.237411 0.851270 0.930611 2.190977 0.932889 1.776332 0.294996 1.115665 -2.074358 2.378419 -0.168599 0.100359 1.118990 1.757824 1.924572 -1.176554 1.494019 -2.085076
1173 -0.073045 -2.922114 0.423435 0.622723 -1.504328 -1.574258 1.236600 -0.042472 -3.270018 1.645802 1.362933 1.208536 1.985069 1.446186 -1.061047 -2.085612 0.622196 -1.610197 1.480175 -2.395830 0.124814 -2.275908 2.127234 -0.340833 2.836922 0.168315 0.374053 -0.089869 1.074988 0.696047 1.909853 2.024947 -2.012728 0.704234 -0.916216 1.023241 0.424778 0.457671 -2.444049 0.374038 2.091254 1.268274 -0.405195 0.727667 0.456116 0.359744 4.876057 1.244224 -0.027963 -0.841822 -0.735952 1.069741 0.280329 -0.390584 1.867983 -0.275003 -1.392452 0.029829 0.698207 -0.648914 -0.077500 0.578428 0.032236 0.521988 -1.682537 1.694457 0.673441 0.252235 0.699575 1.712175 -1.588965 2.284344 -2.627659 0.622098 1.325383 0.519633 0.043310 -1.286376 -0.680670 1.711313 -1.383032 0.250227 -0.004595 -2.914956 1.916927 -0.304343 -0.808324 0.542157 1.110610 0.752765 1.160381 -0.457624 4.039051 -1.138436 -1.741105 -1.765878 -0.933447 -1.051463 -0.285549 1.418013
1082 -1.829964 -0.009846 0.272148 -1.642318 2.097404 2.517327 1.394508 2.564988 0.069601 2.346085 2.476431 -2.772716 0.578756 -1.319933 1.720681 2.030099 0.962528 -1.579514 2.762483 -0.268389 -1.641755 -0.013374 0.489673 1.128614 -1.368684 1.368126 2.217734 3.539947 -0.614469 -1.907210 -1.097086 -4.422590 -0.362933 1.546039 1.214165 1.334203 -6.188477 4.861907 0.950030 -0.042647 -0.675517 -1.411780 2.016810 -0.218833 -0.982930 -2.180570 0.798438 -0.424813 3.420509 0.812309 -1.236152 0.686026 1.160664 1.065965 1.487175 0.374267 0.695885 1.152741 -1.357715 -0.633892 0.440637 4.597409 0.737288 4.711832 -1.580600 -1.245209 -0.693533 -0.235571 2.157627 0.695719 -2.687107 1.447729 1.562711 0.870168 -1.544785 2.864041 -0.237465 -1.801338 -1.311621 0.172239 -1.015270 -1.054572 0.661666 -3.949898 -0.581552 -0.682715 -3.524820 4.121715 1.472257 -2.166739 -3.423120 -2.447726 -0.299975 0.215636 3.263482 -3.862216 -3.835104 0.064913 0.875807 0.017315
44 -1.117704 0.239967 -2.643157 0.454822 1.277303 -2.138085 1.644120 2.492865 -0.351480 -3.632270 -0.464213 4.218855 -0.453462 -1.201304 3.468932 -0.549194 -1.850805 -0.886540 1.398061 -1.280515 -0.426638 -0.993595 -0.075930 -1.366146 -1.066576 0.231865 -1.424066 -1.921427 -0.414662 0.102024 3.426010 -0.701690 -1.189925 -0.822019 0.208783 3.244677 -2.030331 0.903339 0.966104 -0.061785 1.010035 0.702959 -2.386896 3.325199 -0.998454 -2.384721 1.516499 3.435185 -0.727101 0.293410 -3.296444 1.158343 2.818989 0.485016 -0.304188 -2.819544 -1.989833 -1.522154 -1.206169 -2.757481 2.470259 -1.157947 1.630647 -0.677961 0.697985 -0.186323 -0.955856 -0.045992 -0.006235 -0.849315 0.390988 -2.803286 0.541803 1.257241 -3.664948 -2.149981 -2.018975 -2.618081 -0.720291 -0.138351 -2.470204 -0.685304 -1.715889 0.318790 3.612423 -0.598465 1.593043 2.859374 -2.875950 -1.405999 -1.845652 2.425743 -4.633003 2.004183 4.198842 1.524279 -3.057451 -2.025431 -3.730083 -2.041995
1151 -2.023033 -0.650334 0.212102 0.963043 -1.252430 1.938566 -2.506836 -1.951952 -0.015746 0.429219 -0.023718 -0.297497 -1.334982 1.477654 -0.785874 1.434315 -0.786136 -0.726946 2.612652 0.041242 0.271065 2.043782 2.277590 1.695075 -1.469485 0.407257 2.319620 1.945197 5.189369 3.727021 -2.978591 4.394069 0.096827 0.948641 -1.640923 1.369897 -1.091601 -1.249843 -1.107165 2.056104 0.309359 2.925778 1.154881 2.186432 0.387494 -1.615092 -1.643892 0.176425 -1.018544 -3.145365 0.731985 -2.934714 -2.969715 1.063631 1.392497 -2.544877 0.596551 2.060974 0.972741 2.605681 4.049264 2.309461 -2.191679 2.543133 -1.956695 1.635490 -0.256586 -2.004722 -1.671801 0.308079 0.328651 -1.670028 3.956983 0.582026 0.861899 1.753966 0.282462 0.822338 -1.113860 -0.583749 -0.330463 -3.754392 0.062186 0.266902 -1.018814 3.210742 1.546868 -2.664878 -2.168244 -0.074725 2.739072 0.085894 -1.840040 1.446101 -0.357121 0.155058 -0.909669 -4.108428 -3.591025 1.708367
1003 0.229772 0.568282 -1.937693 -0.524542 -1.067688 2.401426 0.344293 -0.584403 -3.436713 1.574203 -0.528043 -2.389155 -2.793443 2.532499 -0.923920 0.078615 2.493928 -0.061427 -0.795521 0.153173 1.728300 1.010187 0.542565 -0.973906 -1.057799 -0.722320 -0.568944 1.476359 -0.914745 -0.274481 0.592096 -3.420579 2.073451 2.081892 4.221452 -2.559505 -2.744068 -1.988942 -0.961131 0.713818 0.041392 -0.299803 -0.900486 1.583051 0.550147 -0.945109 0.247135 -0.293822 -1.434873 -1.868608 0.300152 -2.562320 -0.672610 1.042580 -2.677531 0.497729 -1.943254 -0.651884 4.200988 0.371982 3.106697 2.028051 -0.313114 1.753164 -1.314672 -2.716238 1.948942 -0.257988 -1.586532 -2.988768 1.682072 -0.708819 1.968702 0.210419 -1.294095 0.908622 1.155456 2.915737 -0.893422 0.321777 -0.210656 -4.611507 0.251852 0.962924 2.287074 -3.157850 0.437860 -0.099054 1.341279 1.486528 1.174544 0.788954 0.326263 -2.143064 1.830542 1.415390 -0.685084 1.136536 0.309634 -0.318967
1649 0.000622 0.209374 -1.572420 -2.241288 1.377543 1.148032 1.190112 0.939378 -2.386183 0.027822 -1.306314 -1.296579 -3.460248 0.151409 4.023191 -1.357392 -0.456418 -1.579275 -2.570504 -3.860272 0.568789 0.333166 -0.062253 -0.631194 1.014002 -1.812768 2.564899 2.151419 -0.593956 -1.054269 0.751769 0.500960 -1.403312 1.569449 0.271490 -0.159127 0.479916 0.792402 0.110320 -1.996206 1.647463 1.758695 0.935931 -2.122447 -2.439913 -1.303727 -0.011061 1.206434 -0.386481 0.930167 1.852037 0.149972 1.062326 -0.752118 -1.899665 2.270577 -1.252151 1.849788 -0.367405 0.021283 0.256242 -0.549948 0.138615 1.501392 -3.536282 -3.079059 -4.507811 -1.240568 1.696056 -0.809836 -1.195240 0.681274 -1.075852 2.606320 0.264450 0.654960 -0.039364 -0.335723 0.969465 0.801124 -0.187610 -0.457393 -2.106903 0.314795 -1.684530 -1.332303 -0.256271 0.130563 -0.504054 -1.001238 -0.188453 0.545684 1.484815 0.088609 -1.615203 -0.086678 0.325945 -0.382166 -0.426687 -1.246337
1736 -0.213633 -1.377932 -1.049053 -2.446585 0.342486 0.503515 0.005594 -2.238624 -0.497753 1.253971 0.466445 -0.796179 -2.495750 2.026314 1.396653 0.512417 -2.272064 -2.454314 -2.278146 1.973034 2.312754 -2.334730 1.752890 -0.694721 -0.420502 2.523069 -0.319131 -1.770018 -3.438559 -1.768771 1.828189 -0.531299 4.766974 -1.792514 -2.104113 -0.618138 -0.006758 1.662987 0.692619 1.238980 3.513834 0.521240 3.020795 0.861877 4.198754 -0.459762 2.256758 -1.591230 2.297089 2.410889 2.167809 0.542480 -3.633967 0.599595 0.801564 -0.391224 0.036451 -1.695112 1.442093 -2.563653 -1.799496 1.028428 -0.740777 0.395720 0.098458 2.709921 -0.801519 1.204791 3.671357 -0.875543 -1.480604 1.408915 1.529438 1.162381 0.284352 -2.512938 0.285162 1.386185 0.700320 -1.592888 -0.035862 -0.251059 -0.321772 -0.512616 -0.251047 -0.964957 -1.463265 -3.006405 -5.137857 -0.197883 0.232708 -2.310177 -1.760332 0.765631 -2.452587 -0.992190 -1.269847 3.334265 -4.740957 -1.859897
1053 -0.046268 2.622148 -1.375163 -0.534338 -0.014134 -2.024224 1.942591 -2.108097 -0.429267 -0.279345 2.631948 -1.028980 1.801719 1.800463 3.054659 0.054383 -1.001811 -1.427803 1.407372 1.222680 0.112896 -3.783263 -0.249332 0.728746 0.848968 0.497140 0.665215 1.937983 -1.169921 -0.984473 -2.230369 0.525566 -0.894865 2.112364 2.232979 3.166123 -2.834522 -4.765068 1.597890 -0.804223 -0.735753 1.599325 0.068671 0.494484 1.624262 -0.195080 2.156210 -1.516841 -2.549519 0.311028 -0.328189 -2.823967 -1.939508 0.037947 1.459702 1.661126 -3.992991 -1.003559 -2.401259 0.656985 -0.572575 -0.284733 0.264246 -0.514969 0.817088 1.649799 -1.067248 -1.390149 -1.178567 -2.285319 3.856786 -0.070811 0.695871 0.416009 0.948270 2.531495 0.348491 -0.418041 0.064712 -1.889385 2.179302 -0.364812 -1.939854 1.741789 0.456830 -0.285016 -1.230520 -0.648619 1.074566 2.175003 -0.011333 4.448187 1.623311 2.256826 2.556627 -1.588314 -1.445753 0.012606 -1.883038 1.371195
317 0.396185 -0.885618 0.852472 -0.470834 2.388116 -2.646904 1.503361 -1.723115 -0.467404 0.493368 2.803413 -2.702213 1.696015 -3.145973 -3.847105 -1.101939 0.184025 -2.833246 1.411831 -0.298910 -0.719460 -0.577369 -1.000559 -0.764867 0.101417 -1.595210 -0.968560 -0.331241 1.936400 -1.977113 -0.248549 0.877191 1.179316 2.183103 -3.783709 -0.895620 -5.349051 2.057816 2.570405 2.581640 3.108405 -0.717550 1.175342 -0.084009 2.004091 0.441410 -1.387674 1.103956 0.264925 -1.539822 -0.781660 -0.215040 -2.131658 -3.795463 -2.173130 2.069131 1.018161 -1.789105 -0.547196 -2.645092 0.914508 1.825217 -3.458310 -2.854557 -1.078848 -1.251807 1.160720 -2.299800 -1.667812 -0.627908 -3.642121 0.204435 -2.317855 3.392503 -0.707239 0.738693 -1.506515 -0.916238 2.001888 -0.913684 2.396538 -0.856094 -0.172397 2.178855 -1.255406 -1.307309 0.444509 0.067482 0.951092 0.977372 -0.474574 -0.213988 -5.770858 2.381914 -1.192273 5.329548 -0.813969 -5.093122 1.694096 0.248556
1366 -1.714905 -0.079282 -0.146375 2.799862 1.388236 0.684082 -0.622579 1.359432 -0.368067 -0.403148 -2.724294 3.345674 -1.548686 -0.208475 1.320546 0.231209 0.086214 0.104136 -0.456504 -0.826130 0.282487 -1.341387 2.611470 0.985031 -1.066759 0.629325 -1.515158 -2.111442 1.886326 1.045405 0.356576 2.236338 -1.146591 -0.482605 -2.461730 -1.533734 -1.478894 -0.520694 -2.043161 -0.818842 -3.585558 4.505500 0.184614 0.887793 1.819474 -0.709050 -3.959947 2.077554 -3.407428 0.187426 0.184355 2.721478 -0.849418 2.825197 0.489353 -1.032330 0.268934 0.973477 -1.235925 5.291493 2.461638 -0.204109 -0.953789 -1.963554 0.476217 -1.741162 0.219606 0.451179 -2.448279 0.183679 -0.427052 -4.018378 1.064472 0.678673 -0.377782 0.544728 -1.405970 1.416469 1.397520 0.120232 -0.701890 -4.479294 -0.468939 -2.132939 0.422102 -0.291504 2.046856 -0.072038 -2.055184 0.618777 0.999441 2.878582 -1.465174 1.885761 -1.728145 -0.917946 -0.725432 -2.494442 -1.988222 -0.498144
1142 -0.215433 -0.226037 -0.790383 3.114080 2.214142 -2.711852 1.726716 -0.265776 -0.631822 -1.733424 -0.602928 0.174547 -2.201144 -0.182302 -0.183826 -1.077493 -0.011736 0.611941 -3.487803 -2.071174 1.041764 1.799862 0.065036 -1.350028 -1.053026 2.157289 -2.122441 -1.961340 0.076376 -1.410349 0.334964 0.257657 -0.567869 -3.915652 -0.769715 -0.582580 -1.643882 -0.177144 0.626621 2.472859 -1.443494 -1.708542 1.203948 -1.905882 -0.874503 -1.300443 -1.851194 0.299630 -3.104824 -0.657320 2.698017 -1.053877 -1.551369 -0.865756 0.997831 -0.956042 0.624360 -0.287743 -0.070470 -1.054827 -3.370568 -1.059843 2.913317 0.868392 0.813709 1.624026 -1.109291 -0.624721 2.177716 -1.186323 0.152361 -0.990726 -0.444194 -0.306253 -1.765914 -0.487967 1.500034 2.526473 -1.107726 -0.295276 1.488467 -1.680978 -1.173951 1.361908 0.114994 -0.340431 -1.842950 1.098955 0.169321 -0.472247 -0.518968 -1.922649 -0.024915 -1.109134 3.299235 1.714532 -0.414956 -1.081951 -0.655185 -0.167798
489 0.397880 2.973157 0.394513 -1.183623 0.322928 2.011239 0.633014 -0.595375 1.343802 0.637491 -0.119567 1.403598 -2.122896 0.221075 -2.854919 -1.935603 0.864445 -0.124651 -2.504928 0.840589 0.495906 2.047698 -2.101492 -1.806265 -2.835535 -1.781859 3.251319 -0.851266 1.594112 2.383011 0.776255 -0.930755 -2.336597 0.829024 -1.346337 -1.655211 2.627972 -0.641843 1.536836 3.626534 -0.343680 -0.824025 -0.483639 0.095975 1.664804 -2.270575 0.744986 -1.673136 -1.950186 2.086160 -2.221075 0.559710 -0.230732 -2.774048 -0.885865 2.121411 0.236655 -1.218365 0.470963 2.828483 -1.144650 0.162261 2.187474 -2.688015 -0.896779 4.519321 0.426380 0.593405 -0.485174 -2.938388 -1.444423 0.439321 -0.890625 -1.129111 -2.542322 1.133776 0.832971 -1.886942 -0.746073 -1.664052 0.027513 1.196357 -1.735292 -0.136976 1.239174 -1.032967 -0.291200 -2.553399 1.210881 -0.214111 -2.722346 -1.812139 0.983118 -2.356456 -0.325704 -1.724036 -0.751705 3.078253 -1.974887 0.353354
1617 0.477921 0.079195 -0.982341 2.559315 0.177008 0.777171 2.223006 -1.828257 1.255727 0.567253 -0.462313 -2.055959 0.966429 -0.135744 1.996981 -0.104735 -1.657334 -1.920540 -1.118660 1.979703 -0.707929 2.311679 1.632435 0.680889 1.841610 -1.622506 -1.881339 -1.556014 -2.354155 -1.170407 0.290210 2.080635 3.212229 1.794944 -0.209468 -1.305526 -1.847858 0.798313 -0.289778 0.666616 2.836210 0.706364 2.951777 -0.078212 0.415204 0.239187 -0.278294 -0.326386 -2.041581 2.134504 1.256082 -1.398114 0.632717 0.201304 -0.752079 -0.028105 1.415754 1.902095 2.187111 -0.895691 -0.134817 0.863026 2.533015 -2.777260 -3.714925 1.246968 -1.278744 1.287711 2.580486 -0.565221 -2.795773 -0.091020 -0.495054 -1.053966 1.300023 -0.383956 -2.169930 -1.755952 0.750892 0.557751 -1.349702 -1.727171 -0.285638 3.362450 -1.506147 -0.041367 -0.719610 0.569031 2.515728 2.386232 -0.711134 0.259854 -2.827348 -0.002904 -0.554183 -2.360279 -0.904418 -0.495714 1.613004 -0.363965
1478 0.339277 -0.728391 0.789666 2.820421 1.493059 -0.422905 -3.814395 -2.612304 1.951314 -0.336786 3.191022 0.477527 -0.012382 -0.746174 0.386200 -0.091479 -1.146048 1.069075 -0.219632 -1.133015 -2.465578 0.737769 -0.016980 0.224662 1.057829 -0.410366 1.683032 -0.054433 -2.664602 2.031303 1.663886 -1.221570 -1.936278 2.023913 -1.728145 0.613873 -1.044756 -1.602104 1.083879 0.768281 -0.097303 0.762761 -3.241586 -2.026402 -1.184119 -3.249094 -1.246548 -0.688250 2.444658 -1.425113 -1.579889 0.915367 -2.135264 0.697286 -0.777519 -0.871532 1.475068 1.999998 -1.397551 -0.915453 1.770413 2.488026 1.270720 -2.491558 -1.889274 0.577127 1.112709 -1.478913 0.471790 -0.529723 3.001533 2.241898 -0.607807 -3.111708 4.041103 -0.735157 -0.493001 -0.211160 -0.170960 -1.548017 -1.206963 -1.832414 -0.972279 0.806838 -0.494087 -3.527623 -3.212567 -0.412057 0.548213 -0.295025 0.553326 1.113555 1.466398 0.860955 1.713636 -0.414310 -0.420484 0.438682 0.475179 -0.672967
1654 2.781697 -1.972050 1.012022 -2.063658 -0.034594 2.192399 1.255910 0.178697 0.207105 0.661857 0.289949 0.287097 0.258462 -1.797291 0.464570 1.289967 -0.604427 0.486159 -2.486879 0.614705 -2.816581 -0.582583 0.450986 -0.232122 -0.785792 -0.374691 -1.876571 -1.412185 0.978897 -0.191516 -1.773670 0.619804 -0.271017 0.556521 -2.074420 0.972455 -0.126714 -0.886838 -2.091662 -0.537965 0.871175 0.965199 -0.686930 -2.704578 0.027317 2.039415 -0.263319 -1.320756 0.033401 -1.168975 0.242085 1.144075 -1.216845 -0.741340 2.584574 -1.819223 -0.160057 -1.307706 2.278685 -2.167160 -0.078381 1.788824 -1.268293 -1.426728 1.841587 -2.227345 2.117059 -0.147507 -2.005593 -1.447698 1.121406 0.722141 0.351792 -1.564615 1.623302 0.313211 -0.283041 1.382515 0.883669 1.368874 -0.327598 -3.064043 0.566620 0.095266 0.891733 -1.465587 1.829522 -1.363889 -2.706513 2.140758 -1.950728 -1.131398 -0.227943 -0.914397 0.578524 -1.559289 0.594732 0.284855 -0.849117 0.157042
1076 3.771204 -0.321087 2.469354 -1.968814 0.195009 2.697387 0.346791 -0.095139 0.132019 0.451459 3.264386 -1.932346 0.433725 1.537646 -1.665063 -1.371836 0.883215 -0.992151 -2.315750 -0.231120 0.861419 1.972224 -0.110756 0.128579 -2.786880 -0.295323 1.590050 1.123185 -1.356384 1.344847 -2.622089 -1.027401 1.820567 -1.640912 1.386424 -2.251523 -0.273935 1.246700 -0.852621 1.278846 2.247686 3.213520 4.481244 3.004786 -2.272573 1.320497 1.374257 -0.512133 -1.394749 3.688980 -3.759736 3.356309 3.036895 3.264601 -0.593316 1.727665 -2.755990 -2.428107 0.896202 -4.150154 -3.291833 1.889651 -0.395970 1.309186 0.835878 3.409100 -1.114015 -2.422350 0.465569 2.521682 -0.237937 -0.293297 -0.029524 -1.454949 4.373419 -1.703635 0.266064 -1.701875 3.208178 -1.172920 -2.286273 0.575129 -1.181815 -0.725799 -0.906487 1.387437 1.123401 1.752833 -0.573745 0.102054 0.738702 -1.887609 -2.215122 0.036763 -2.063485 -0.196219 2.164660 -2.072730 -0.154584 -0.897558
793 2.376660 1.563150 2.560805 0.568865 4.036582 -0.411763 0.852533 1.642169 3.439157 1.225632 -1.716213 -1.193679 0.030876 -0.590354 0.094652 0.846805 -0.313302 -1.195024 0.840788 -0.543178 0.408581 -1.712592 -0.716851 -2.029643 0.862942 -0.922361 -1.974091 -2.165751 4.868542 -1.404808 2.310443 -1.806319 -2.234345 3.013403 -0.120497 -1.535683 0.988443 1.093761 1.010753 -0.921916 2.710156 -0.750419 -0.145276 -2.787942 -2.152096 1.105787 0.995465 0.320914 -2.544349 1.682573 0.495932 2.020771 -1.436395 0.226564 5.128219 -1.155662 -2.908037 -0.533823 -2.718636 6.152319 -0.277048 -3.049377 -2.597494 1.498182 -2.007435 0.895267 -5.012824 0.234585 -2.517383 1.011834 0.572040 -0.616788 4.028576 0.120632 -3.182584 -2.122516 -1.583606 -0.519991 -1.012924 2.072819 -1.693145 -1.076784 -0.260635 -0.167940 -0.635410 -1.469026 2.221873 3.224114 0.867923 0.064108 -1.704168 1.197737 1.597941 -1.025389 -2.927781 2.146978 -0.234366 0.241051 -1.072198 2.074511
1776 -0.916891 -1.194783 3.417766 1.036695 -1.813239 -2.824894 -1.602349 -0.212395 -2.795905 -0.348084 0.495688 3.002945 -2.945905 4.010215 1.780599 1.805011 0.757998 0.802267 -2.201222 -2.440830 -1.816805 0.790392 -0.035273 0.595451 -2.226190 -0.948563 -1.172683 -0.951272 -0.455050 2.044682 -0.971404 -0.691917 -2.289212 1.817522 4.496060 0.304871 -0.113450 1.121037 4.331842 0.602676 0.177617 0.832408 -0.115111 -2.756499 -0.677213 0.375766 2.712269 -2.266075 0.057905 -3.064473 1.048028 -0.024864 1.060524 1.253577 -3.083139 0.644631 -1.421219 1.734181 1.634081 0.439948 -0.154295 -1.707293 0.170361 -6.858897 1.453376 -1.595704 -0.441342 -0.555679 0.103397 2.290017 2.080758 0.010103 0.015978 -1.818498 1.897187 1.089798 2.153316 1.459314 1.782091 1.711632 -0.501155 1.414561 2.797837 -1.370782 -1.182661 -0.705651 -0.927982 2.146657 -2.240149 -3.250327 -0.937804 -0.746757 -1.440030 -2.769728 -1.427273 -2.525661 -2.020337 -3.609610 2.762262 -0.582953
1139 1.153258 -0.941122 -0.134697 -0.504950 -1.684008 0.456103 -0.081590 -0.912993 0.596602 -1.474584 -1.947125 -2.508458 -3.704066 2.005817 -1.290882 0.999782 0.070600 0.681033 0.694999 -0.804992 -1.171861 0.199335 0.043556 2.277365 -2.332221 -0.770776 -1.461521 -1.448784 -2.869622 5.113662 0.336282 -0.148213 -0.180706 2.998438 0.848709 -0.665897 0.404378 3.478610 -2.130570 -1.319943 2.843066 -1.442714 -0.523325 0.940648 0.546933 -1.594725 0.381456 3.030600 0.077345 -1.952036 0.746372 -0.126752 0.889122 0.293633 1.244310 -1.556661 -0.893317 -2.025192 0.520414 2.627249 -1.212684 -1.594676 0.150523 0.419700 -1.091041 -0.078924 2.176250 0.118303 1.290389 -1.568474 -0.704505 -0.837914 1.198976 0.561973 1.421511 -0.619304 -0.009786 -1.767066 -0.698967 -1.568487 1.962643 -1.292831 -1.017346 -2.272695 0.164858 1.617641 -1.114998 -1.731601 3.018244 0.856332 0.556236 -2.458884 1.222949 -0.531370 0.573445 0.720482 2.351704 -3.142337 -0.544095 -2.045726
837 0.862865 -2.186939 1.911318 -0.472174 -0.280452 1.471782 3.436754 -0.001669 2.550492 -2.946349 3.509106 0.427840 -0.039344 -0.031605 -1.767954 0.827679 -0.959205 2.492900 1.908036 1.170518 1.740047 -2.092678 -0.231870 -0.581085 2.092215 -0.687012 -0.243254 0.303592 -1.226988 0.767664 -1.270311 -0.086979 0.716977 0.052931 0.857318 1.067307 -1.276617 0.635248 -0.875357 1.597562 0.991168 -0.766976 -1.135014 -0.699889 2.541681 0.613348 1.417216 1.210376 -0.763881 -0.960987 1.979385 3.446318 3.282353 0.520400 -2.979099 2.983565 -0.596811 -2.069994 0.171802 -1.644593 -3.007183 -1.756872 1.724400 0.567225 3.200927 -0.317412 1.350148 -2.135416 1.441936 -0.565870 -2.980322 -1.097753 2.752965 -2.192961 3.138376 -0.008625 -0.891921 -0.643317 0.948861 3.357973 -1.846825 1.641065 1.380497 -1.685243 1.583577 -1.544571 -1.032899 1.685080 1.551773 0.464715 -0.516492 0.707605 -1.939914 1.445457 0.388108 1.050894 -1.503171 3.192092 -0.932257 1.212074
549 0.535007 0.857727 4.659202 -3.021381 -1.442336 -0.388525 -2.190811 1.127456 -0.396840 -0.777264 0.992707 -4.025129 1.400622 -1.786629 -1.885892 2.066845 -0.884043 0.682806 1.125444 -2.081407 1.349260 -1.319102 -1.887577 1.906080 1.373148 1.229461 -3.065140 2.576270 -1.016240 0.380959 -1.428667 0.703892 -0.843855 -3.157203 -1.017691 -1.451319 -0.879297 1.422617 1.000682 1.860932 0.001742 -1.472561 0.507258 -1.339781 -0.504497 -0.104931 -1.159552 0.259422 -1.883460 0.150514 1.174246 0.161416 -0.195497 -1.007887 -2.264222 0.877877 -0.542263 -0.408054 -1.204127 -0.040717 3.790048 -0.267232 1.584149 -1.018325 0.417745 -1.437093 2.213507 1.151671 0.394235 -2.492560 0.060445 3.371499 -4.096771 0.616355 1.401382 -2.832604 -0.166153 1.602449 -3.364265 -0.160683 0.613789 -1.372360 -2.478500 -1.817579 2.204741 1.711159 -0.297391 0.756055 -2.308132 -0.833907 -1.777169 -0.336035 0.929792 3.188333 -3.634493 0.329064 -1.032157 0.403451 -2.048935 0.023927
1468 1.335439 -2.401865 1.761924 -2.014024 -0.194337 0.675459 2.100135 0.503653 -1.294967 2.931465 1.415651 -0.289608 1.800228 1.728253 1.247579 0.357822 0.063037 -3.777434 0.979998 -1.905943 -0.215997 -2.144406 2.795336 -0.561132 1.304779 0.584336 0.258195 -1.725485 0.853670 -2.107891 0.854744 -1.040534 1.853493 -1.058783 -1.190272 0.263544 4.653698 0.863648 -0.500916 -1.797598 -3.843122 0.339273 1.447611 0.509677 0.123985 -0.571883 -1.971766 -0.540096 0.002165 -2.184802 0.711665 4.809787 2.801698 -0.032667 1.507845 1.427455 3.780124 1.594425 -1.942016 -0.186902 1.427053 1.029256 0.392061 2.642325 2.325816 -4.293448 -1.457589 1.124424 0.191439 1.326804 -2.303665 -0.056274 0.285082 -1.979401 -1.180591 -0.955169 2.745467 -1.800106 -1.224385 -2.038727 2.063970 -0.389439 -0.589000 1.929056 -0.401180 -0.143936 1.545512 2.379658 -0.017293 1.176774 -1.345449 -2.185447 -1.006105 1.924576 0.343966 -0.360764 0.013675 0.358743 0.622233 0.473790
1863 0.385296 2.634067 0.087129 1.762483 1.295008 -2.859012 -0.042509 -2.717311 0.554941 -1.641611 0.258746 -0.036504 -1.901157 -2.243493 1.633128 1.771471 -1.550654 1.870836 0.942055 -1.223298 2.368644 -1.082208 -0.005628 -1.745711 0.443115 2.222609 1.700686 0.224497 -3.116232 -0.070363 0.189574 -0.856487 1.518939 0.151292 1.784796 1.090919 -0.422683 1.292085 -3.098702 -0.076011 0.697995 0.998729 -2.711113 1.142920 -0.963093 -0.555059 0.069103 0.939814 -0.655168 1.252656 0.288597 0.749177 2.083690 -2.164044 -0.586135 -0.224725 -0.692604 -2.228207 -1.135198 -0.559580 0.193595 0.186484 -1.464837 0.071530 1.421721 -1.575593 0.373635 0.811289 -1.101716 0.698870 -1.116888 0.170111 -2.731514 -0.584915 0.018976 -1.196205 -0.214224 -1.326253 1.447369 1.152952 -1.273195 1.140468 -0.226264 -0.914205 -0.564475 -1.368198 2.562791 1.914091 0.640019 0.022647 0.162340 1.153045 -1.194551 -1.104009 -0.550908 0.587063 -0.184469 2.001667 0.117253 3.686186
440 0.733450 -2.319375 -0.146300 -0.139729 -2.960977 -0.196227 0.459595 -5.590476 -1.698709 1.578890 -1.728162 -0.008693 -0.176428 2.865504 3.642470 -1.840641 1.561494 -2.825067 -1.151641 -0.702301 2.296829 1.728356 -0.048189 3.101563 1.579775 -0.533400 1.085048 -2.765217 0.488813 0.816095 0.386516 -2.309346 -3.134786 -3.533761 1.158790 -2.989148 -0.878392 -1.505248 1.401382 -1.022005 -3.436292 -1.060415 -3.607753 0.401183 -1.251211 -1.029501 1.388500 1.992917 -0.712020 -0.834838 0.699910 2.657906 -2.715207 0.947302 -0.952741 1.628613 1.937574 -0.944648 -0.739327 -0.075934 -0.618101 -0.082169 -0.951931 -1.087175 1.709316 3.335038 -1.936634 -1.603114 -0.748282 -0.530535 4.068069 -1.603085 -1.457850 -0.803318 1.993173 0.992000 1.110735 2.094606 1.566260 1.532621 1.801706 0.877357 0.824443 -0.956191 1.245781 -0.545444 -1.890507 0.676936 -2.237240 -0.789942 -4.477210 -3.924117 1.257480 -1.125593 -4.061788 1.543537 -1.795451 -1.576441 0.729874 0.851057
1446 -0.745466 1.992665 -0.844198 -0.985954 -0.024455 3.932682 0.460431 -0.669486 -1.548583 -1.569848 -0.018804 0.172136 -1.650353 -0.426223 0.489107 -2.111252 -1.708988 0.954469 1.223659 2.607845 -0.375604 0.308932 0.015678 0.238444 0.487356 0.770067 -0.503393 -3.276579 -0.618909 1.400714 -0.378999 2.019632 1.296878 -1.783528 -1.592256 1.316792 -3.151195 -0.293438 0.037676 0.637842 1.098350 -1.164892 -2.044911 -0.349634 0.432055 2.176880 -0.765391 1.567541 0.502959 2.169630 -0.624046 -0.798800 -0.337137 0.106148 0.083659 -1.060069 -3.059862 -0.896985 3.077651 3.257335 -1.474369 1.771132 -0.361062 -0.374521 0.055353 0.384823 0.207406 1.867284 2.638780 2.855845 1.997440 -0.577043 2.249832 1.632491 1.168393 -0.742974 0.156699 0.459853 1.280828 0.418434 0.896861 1.535117 -2.938001 0.957921 -1.804382 -2.971779 1.810657 0.269757 0.463363 -0.499065 1.218152 -0.829276 1.765416 -2.327028 -0.013831 0.618920 -1.862587 -1.336155 -0.685505 1.767770
56 1.505764 0.028700 -0.346715 0.627113 1.959279 -0.140501 0.095025 0.177366 -2.421256 -0.290599 2.256502 0.670874 -1.493086 1.867405 -2.720475 -1.608093 1.477556 -3.659868 -1.298920 0.960395 1.058699 0.152590 -1.706743 1.981830 -0.170229 0.961451 -1.040677 -2.219627 1.169392 0.282711 2.414099 0.890349 -3.121594 2.155647 -0.111190 1.988508 0.583701 -0.314178 -2.373655 2.264957 -0.849395 -1.208493 4.146735 -2.572358 1.778249 0.210955 -1.506837 1.828726 0.555387 -1.345717 -3.577583 -0.047643 -0.686988 -0.335884 0.701874 1.696445 3.186780 1.550751 0.691792 4.047665 0.615485 3.627013 0.060485 -2.386935 1.756196 -3.565525 -2.720183 1.742368 0.493409 -0.050561 -2.155375 0.011896 3.453434 -1.866040 -0.370604 0.184179 3.004615 0.014035 -0.261693 -1.711471 -0.726869 -0.491335 1.045806 -1.861401 0.985175 2.213629 -0.539718 0.307027 -1.602840 2.438338 1.521997 0.366830 0.420161 0.150290 -2.570800 -2.331615 2.717598 -0.307728 -3.654256 2.844450
1795 1.033446 0.527889 -3.867966 1.084731 -0.724087 -0.284757 0.949485 2.233097 0.915322 0.177744 0.684770 -2.028593 -0.364408 0.077987 -2.835083 -0.479222 0.827235 2.591890 0.818015 -3.481017 0.038777 -3.556136 0.750176 0.038253 -1.772361 -1.505499 0.395131 -3.241482 1.917604 -2.739852 -0.410878 2.216595 0.296581 -2.949421 0.904966 0.729735 -0.814185 0.790977 0.341062 -1.588062 6.527166 1.881055 -2.340820 0.163807 -0.314749 -1.075504 -1.565911 1.232012 -0.467943 -2.057434 -3.557615 -1.994527 -0.159207 1.347800 0.740729 -1.980085 1.826303 0.389218 1.662086 0.863917 -0.754134 -0.722965 0.384460 0.193549 -3.707376 2.138715 -2.678585 2.384606 -1.050113 0.989043 3.073263 -4.949443 -0.517386 1.657624 0.095118 -2.581163 1.775238 -0.653113 0.677945 -2.447209 -1.486529 1.438788 1.809722 1.176572 0.034908 0.648867 1.531175 -0.034598 0.368224 -1.325816 -2.909219 -0.320389 1.255990 0.933928 2.460391 -1.356096 0.049946 0.392872 1.340556 0.151223
1801 0.145830 -0.772059 0.612398 -0.775705 -2.342081 -1.236459 2.168063 2.678073 0.021556 1.235013 0.842058 -1.142199 -1.184172 -1.448900 0.889610 0.006355 0.644123 0.366072 0.609395 -0.482251 0.561251 1.040819 -1.924821 3.446371 -1.620635 -1.006299 -0.069075 -1.663399 2.111025 -0.213852 -0.527541 2.153570 -1.366214 2.306766 -0.594251 -1.182901 0.670615 3.257648 -1.889804 2.777759 1.479396 -1.115862 0.096543 0.035176 0.388036 1.695782 -1.440791 -1.930621 -1.274265 4.482327 3.309628 3.021582 2.117009 1.436774 -2.025208 1.380316 -3.976611 -3.832860 -0.628959 -2.377411 -0.044256 0.400880 -0.988480 -0.911872 0.605382 -0.622086 -1.354623 -1.349711 2.967909 0.481318 -0.168795 -0.288627 1.546161 -0.074721 1.396533 -1.532292 -0.272781 -0.092255 1.879937 -2.685734 -0.533082 1.318746 5.098589 2.695363 1.605709 -0.232938 -1.698259 0.586210 -2.137487 3.028725 -0.003527 0.379861 -0.425907 -2.175943 2.903329 0.645315 2.216091 3.152382 -1.457524 1.496462
