1142 100
1200 0.04623418 -0.055673122 -0.09440486 0.009449287 -0.11505379 0.19334672 -0.045920134 -0.06670738 0.26054016 0.021551277 -0.0031336627 0.11700463 0.23818865 -0.040310778 0.03860931 -0.03511 -0.0445243 0.107206285 0.0077838995 -0.03740486 0.08647091 0.0206136 -0.10570365 -0.020879932 0.19276178 0.2992311 0.06826112 0.09402649 -0.07472928 -0.35023198 0.22310814 0.12717241 -0.13478908 0.20742902 0.19372627 -0.076263726 -0.12992206 -0.30197424 0.20455956 0.13371894 -0.099273816 -0.21431555 -0.015434887 0.20237727 -0.2224891 -0.14061509 -0.22097448 0.15210204 0.1665537 0.07046215 -0.20373383 0.13469143 -0.044453517 -0.2637857 -0.18414019 0.07886835 -0.061863203 -0.35164666 -0.035443027 0.03944946 -0.03633297 0.18861714 -0.13534328 -0.055594977 -0.07393174 0.01119267 0.08021806 -0.13935977 0.10331763 0.14447038 0.112596415 -0.07047157 -0.04159593 0.074676044 -0.056949906 0.14293925 -0.017765772 -0.08514504 -0.32981664 0.14323124 -0.2974478 0.075005166 -0.09149266 -0.02197074 -0.050870642 -0.23067667 0.17755532 -0.0041502174 0.35981512 -0.08105922 0.14087722 0.007856389 0.1327511 0.17163058 0.21216513 0.16597438 0.25278953 -0.21139346 -0.064328 0.22974068
344 0.21723409 -0.09440904 -0.12618954 0.32037556 0.3373886 0.45024744 0.19726562 -0.20652762 0.11461192 -0.1305312 -0.17849855 -0.49318677 0.19552386 -0.058642168 -0.38813165 0.44871446 0.110938475 0.015443338 -0.28404284 -0.4863929 0.038106695 -0.13041857 -0.032541938 0.16326517 -0.24429312 -0.03531777 -0.31855848 -0.07251991 0.17863056 -0.29930383 -0.06599995 0.27365434 -0.19701232 -0.181982 -0.18167153 -0.05133561 0.26267567 -0.71900624 0.027498655 -0.06873149 -0.1526088 -0.40856248 -0.066019684 0.40843803 -0.04915328 0.18176691 -0.18388194 -0.15973406 0.18536934 0.013857233 -0.0548993 0.21762423 -0.16604045 -0.08789047 -0.8075917 0.00666638 -0.084500626 -0.014441651 -0.36938235 -0.04118462 0.17005575 0.25987354 0.10821968 -0.102818616 -0.20191385 0.17517447 -0.3492807 -0.27797943 -0.0048913127 -0.15662436 -0.18245377 -0.23268427 -0.70497924 -0.082223095 -0.20392832 0.21011052 -0.14168635 -0.02951082 -0.16605693 0.0005264217 0.044326942 0.25697142 0.2552205 0.09064809 -0.23212664 0.2079473 0.1924083 0.31995958 0.19334422 0.00028910814 -0.06383713 0.28203365 -0.0035635922 0.49687836 0.33061442 -0.2171574 0.47048846 0.24079749 -0.5620572 0.05042557
345 0.014042447 -0.0024407213 -0.028967692 0.033476554 0.013523928 0.0592775 -0.13107523 -0.050078265 0.06829737 -0.027600223 -0.018878812 -0.042709246 0.20544027 0.026190348 -0.10722367 -0.03826954 0.03285045 0.03533242 0.03664498 -0.1944458 -0.01139075 -0.057705924 0.0015459248 -0.027549924 -0.013560575 0.095585346 0.068514645 -0.14780398 0.14029758 -0.2154049 0.12986378 0.035571728 -0.10913896 0.060984552 0.102476485 -0.043310683 0.008213959 -0.08584342 0.15435284 0.044335194 0.04614415 -0.0967671 -0.014187672 -0.0028712829 -0.16735435 0.19603783 -0.09468934 0.014663463 0.08219598 0.07549646 -0.1635224 -0.025577543 -0.021821154 -0.06082023 -0.1996486 0.09567613 0.11955979 -0.064096384 -0.09054294 -0.024372635 -0.053802382 0.1424341 -0.01258089 -0.0022811617 0.03647236 -0.052087016 -0.0384865 -0.0322595 -0.013753173 0.03617527 0.09276696 -0.08684346 -0.10672199 -0.019276658 -0.08946301 0.13089895 -0.07701885 -0.07289214 -0.2190481 -0.06327809 -0.23666477 0.1777009 0.10787207 -0.02830522 -0.1931763 0.0065451413 0.13160709 0.1317774 0.17098984 0.14028312 0.123629004 -0.009168377 -0.046599817 0.1576034 0.060662836 -0.012140073 0.22801311 -0.09785313 -0.13881898 0.09567798
346 -0.034611534 0.10085589 -0.112171136 -0.13452265 0.48705804 -0.021467254 -0.555483 -0.0794719 -0.09262189 0.41533393 -0.06879441 0.091709025 0.2858763 0.2546901 -0.106091686 -0.29472557 0.12791553 0.23662068 -0.0017789772 -0.20470853 -0.32017985 -0.25615257 -0.05520653 -0.33919045 -0.27230301 0.15229459 0.16654749 -0.34917724 0.5482187 -0.03044012 0.20383132 -0.28270194 -0.109281085 -0.15774077 0.31221235 -0.043030716 0.27191707 0.18860705 0.2362947 0.04053644 0.053809017 -0.19732308 0.2880596 -0.3794087 -0.46951985 0.092577405 -0.07123721 0.024188524 -0.1251611 -0.09133127 -0.29403085 -0.03779662 -0.33406618 -0.2628139 -0.007314945 0.1660247 0.40097806 -0.07101458 -0.516459 -0.53002673 -0.11668354 0.33408728 0.26309627 0.025529012 0.1008716 -0.022125721 -0.014633565 0.3541882 0.045683727 0.21156532 0.40912163 -0.004409537 -0.23910244 0.33420458 -0.30332693 0.45121628 0.21417643 -0.122889884 0.00613212 -0.2356872 -0.61905503 0.2545812 0.57773995 -0.27226913 -0.51909214 0.30868205 0.58160585 0.13756591 0.34637383 0.6540139 0.29773796 0.21060964 -0.2285249 0.026940437 0.18757965 0.13371968 0.23278281 0.103229746 0.28788498 0.35788095
347 0.03581129 0.02847355 0.0020183583 -0.01135712 0.004911178 0.032386895 -0.09705467 0.0022819447 0.08086265 0.03075019 -0.060538363 0.0023069547 0.11586323 -0.026575485 -0.07956796 -0.04059816 0.035291545 0.0011830267 0.010345195 -0.13828906 -0.032036386 -0.03566936 -0.053427834 -0.049463253 -0.033338815 0.13056728 0.04324855 -0.0784421 0.103404626 -0.08998643 0.11567743 -0.018502854 -0.08027198 0.0905194 0.11425618 -0.026044974 -0.0041400553 -0.09421095 0.05638301 0.06894661 0.059836365 -0.09104629 -0.017817372 0.002148912 -0.06654643 0.052325964 -0.034843 -0.017232684 0.06722483 0.015210341 -0.13566887 0.0068330993 -0.025005504 -0.060260158 -0.10241452 0.09806776 0.10977648 -0.06761063 -0.08536283 -0.026383704 0.02574152 0.10123252 -0.0397896 -0.057364188 0.007895118 -0.056602415 -0.035000034 0.007284007 -0.059731938 0.049060356 0.020923022 -0.042712428 -0.06983433 0.0149300285 -0.1020395 0.06380003 -0.064322054 -0.042235836 -0.117965095 -0.027502632 -0.16172084 0.081132345 0.035356764 0.034711033 -0.14932926 -0.0072727497 0.09324455 0.08275862 0.13092966 0.13807625 0.08114089 -0.011106661 -0.0075138565 0.037340567 0.062126707 0.046828154 0.1622304 -0.012319273 -0.057518136 0.061269704
341 0.060261216 0.037525494 -0.013331741 -0.009638541 0.012802283 0.036913365 -0.09741373 0.019630468 0.12514596 0.03490593 -0.033275522 -0.016590646 0.105749294 -0.030167136 -0.07320591 -0.008067738 0.026503207 -0.013156641 0.017486079 -0.13129818 -0.024922037 -0.023623368 -0.049339045 -0.05465796 -0.044012066 0.13063934 0.05062179 -0.043673027 0.07665103 -0.10841584 0.12125906 -0.0042405166 -0.05092084 0.086038716 0.119639225 -0.047321163 0.006245494 -0.1065962 -0.017870832 0.076112986 0.06922569 -0.14714503 -0.043731045 -0.012333792 -0.12853585 0.050707567 -0.03344068 -0.04782143 0.07802338 0.04501047 -0.119015284 0.05191804 -0.041117027 -0.055299517 -0.09991665 0.13532822 0.11595806 -0.13001563 -0.06581728 -0.014618073 0.0004932964 0.111990266 -0.07733255 -0.0675548 -0.0076124235 -0.017662391 -0.040607594 0.0065352847 -0.04252999 0.034750406 0.0015679937 -0.062947616 -0.09279664 0.04687834 -0.081839785 0.038650226 -0.02641914 -0.07190038 -0.10890141 -0.05778506 -0.172457 0.05072529 0.010800895 -0.0014141501 -0.17489126 -0.011511624 0.06558857 0.0772341 0.1769226 0.13863546 0.07872443 0.006842298 -0.02358742 0.041892838 0.092920326 0.0975357 0.17531732 -0.019145254 -0.07597333 0.022972174
342 0.25645432 0.23454528 -0.09122546 0.39183152 -0.022949545 0.49638864 0.013425852 0.23238441 0.038955245 -0.34661114 0.13999693 -0.09103227 0.03800627 -0.18842904 -0.0708718 0.29128686 -0.3111702 0.13953993 0.15314792 -0.33526075 -0.019254861 0.014592435 -0.1120227 -0.16980805 0.22308429 0.047947403 0.1707452 0.10281484 0.3170255 0.074120246 0.28604594 -0.2795444 0.0538051 0.6270923 0.37886766 -0.18968204 -0.1418404 -0.5519068 -0.038187075 -0.16299282 -0.06825522 -0.36715838 -0.14166562 0.29671568 0.011909994 0.1727869 -0.5109629 -0.34820887 -0.054046 -0.15405673 0.10021065 0.044296447 0.14568922 -0.03477743 -0.07565115 0.26331326 0.1262444 -0.28962246 -0.011311486 0.19489236 0.22090964 0.08465092 0.1486575 -0.3106313 -0.05789072 0.06404229 -0.32402456 0.051942404 -0.5827027 0.24930389 -0.1533054 0.0150915515 0.039902076 -0.08656289 -0.10720038 0.02822078 -0.32883114 0.06878275 -0.25843567 -0.3460684 -0.33481017 0.13547844 -0.16405082 0.24326907 -0.13455556 0.22257905 -0.115267426 0.101353996 0.3345812 0.28561196 -0.03365395 -0.030092312 0.1979596 0.165077 0.2653859 -0.18941425 0.09454676 0.06236792 -0.04556485 0.081385784
348 0.11137746 0.028864784 -0.06826402 0.16332172 -0.13606583 0.010571776 -0.17884828 0.1325975 0.13683952 0.08154485 0.046858583 0.13317126 0.10662937 -0.062300522 -0.021059534 -0.040161382 -0.05865561 0.037684537 0.19366765 -0.19521129 0.013718989 0.055162635 -0.052217912 -0.10856823 0.047973268 0.1822466 0.123636715 0.035387583 -0.04298135 -0.16120468 0.1744288 -0.1591511 0.10640054 0.30470517 0.1500571 -0.010513165 -0.017182706 -0.18322255 -0.06188012 0.24776238 0.11593425 -0.33019936 -0.09263672 -0.19789593 0.014953164 0.11289352 -0.25115126 -0.15001275 0.20601968 0.0888499 -0.20528439 0.1196963 0.037486117 -0.1283542 -0.104982056 0.26495463 0.12134298 -0.10890228 0.003230502 0.109088466 0.06406877 0.008630003 -0.021736592 -0.040369585 -0.0101634385 -0.16474937 0.11137171 -0.14470601 -0.18066193 0.105017744 0.05671989 0.014000032 -0.08357146 -0.011670688 -0.18197663 -0.012806309 -0.09076067 -0.12719175 -0.08409423 -0.09053166 -0.33709162 -0.009546254 0.103486516 -0.13125964 -0.11293246 0.050140467 0.098300405 -0.11860161 0.35012868 0.2047506 0.007959526 -0.056565125 -0.013894719 0.036611933 -0.0833448 0.08667196 0.23990676 -0.15641172 0.012022781 0.13526589
349 -0.13428801 -0.16086613 -0.2754859 0.28811303 -0.19612041 0.56232864 0.08996314 -0.4399424 -0.032568254 -0.6101405 0.29257897 -0.20037422 0.5984411 -0.12108754 -0.071954355 -0.27784532 0.08031864 -0.10488895 -0.19574481 -0.2776233 0.26978415 -0.40402418 0.18504812 0.22489426 0.16734044 0.067032136 0.09660724 -0.18419437 0.20857002 -0.26797763 0.11172109 0.13577883 -0.04891491 0.06291748 0.29890123 -0.07807727 0.16831985 -0.40786687 0.17827092 -0.07272083 -0.13877352 -0.03615624 0.01327397 0.15327767 -0.3456013 0.28585112 -0.4175161 -0.023238987 0.43775758 0.00361986 0.18725432 0.30793965 0.31242505 -0.14450914 -0.45450634 0.30092555 -0.039037045 -0.33157146 0.19191541 -0.07492512 -0.05376293 0.35863248 -0.050158285 -0.025655147 0.021523839 0.025725603 -0.07288444 -0.39814407 -0.09688728 0.15190342 0.07960391 -0.2787402 -0.1911457 0.032485608 0.099666096 0.300334 -0.20736416 -0.1693299 -0.39594242 -0.286931 -0.16404693 0.49389884 -0.20578896 -0.29106227 -0.12563808 -0.42798725 0.32799557 0.15406226 0.22040051 -0.008122515 0.26441076 0.14299408 0.29079032 0.32248026 -0.026580999 -0.24605857 0.07098149 -0.21232568 -0.14206983 0.38592887
298 0.08963082 0.005748897 0.015692428 -0.07956672 0.30877304 -0.057975348 -0.07649121 0.03709091 0.3678077 -0.09273968 0.007631894 -0.32293528 0.21458238 0.026724244 -0.17825685 -0.007783188 -0.022011153 0.004116983 0.13712798 -0.27643368 0.042995185 -0.1338503 0.027118506 -0.051759865 -0.009333217 0.23650412 0.010967513 -0.18425132 0.10241729 -0.19564664 0.26701832 0.15707524 -0.13603668 -0.14916272 0.14084694 -0.14056456 0.12897101 -0.24068391 0.055827834 -0.09560775 0.11827121 -0.20224732 -0.045646727 -0.13190289 -0.41700888 0.1948915 0.11079353 -0.24543795 0.048516728 0.17756456 -0.13639598 0.26829663 -0.1841803 -0.08479343 -0.10814052 0.2679874 0.251663 -0.29957065 -0.36847684 -0.059035495 -0.07861116 0.39848965 -0.22925994 -0.062096946 -0.01404135 0.24748074 -0.17411503 0.23897058 0.35728142 0.18228783 -0.040702984 -0.099087514 -0.11366277 0.18424667 -0.1130118 0.18928418 0.09268627 -0.24375483 -0.29145762 -0.17143363 -0.29154268 0.15052992 0.10853504 0.049390454 -0.25009942 0.020675266 -0.02582023 0.1604491 0.2434208 0.18066482 0.019674277 -0.015347172 -0.09821521 -0.11117763 0.34792387 0.37252122 0.10184818 0.027422542 0.10461395 -0.23832186
299 -0.020326305 0.20005463 -0.0002247502 -0.09861152 -0.10897496 0.24820985 -0.423385 0.09826445 0.28153563 0.27591738 0.0688485 0.2113466 0.19032706 -0.07833027 -0.042161983 0.008195894 -0.065368675 0.20526981 0.10420646 -0.12757088 -0.10836069 0.23581846 -0.29146662 -0.017136447 -0.15235421 0.36455107 0.042070314 -0.01477694 0.22248453 -0.21443932 0.2191871 -0.21340899 -0.24071723 0.4717761 0.3112008 0.12117874 -0.015167468 -0.0477303 0.23985995 0.0777997 0.28219092 -0.115005456 -0.31241122 0.21983081 -0.027280012 -0.14625818 0.0629757 -0.18482746 0.23419292 -0.32969114 -0.27080384 -0.09882831 0.03256637 -0.26136804 -0.21091662 0.05103611 0.087242715 -0.1710842 -0.16147687 0.23882799 0.02872009 0.066557325 0.03233526 -0.26511157 -0.028057862 -0.035408743 0.21488789 -0.043603625 -0.21203439 -0.003639128 0.04184627 -0.13475835 -0.02168123 -0.035923347 -0.039719198 -0.012212704 -0.24711074 0.19007641 0.108224936 0.24591094 -0.010532555 -0.12819389 -0.08685404 0.22582802 -0.14139877 0.21745712 0.33279482 0.09228549 0.43936643 0.18941295 -0.095362164 -0.10642272 0.18360923 0.13145928 0.17072022 -0.048520006 0.23324814 0.028960584 -0.0831716 0.26941767
297 0.022142323 0.024742587 -0.019220516 -0.025323637 -0.05160984 0.084012724 -0.10200295 0.025931446 0.14510271 0.029938689 -0.0104750125 0.017921448 0.1406132 -0.02814499 -0.08585788 0.011601852 0.0150801875 0.022511408 0.06812748 -0.16991107 -0.039860375 0.02088324 -0.06533018 -0.040146098 -0.068156295 0.12631296 0.07760983 0.007817094 0.083199166 -0.17601308 0.1477349 -0.016546309 -0.044655506 0.14262085 0.14276095 -0.033960987 -0.014382802 -0.15811726 -0.008454673 0.10449586 0.12147178 -0.17187066 -0.08346431 0.008103923 -0.11776957 0.076063104 -0.099555604 -0.0757833 0.117020346 0.055671427 -0.19065976 0.07698393 0.00542616 -0.046776205 -0.11962244 0.16712555 0.09850301 -0.10988747 -0.08179664 -0.0005261396 0.052014366 0.07217843 -0.059877265 -0.070713535 -0.04956494 -0.041893475 -0.056004386 -0.015066701 -0.067304775 0.032485623 0.0051664854 -0.06869781 -0.10315866 0.0009617366 -0.09752334 0.060767405 -0.06295283 -0.08227461 -0.09282252 -0.034783408 -0.17727464 0.09287229 0.041457932 -0.029935155 -0.1968383 -0.0061273994 0.06725101 0.12684594 0.16167174 0.1321565 0.05674205 -0.024101632 0.042756252 0.06826974 0.05281116 0.0522194 0.19109398 -0.06438398 -0.060007982 0.038002778
294 0.12474356 -0.17854933 -0.28063092 -0.14079903 -0.22532606 -0.032424152 -0.23385261 0.19424817 0.16563329 0.1533895 0.13686828 0.2587566 -0.10478472 -0.06092371 0.044746034 -0.008435257 0.10918864 -0.19235146 0.1768808 -0.051445156 0.18900153 -0.16253565 0.02290872 0.021244558 -0.08535996 0.15011464 0.056441084 0.1275784 0.27930987 -0.2524313 -0.043070953 0.078585185 0.13603234 -0.10718334 0.20954993 -0.12788966 0.005980496 -0.09532837 -0.52839833 0.24552667 -0.025478784 -0.5764452 -0.30129483 -0.3248259 0.07407041 0.25656253 -0.080371 0.03747289 0.56037784 0.07207604 -0.44294202 0.13785256 0.22154717 -0.04382505 -0.31372014 0.5574193 0.37684792 -0.15941013 0.21071732 -0.09247742 0.124071464 0.2144173 -0.37085482 0.10697798 0.30601823 -0.14586735 0.16188256 -0.07616217 -0.19151692 -0.041936096 -0.2983072 -0.22865799 -0.34439853 0.065904394 -0.005886296 -0.21053477 -0.030819325 -0.22720654 0.22444431 -0.50749856 -0.2873386 0.2621286 0.3116441 -0.25769076 -0.30034733 -0.44622433 0.23393576 0.0091646705 0.16569333 0.08929771 0.38146836 -0.14559777 0.076441415 -0.20039555 -0.21863735 0.028306196 0.4110794 -0.10840699 -0.13388835 0.10971366
295 -0.16542199 0.25926426 -0.099848025 -0.017560447 0.23779191 0.06741919 -0.49681658 -0.102148995 0.024187947 0.18626748 -0.04302129 0.19527417 0.38399568 0.08500228 -0.18601944 -0.15250503 0.34530655 0.35871136 -0.1498378 -0.10142524 -0.18881603 -0.20367703 -0.032776758 0.17638314 0.12653622 0.20595305 0.18201347 -0.53999335 0.57364446 -0.1483165 0.097215526 0.023525946 0.17131554 0.26063785 0.29120234 0.29995805 0.00835693 0.08683013 0.26507998 -0.040907864 -0.16582324 -0.2213687 0.14915971 -0.16154307 0.11085251 0.186582 -0.29798004 0.20763525 0.15190908 -0.3466063 -0.32315084 -0.30169064 0.11875154 -0.08777287 -0.39867365 0.20019045 0.5323782 0.1964522 -0.3892476 0.08853657 -0.15689772 0.30174634 -0.226498 0.08523946 0.06866665 -0.07405645 0.17424165 0.07010763 -0.217962 0.3556135 0.17164846 -0.05269653 0.010704797 -0.040011253 -0.16684031 0.426166 -0.11851474 -0.09933193 -0.17862952 -0.052906606 -0.22821467 0.49356705 0.13406172 -0.08692259 -0.2743222 -0.051022623 0.71305364 -0.04700627 0.26385465 0.4814031 0.33685297 0.12378556 0.051527187 0.07412695 -0.11185283 -0.29662815 0.45395678 0.067909636 0.27802283 0.33909103
293 -0.026483038 0.0066841627 -0.017033683 0.034674656 -0.017226825 0.08868392 -0.10750026 0.026299648 0.113295734 -0.059133206 -0.034935113 -0.012107949 0.21164574 -0.040197194 -0.06562641 -0.0020797139 0.040733498 -0.0051743374 0.0069089984 -0.14361769 0.049113825 -0.08398894 -0.014224135 -0.035334013 -0.031228106 0.19830728 0.08007522 -0.077693865 0.15790135 -0.1539025 0.15912572 -0.0635483 -0.11351733 0.16091824 0.17933005 -0.03464269 -0.0386269 -0.2140963 0.009896132 0.09614462 0.088373 -0.14307857 -0.091250174 0.0073524304 -0.11545704 0.12269948 -0.17416574 -0.049934063 0.11385255 0.1293921 -0.08481018 0.09866651 0.0028005566 -0.096152425 -0.17246495 0.21666102 0.13390881 -0.17450643 -0.036004387 -0.015389723 0.07459728 0.16425459 -0.102412775 -0.04685145 0.009109884 -0.07451047 -0.027580427 -0.05961438 -0.054600496 0.12217904 0.023146214 -0.05486533 -0.09728938 -0.007977667 -0.09894055 0.07682679 -0.08559371 -0.09959919 -0.16369334 -0.08476497 -0.22340758 0.15993102 0.107324615 -0.025956698 -0.18936594 -0.049990054 0.07440075 0.13186833 0.21097973 0.12548794 0.084629774 -0.0057334336 0.095858686 0.033462662 0.122195706 0.050759155 0.238367 -0.077975534 -0.14961433 0.055751454
290 0.47093642 -0.07376404 0.45285046 -0.24860825 -0.15872148 0.105782144 0.16356897 0.16873892 0.30898124 0.3733238 -0.10989363 0.043076314 0.09098561 -0.24557298 0.059642218 0.31307682 0.16695406 -0.061434813 0.18896347 -0.17391329 0.0017095241 0.095545314 -0.21806134 0.11803717 0.017657477 0.034061015 0.073851965 0.13774742 0.055046823 -0.24966575 0.07347788 0.07114886 0.058388494 0.22557902 -0.051268373 -0.08605381 -0.14521493 0.014637835 0.0028876923 0.5266868 0.110431194 -0.33980843 -0.22874686 0.19744588 0.009222221 -0.40872452 -0.07528919 0.15231262 -0.09400559 0.3341961 -0.34280255 0.08263942 -0.123681866 0.18963541 -0.17456636 0.33503112 0.57101923 -0.8883063 0.365531 0.0400592 0.38965976 0.24289195 -0.46971178 0.11210461 -0.12610388 -0.21616389 -0.25156477 0.057771455 -0.3801768 0.03370395 0.03619745 0.065685116 -0.21395859 -0.114947125 -0.21911694 0.08602958 0.037243426 -0.12122179 -0.37484282 -0.23117805 0.12017557 -0.100615926 -0.24212025 0.362774 -0.64864236 -0.0996138 0.18994832 0.28957307 0.23677894 -0.08573164 -0.19468077 -0.3077412 0.5079474 0.1953794 -0.017400632 0.17493652 0.48075682 -0.46670946 -0.45213637 0.0018542943
270 0.16220815 0.00505842 -0.2508586 -0.13288373 0.03084204 0.23411858 -0.32185248 0.0062088566 0.2515335 0.31557804 -0.17505047 0.06481837 0.33149788 -0.16331048 -0.16455977 0.09140025 0.35182124 0.30030608 -0.2811149 -0.036438625 -0.26483467 -0.50820965 -0.084190905 -0.023322953 0.06373455 0.12666725 -0.04652726 -0.21828528 0.19906086 -0.29206958 0.20922405 0.1425166 0.11849121 0.15714583 -0.3510562 -0.06167166 -0.10744763 -0.18489398 0.0933152 0.36044103 -0.042771947 0.1661422 0.12215918 0.18985066 -0.22332627 -0.0015822089 -0.13508521 0.25504732 -0.00822024 -0.021059418 -0.06488458 0.039748218 0.15124972 -0.13649818 -0.16986698 0.011097616 0.100801066 -0.11295989 -0.2662796 -0.074429095 -0.10499178 0.4815329 -0.14693588 -0.24001338 -0.473958 0.058628432 -0.19639045 -0.2126437 -0.2148097 0.21493648 0.18757883 -0.21058281 -0.20881014 0.08610313 -0.24890262 0.56632084 -0.14544778 0.030559057 -0.21735767 0.0050149406 0.17917441 0.38473833 -0.25459734 -0.04723783 -0.47043863 -0.16412315 0.16691698 0.09025248 0.090303004 0.21297479 0.50674284 -0.08286958 0.283113 0.032697245 0.2722296 -0.38342574 0.2628833 -0.020648276 -0.016868431 -0.009490723
273 0.124233514 -0.12970997 0.14138453 -0.12246577 -0.31617615 0.26145217 -0.039895553 0.37760288 -0.26515564 0.08784533 -0.18593682 0.097846776 0.31395838 -0.09589827 -0.068352595 0.054704 -0.19065641 -0.30019364 0.44377133 -0.20656118 0.3210194 -0.044695493 -0.21434006 -0.07434414 -0.10533006 0.2926704 0.08843163 0.18042803 0.066761576 -0.24919134 0.05911796 -0.2517579 -0.2756363 0.20766714 0.10243835 -0.12043534 -0.3248774 -0.37179288 0.07649563 0.26835352 -0.06954615 0.055697396 -0.31423882 -0.12514324 0.0052097733 0.1794845 -0.12350578 0.23467332 0.28392357 0.21084891 -0.4095693 0.1470125 0.12545842 -0.020698996 -0.34738678 -0.18393949 -0.16103512 -0.2832829 0.22137764 -0.092072375 -0.13460498 -0.062661074 -0.21785992 0.046541076 0.17005648 -0.17759946 -0.17056926 -0.11294718 -0.35588825 -0.18323459 0.1957421 -0.24894007 -0.23135482 -0.19230184 -0.07107929 0.03779084 -0.031532228 -0.052405108 -0.0685574 -0.017856566 -0.04666726 0.27487916 0.5171353 0.2480809 -0.30610895 -0.4016388 -0.048425827 0.17115042 -0.26984292 0.38153177 0.28714117 -0.21109015 -0.0011407472 -0.067584194 -0.022905596 -0.039523933 0.5920389 -0.09057818 -0.5898692 0.18404225
275 0.21302088 0.12170864 0.08064514 0.12756494 0.14008352 0.08870911 0.2319458 -0.24472678 0.3260818 -0.29655847 -0.071379334 -0.18332674 0.2963874 -0.20515631 -0.16821848 -0.10448653 0.2420139 -0.2488079 0.07204017 -0.61362785 0.115893885 0.10700415 0.26238754 0.31762952 0.055347715 0.018176595 0.08612373 -0.50876695 0.35688743 -0.2438087 0.05436285 0.5440976 -0.24392383 -0.22036505 0.33103615 0.13768202 0.5179965 0.123553306 0.3011066 -0.14426 -0.07329152 -0.2851952 -0.07408762 -0.11361269 -0.32737425 0.70882374 -0.02670129 -0.23042233 0.29405212 0.0215314 0.16486096 -0.35975924 -0.16696694 -0.0351242 -0.45693135 0.20122989 0.20260781 0.12756088 -0.49739885 0.03716704 0.13521276 0.19293134 0.028609337 0.30576175 0.085946806 0.2619479 -0.41177788 0.33985093 0.18230283 -0.11421374 -0.0985021 -0.012346799 -0.2512985 -0.21042113 -0.08879915 0.15437762 0.22775173 -0.15582643 -0.34965017 -0.34303573 -0.22645868 0.39955753 0.118340835 0.41430277 -0.4819985 0.42708805 0.67949677 0.40969166 0.24692842 0.19289611 -0.118283585 0.39549172 -0.47680393 0.45143205 0.07891305 -0.19287334 0.5925417 0.04727883 -0.061712917 0.057816062
276 0.16358373 0.0825631 -0.2442274 0.06458035 0.02893797 -0.034159034 -0.0944766 0.023788145 0.3165912 0.02201514 -0.19167952 -0.22798285 0.13287073 -0.27694383 -0.18246636 -0.26948962 0.280769 -0.081659205 -0.0154654505 -0.565532 0.09472139 -0.20302607 0.08831651 -0.21883819 0.08514298 0.10761196 -0.07676201 -0.29335773 0.24689107 -0.27684504 0.14556636 0.28658223 -0.28285435 -0.013118229 0.38764805 -0.13915224 0.3650302 -0.0552347 0.038359106 -0.39273483 -0.25013846 -0.30313697 -0.1763323 -0.09077084 -0.27791044 0.6018012 0.05884793 -0.044492356 -0.0076886253 0.077594906 -0.007097498 -0.033395544 -0.29690108 -0.11882973 -0.31066903 0.3485335 0.08046766 -0.03703982 -0.7029112 -0.12812103 -0.009156126 0.32315844 0.13123904 0.22650428 0.24803488 0.2359772 -0.30399215 0.310348 0.37995502 0.16367263 -0.1330994 -0.21681844 -0.14606926 0.21355207 -0.10878931 0.22663145 0.2486179 -0.22656544 -0.29547742 -0.28157037 -0.34704927 0.08690741 0.6581647 0.0805281 -0.30890492 0.11848862 0.3984874 0.052893743 0.19465843 0.33254027 0.23845151 -0.003985328 -0.3831962 0.20295283 0.29202864 0.0074275658 0.5052607 0.12085645 -0.05314911 -0.052286424
277 0.3896432 0.002771223 -0.18923736 0.13290304 -0.0927967 0.053184398 -0.12074558 0.20702322 0.062843464 0.06899843 -0.16943678 -0.1801021 0.052325726 -0.27392933 0.03209431 -0.0048809974 0.026080146 -0.23767921 0.041404273 0.086364254 0.18086675 -0.027724287 -0.020740714 -0.072109334 0.236885 0.12052306 0.034531616 0.24276897 0.13390118 -0.08619669 0.16346203 -0.077622846 0.09070582 0.27701902 0.16644107 -0.027283635 -0.08266661 -0.22636373 -0.3600759 0.070795275 -0.16999473 -0.3178576 -0.113243505 -0.09288656 0.054620523 0.1057539 -0.34783432 0.07222908 0.2821895 0.17693374 -0.16408882 0.12242741 0.09726223 -0.07331921 -0.3317116 0.45361963 0.14795128 -0.25656074 0.29482314 0.20016943 0.02666584 0.1363559 -0.19336352 -0.1464672 0.06993799 -0.07264941 -0.05110594 -0.16453953 -0.13119565 -0.038368307 0.09253275 -0.27080974 -0.40535063 -0.11278714 0.070618376 0.0018709851 -0.0017729542 -0.091300026 -0.13887571 -0.44432342 -0.2596215 0.11675339 0.087210216 0.052608263 -0.17804748 -0.17909843 0.11047277 -0.037437722 0.3438326 0.15229708 0.13061811 0.006963246 -0.09156443 -0.01127892 0.03034717 0.122469366 0.38375685 -0.058584694 -0.29540923 0.14801301
279 -0.2528737 0.24807046 -0.34230262 0.05629226 0.24646161 0.35337076 -0.3290427 -0.10584885 -0.24194838 0.19488584 -0.23318352 0.1951237 0.158643 0.13148084 0.007920529 -0.18962783 0.12429069 0.2510463 -0.16015549 -0.4561601 -0.31639832 0.063750215 -0.16538887 -0.21246049 -0.3348002 -0.043656703 0.3029025 -0.17694214 0.16981773 -0.23619787 0.10665626 -0.10311501 0.19949237 0.15040104 0.34911296 0.25815615 -0.05388064 0.005637671 0.14918652 0.016785862 -0.3117959 -0.33112392 -0.09385298 -0.13345529 -0.14777102 -0.0038550086 -0.57952756 -0.088288575 -0.13916643 -0.28246233 -0.18296412 -0.17082241 -0.22908531 -0.47739938 -0.20436837 -0.008176958 0.23288204 0.36210546 -0.5588404 -0.20917314 0.24456353 0.1150249 0.22963196 0.12479159 0.0027707072 0.06775973 -0.036951497 0.1011796 -0.1836748 0.10947658 0.19970869 0.2063746 -0.16290404 0.049452107 -0.15283021 0.47093216 0.1722683 -0.16367088 0.14365186 0.1379752 -0.5965425 0.3746894 0.35553554 -0.14221306 -0.5069538 -0.037601724 0.8337007 0.15118428 0.30330452 0.48371363 0.10471664 0.2854591 -0.06679147 0.37713024 0.1415381 -0.16250719 0.3114995 0.053252153 0.3123952 0.4334529
1132 -0.49625036 0.13541918 0.04256329 -0.15620975 -0.31205812 -0.026028646 -0.12839024 -0.42342725 0.27042246 -0.1372979 0.13883989 0.1484815 0.25668332 0.20789595 0.0033093693 -0.41343078 0.24936117 0.18225129 -0.041690163 -0.027631266 0.1551056 0.03468623 0.23244986 -0.115830235 -0.10632439 0.3980088 0.26421326 -0.3047728 -0.074249625 -0.38927072 0.2708189 0.056986943 -0.21763265 0.09314934 0.16517124 0.13738023 0.067737155 -0.012135206 0.19620031 0.1675189 0.23744468 -0.1108987 -0.19613925 0.20346491 -0.19317043 0.14893061 -0.15990418 -0.020113401 0.2871083 0.09845508 -0.11476513 0.054165404 0.10196622 -0.40195033 -0.40634692 0.09125045 0.018815685 -0.1775284 -0.18498012 0.028611632 -0.17388327 0.28747997 -0.0724558 0.24062489 0.25769892 -0.06942742 -0.017836304 -0.24582326 0.15020587 0.029265316 0.36157784 -0.2792955 0.12854414 0.20594859 -0.018075055 0.018346509 -0.11090754 -0.2872404 -0.25475115 0.14943627 -0.17155941 0.17852077 -0.068647444 -0.43656453 -0.022285054 -0.18903638 0.44934112 0.4269117 0.35996398 0.28233588 0.21537705 0.019265417 0.45729834 -0.07048782 -0.037062045 -0.09795941 0.11054279 -0.42618588 -0.119641826 -0.05353594
109 0.070118606 0.011258635 0.046087835 0.0020641785 -0.019533318 0.104093604 -0.08584868 -0.11911954 0.17310607 0.049666606 0.00029655383 0.05601161 0.053959906 0.06283218 -0.10699308 0.009597066 0.1351661 0.0044147456 0.062309746 -0.22800298 -0.013249955 -0.11086892 0.104914606 0.03444818 -0.108451195 0.093874246 0.17392333 -0.24570473 0.20270246 -0.14104134 0.23990192 0.00503123 -0.10522976 -0.02061046 0.15981221 -0.0067737275 0.19348364 -0.02646136 0.03478639 0.15464161 0.10178198 -0.24085149 0.048360188 -0.062874034 -0.091228865 0.13189475 -0.036414605 -0.02743019 0.17856306 0.04875024 -0.20615074 -0.046917092 -0.002790457 -0.15880705 -0.3075238 0.20362872 0.099672794 -0.028500926 -0.08194863 -0.049526438 0.09765588 0.061093442 -0.02254243 -0.0107435975 0.07287954 -0.06745485 -0.019754227 0.0021928367 -0.11410386 0.081424646 -0.09415824 -0.059074327 -0.2142937 0.00057799736 -0.010152738 -0.017766086 -0.012962481 -0.19059017 -0.16080514 -0.17715667 -0.23400745 0.2394397 0.15402544 -0.06038488 -0.29353893 0.0053710677 0.29264015 0.20470947 0.15879561 0.22792368 0.09513691 0.09144801 -0.15629436 0.23234543 0.08554081 -0.17149065 0.28147733 -0.08598214 -0.12594023 0.0129165575
102 0.05789579 0.14748275 0.04880022 0.12945314 -0.20773639 0.12685768 -0.36688834 0.20450662 0.118256986 -0.113241866 0.10651308 0.22313434 -0.0388854 -0.021447623 0.09705203 0.00055759074 -0.09987214 0.22092226 0.3017416 -0.4144299 0.02514955 0.18521075 -0.16584906 -0.25185552 0.03199277 0.27577406 0.021158291 0.09669619 0.02596338 -0.11538864 0.08885678 -0.3979669 0.01169723 0.58562434 0.119739816 -0.017665377 0.07734932 -0.24842119 -0.13507448 0.27237242 0.12534603 -0.52772194 0.034994394 -0.12579498 -0.056239784 0.22725022 -0.19443233 -0.09321661 0.10255253 0.057395454 -0.099381804 0.07245336 -0.114053994 -0.114525355 0.055986494 0.23799418 -0.059608933 -0.21825731 0.034733742 0.19113645 -0.10466348 0.026835844 0.020836478 -0.20657766 -0.0905907 -0.18404756 0.16783881 -0.08291567 -0.2558897 0.11575123 0.12936562 0.1635198 0.12179582 -0.07439006 -0.2404185 -0.016393073 -0.16491733 -0.112584844 0.033453047 0.18100573 -0.3865028 -0.06417622 0.09005954 -0.11544619 0.034203388 0.3415955 0.1715785 -0.08387815 0.34065017 0.19772775 0.10023186 -0.0646438 0.21697143 0.03379654 0.032786243 0.21705468 0.24666874 -0.071399435 -0.09007026 0.25381425
103 0.1877792 0.11747445 -0.36700228 -0.4552074 -0.674532 0.111905485 -0.05302733 0.12716994 0.2511925 0.26175213 0.021431983 -0.43330482 -0.18167672 -0.009847036 -0.27770048 0.09932216 -0.13157895 -0.061216667 -0.11451753 -0.45817506 0.045214564 0.2628472 -0.3861167 -0.10815799 -0.22820103 0.0078195315 -0.063538745 0.3018432 0.26979673 0.3235015 -0.40621278 -0.05152342 0.060824536 0.34876034 0.150264 0.18842955 -0.28988618 0.024887558 -0.34264666 0.38458383 0.08188408 -0.3901578 -0.24936934 0.3879435 -0.10950418 -0.39638236 -0.12413623 -0.36939803 0.16156328 0.1816183 -0.6769365 -0.12313825 0.017994191 -0.44434148 -0.07312137 0.37312442 0.22957031 -0.52211714 -0.20456016 0.14303969 -0.22295015 0.23765084 -0.011386816 -0.6266356 -0.29089457 -0.2749654 -0.3665097 0.11279192 -0.1880287 -0.13571899 0.23320046 -0.29069147 -0.42315322 -0.12543845 -0.106494844 0.2565772 -0.3283989 0.21170068 -0.25546136 -0.28924945 -0.31623137 0.08261491 -0.41090792 0.025175935 -0.2830236 -0.007899385 0.028915348 -0.05440462 0.72344613 0.10528845 0.36827877 -0.06637857 0.57452804 0.071186945 -0.09101591 0.120907314 0.16040492 0.26146036 0.073052876 -0.08797477
101 0.34249768 0.11322526 -0.24833317 0.39748222 -0.076943144 0.43486246 -0.07878516 0.09068133 -0.15842503 -0.15956338 -0.018868098 0.017394591 -0.095489725 -0.04371565 -0.050042074 -0.1801484 0.065364316 0.040363237 0.27467242 -0.36624938 0.016809907 0.035123654 -0.06288494 -0.4037775 0.37668845 0.11387834 0.2334775 -0.2606823 0.0462485 -0.1784524 0.2895597 -0.43099907 0.3663082 0.44414982 0.031431142 -0.013821091 0.12588903 -0.40889043 -0.103956155 0.061672643 0.032841116 -0.37571675 0.28085926 -0.22557026 0.05161595 0.35441867 -0.6256913 -0.18956743 0.05156895 0.1528298 -0.063824244 0.2629269 0.07974553 -0.0038541532 -0.39880756 0.36549917 0.026623307 -0.07732588 0.006744441 0.09718335 0.11840299 0.017819429 0.117399976 -0.063562386 0.1696142 -0.45167786 -0.0034832088 -0.30284587 -0.61555535 0.19549896 0.07381429 0.07384321 -0.27960894 0.13331518 -0.26495042 0.009100205 0.1448404 -0.290142 -0.23113877 -0.15206416 -0.24309994 -0.057232577 0.32896268 -0.22088516 -0.16613069 0.3612087 -0.015243148 0.08727175 0.29840302 0.11532509 0.10053234 -0.09039081 -0.050684653 -0.12784317 -0.06074328 -0.038443185 0.29726657 -0.42434785 -0.2595366 -0.11262261
106 0.04856115 0.13956964 0.09639777 -0.14477146 0.49960792 -0.14879562 -0.25420776 -0.11138401 -0.13187616 0.39858156 -0.13035585 -0.019700421 0.31592572 0.07789879 -0.22917418 -0.107015446 0.15316854 -0.049034953 -0.040621825 -0.21550317 -0.3647213 -0.27518752 -0.17275232 -0.115391776 -0.28126502 0.14936247 0.0013479412 -0.5989024 0.576246 -0.01008449 0.0053805043 -0.13332607 -0.30217385 -0.055764414 0.13440046 0.11522298 0.0019388775 0.08395722 0.24870132 -0.0013000616 0.085000366 -0.086297676 0.21768305 -0.17358497 -0.06585844 0.016215649 0.098616816 0.07592413 -0.14936268 -0.32879323 -0.23249342 -0.02596056 -0.286622 -0.09861576 -0.1602016 0.10408898 0.4828253 -0.117030464 -0.3762038 -0.33609816 -0.16473784 0.29828587 0.15433235 -0.0637692 0.027633047 -0.025024688 -0.037037037 0.29250887 -0.28713793 0.21623583 0.18522778 -0.22440647 -0.1780786 0.29808855 -0.3007612 0.40829322 -0.120425306 -0.06717821 -0.23504372 -0.15659091 -0.2798611 0.32414648 0.34351912 0.10873063 -0.32261238 0.25225592 0.39343396 0.259591 0.23208794 0.44114754 0.14753784 0.22088405 0.09831231 0.041206837 0.036172297 -0.117928915 0.3011076 0.11324333 -0.13400924 0.19357662
104 -0.09142915 0.063796416 0.015189743 -0.015273914 0.22649673 0.15049508 0.061440103 -0.025589308 0.2825847 0.042153265 0.12286933 -0.27642435 0.107350945 0.17727242 -0.15355863 0.008687526 -0.0041456134 0.06545504 0.20234333 -0.24644566 0.099286795 -0.059606872 0.21812195 0.009044109 -0.08236975 0.030976996 0.21047004 -0.22265564 0.2569521 -0.24912512 0.3111378 0.16063674 -0.18838097 -0.0045209434 -0.08037961 -0.17049722 0.0113246925 -0.032997493 0.22089846 -0.046469234 0.11993612 -0.026000993 -0.037100997 0.11049258 -0.35207114 0.09270225 -0.06913503 -0.19088565 0.0118836 0.17561753 -0.2804523 0.049771663 -0.08711643 0.06268892 -0.2669181 0.2003115 0.23603182 0.028585987 -0.29243964 -0.17416687 0.08554225 0.1780742 -0.19051883 -0.01277511 -0.09890938 0.018247295 -0.46446556 0.058488846 0.11821971 0.040094405 0.07483492 -0.19687827 -0.2135879 0.0022023292 0.045254152 0.09753197 0.027888741 -0.15337121 -0.2411201 -0.18859029 -0.3238092 0.23470895 0.018966265 -0.20399451 -0.119254164 0.019204315 -0.08773349 0.54481286 0.17632084 0.10040113 0.2400722 0.029017296 -0.20268703 0.048078395 0.25362396 0.07246468 0.16129696 -0.10994639 -0.026495686 -0.44030744
105 0.29077566 0.027327273 -0.007433472 -0.2680774 0.27624607 -0.070481606 -0.12891711 0.1915969 0.5893962 -0.22624019 -0.016447559 -0.43535474 0.2780538 0.10409958 -0.29365054 0.076772936 -0.13267526 0.024864497 0.20746626 -0.22243786 -0.03038635 -0.038632818 -0.20610334 -0.19993018 -0.061189864 0.2736176 -0.0011871235 -0.033761956 0.03132274 -0.16161945 0.4153845 0.032905396 0.08507253 -0.17815934 0.13211037 -0.10231656 0.13363287 -0.4119743 0.005164897 -0.042502347 0.22561328 -0.346494 0.1337126 -0.096684374 -0.5170613 0.11125539 0.17182651 -0.42469552 0.047848757 0.29629138 -0.10112665 0.38813478 -0.13497259 -0.15348332 -0.05002989 0.26343474 0.24414611 -0.46634454 -0.41510773 0.0499507 -0.12709837 0.37068957 -0.3997216 -0.1530958 -0.048575807 0.37590286 -0.18099135 0.28668657 0.44397187 0.34096915 -0.17175192 -0.10727674 -0.09593722 0.22394204 -0.10247735 0.02080037 -0.045010936 -0.26855922 -0.16260843 -0.25040078 -0.22775441 0.08011277 0.031159177 0.18634601 -0.2909364 0.05778781 -0.2810312 0.08104944 0.18540995 0.31462276 -0.2497771 -0.08178491 -0.03132083 -0.18594049 0.49810413 0.453972 0.026876757 0.04919 0.2933539 -0.38034877
91 -0.06420604 0.18067098 -0.043167293 -0.29041958 -0.27157274 0.32866693 -0.16854505 -0.049232233 0.26614198 -0.028001064 0.04941151 0.03345057 -0.0045383563 0.101174 -0.09912285 0.13711785 -0.06885346 -0.03106265 0.21526171 -0.25448212 -0.060081027 0.1337418 -0.061421547 0.0038005305 -0.2128638 0.17736132 0.19148467 0.05212761 0.308031 -0.1661419 0.2799277 -0.11872119 0.055581424 0.32160133 0.1232215 0.22111276 0.13494894 -0.00017108848 -0.03655963 0.32883188 0.3233667 -0.13448362 -0.31715527 0.263369 0.051341068 -0.15015045 -0.25514188 -0.10055401 0.31487858 0.000845953 -0.17337151 0.097715825 0.110026576 -0.05863456 -0.10576121 0.24136554 -0.055842206 -0.30775204 -0.031883504 0.11013716 0.1586284 0.016617728 -0.12404737 -0.23655336 -0.09714679 -0.09113045 0.08027778 -0.005323994 -0.2777504 -0.031879086 -0.16409396 -0.12634641 -0.16210492 -0.15802242 -0.025327044 -0.14523017 -0.3704775 0.14190401 -0.25672072 0.06220151 -0.03860472 -0.023499291 0.073319264 0.086068526 -0.4264574 0.18640555 0.09090302 0.27439338 0.30659154 0.073991016 -0.26571485 0.051149145 0.23305003 0.30889457 0.0767407 -0.1044566 0.30841637 0.029981786 -0.04582193 0.02550969
90 0.09801537 0.07111006 -0.03828514 -0.00121224 0.10562448 0.05617952 -0.18844095 0.017323032 0.20016024 -0.057554603 -0.07673344 -0.1464204 0.2241954 -0.025232742 -0.15388791 0.010227787 -0.010101018 -0.009802841 0.031139128 -0.3124339 -0.08617925 -0.099290766 -0.07208295 -0.15599546 -0.119312845 0.18323399 -0.04823105 -0.0027653882 0.08515277 -0.28674006 0.08957029 -0.03884663 -0.02611654 0.04067383 0.07770496 0.010605349 0.11857875 -0.1716709 0.068474725 0.087254 0.17971724 -0.17797877 -0.0005394398 -0.11997713 -0.21260525 0.17262232 0.0826382 -0.1482807 0.035824023 -0.01296438 -0.17773032 0.13267107 0.10066007 -0.022392338 -0.02171834 0.03585246 0.05825681 -0.11565208 -0.19984443 -0.09416445 0.051131483 0.13012718 0.017470863 -0.07879026 -0.15250924 0.170893 0.02562837 0.057337053 0.056476574 -0.09262038 0.19812673 -0.09060059 -0.07389389 0.05165129 -0.0768894 0.16023812 -0.1060065 -0.083893575 -0.12773792 0.05722946 -0.19119054 0.24646294 0.037535887 -0.023035742 -0.2656296 0.10377325 -0.023246784 0.1617539 0.16301902 0.15032323 0.04926245 -0.06551023 0.020652948 0.11020806 0.14159626 0.13884422 0.20729412 -0.08312524 -0.016398584 0.01695732
93 0.036985356 0.013875589 -0.019987669 0.002053942 -0.0017829072 0.060944032 -0.096912004 0.013930856 0.09705154 0.009248513 -0.022734243 0.00049749704 0.12656565 -0.02120716 -0.07931136 -0.0005633588 0.011651845 0.01356389 0.030764887 -0.14568378 -0.0073561966 -0.049564414 -0.02209411 -0.06298155 -0.049920738 0.12667708 0.03994109 -0.031355895 0.08352575 -0.13611102 0.11127385 -0.017653335 -0.04109721 0.07222904 0.10777917 -0.053558666 0.013577895 -0.12794459 -0.0017961775 0.09103791 0.08481658 -0.11566105 -0.051116746 -0.018630251 -0.10091131 0.07788501 -0.053283483 -0.054715782 0.087536454 0.04491674 -0.13956319 0.05517855 -0.011745962 -0.051984433 -0.11689639 0.12556976 0.07314197 -0.1054503 -0.05558573 -0.020214474 0.04892301 0.11552396 -0.020143691 -0.060467485 -0.028791025 -0.024798281 -0.019559745 -0.027387619 -0.03985738 0.05161189 0.0351427 -0.048843984 -0.10277319 0.014624314 -0.099811584 0.075104475 -0.055887252 -0.08475811 -0.1122132 -0.044737272 -0.1632839 0.113443285 0.04590271 -0.036072776 -0.18144742 0.0025022826 0.050764494 0.09953464 0.16092001 0.12781236 0.060141042 -0.008020214 0.016268287 0.031161573 0.0867149 0.06124315 0.16683051 -0.043499533 -0.07578922 0.059600983
92 -0.10900881 -0.17988452 0.45625767 -0.0935438 -0.03121012 -0.363785 -0.06744882 -0.26987696 0.08848011 -0.18702684 -0.11017688 0.15102434 0.13157761 0.21401677 0.024022002 -0.25482047 -0.05261743 0.08764428 0.18788731 -0.08045501 0.26911262 0.19826467 -0.047645327 0.21353093 -0.39700544 0.41205388 0.31724736 -0.31988502 -0.07536172 -0.013078436 0.3477989 0.17734236 -0.41828647 0.08880741 0.28342435 0.2901628 -0.27874988 -0.13399789 0.24739015 0.39373136 0.47698712 -0.22214141 -0.08763515 0.16016419 -0.16594341 0.030282635 0.012757464 -0.41317248 0.43551752 0.093299896 -0.10105112 0.20535105 -0.17025986 -0.25453576 -0.17567393 0.11825914 0.0626187 -0.208908 -0.07106848 0.08704782 -0.16854009 0.14836441 -0.2421159 -0.020589843 0.03134054 -0.19575483 0.18920994 -0.022060359 0.0914478 -0.08267825 -0.057791717 0.036070473 0.05754051 -0.11265084 -0.06659682 -0.14393252 -0.23483364 -0.25362328 -0.32648492 0.24970667 -0.35427162 -0.11257838 -0.1203549 0.18958193 -0.055256408 0.117046215 0.1755725 0.29430616 0.29224125 0.058064234 -0.26666868 0.08452931 0.016397776 0.22016902 0.032685596 0.27983454 0.25573075 -0.051535077 -0.23087887 -0.10550941
1623 0.09489928 -0.018911412 -0.011272256 -0.08530981 0.036737043 0.0019668972 -0.1549011 0.04886987 0.20859176 -0.047611877 -0.040945627 -0.16850406 0.21147111 -0.01953607 -0.22274618 -0.028682705 -0.01703108 -0.030322364 0.060659967 -0.26296383 0.055580735 -0.058646843 -0.037005503 -0.06919735 -0.043865245 0.19843328 0.044401318 -0.11593872 0.06195789 -0.14577685 0.1987277 -0.0043289433 -0.08407407 0.021214267 0.10038385 -0.110377 -0.040514976 -0.19227868 0.060065035 0.013760743 0.18763614 -0.08843109 -0.029494265 -0.09372333 -0.222105 0.08082882 0.039831463 -0.14681228 0.061175536 0.18045333 -0.16631755 0.14396717 -0.07552379 -0.05356748 -0.14335503 0.1894383 0.13681176 -0.23555139 -0.20078155 0.02584618 0.00089882204 0.21062396 -0.08331614 -0.10757484 0.0034259928 0.0078818705 -0.052308075 0.03819018 0.12597127 0.112529494 0.022417601 -0.039162893 -0.13578862 0.0034830049 -0.16523471 0.11658183 0.050250523 -0.08638839 -0.2266918 -0.121866666 -0.22570679 0.10091388 0.17570242 -0.011182771 -0.23673436 0.0470455 -0.020467682 0.09633797 0.21525972 0.17441604 -0.004204653 -0.10949648 -0.0649029 -0.0032417653 0.15231411 0.23955818 0.17951317 0.024498066 -0.043379717 -0.06733342
1622 0.04986239 -0.0035479104 -0.0380302 -0.013587843 0.00016237362 0.078218065 -0.1009422 0.006116736 0.108014345 -0.00067732274 -0.05196499 -0.035084162 0.17178497 -0.035861112 -0.10060171 -0.013173936 0.054736886 -0.01042328 0.0094070295 -0.16203578 -0.010058414 -0.09895021 -0.02073961 -0.05355798 -0.0592127 0.10990055 0.06347754 -0.056736622 0.1101564 -0.12345176 0.12959178 0.013459071 -0.04042952 0.06810353 0.12797952 -0.07756361 -0.0018914257 -0.12511149 -0.009701742 0.096203126 0.060534295 -0.12237183 -0.0477974 0.0027832703 -0.14168242 0.06623359 -0.08384693 -0.058996014 0.08759073 0.055969473 -0.14044887 0.0838548 -0.013170499 -0.034867786 -0.1303111 0.16326036 0.12902723 -0.13036369 -0.07396475 -0.049620375 0.03667219 0.17307538 -0.053254902 -0.070758015 -0.014835242 -0.0041838773 -0.10340298 -0.027504224 -0.050670065 0.053697668 0.014630893 -0.105922684 -0.14303853 0.019954769 -0.120641716 0.124259636 -0.07248436 -0.09280524 -0.12094973 -0.10357676 -0.18330741 0.15156406 0.058039527 -0.03665765 -0.22157441 -0.04398176 0.05838303 0.11108224 0.16280243 0.15806653 0.0777417 -0.019078242 0.03183161 0.041845933 0.11209505 0.061558608 0.18496527 -0.028290093 -0.09516771 0.03878165
1621 0.13052674 0.055649642 -0.013670711 0.034761894 -0.04832683 0.16639754 -0.17520371 0.10002766 0.12240143 0.08072642 -0.14261362 0.05934478 0.12803653 -0.07293207 -0.09873697 0.09867751 0.090755045 -0.014139488 0.0672368 -0.23396201 -0.014998267 -0.028427387 -0.045603793 -0.073637396 -0.072875865 0.104665145 0.044207573 0.042734772 0.09310944 -0.1843394 0.13583913 -0.038164627 0.09264538 0.09252133 0.10614655 -0.081110574 0.02859795 -0.19142511 -0.16352408 0.13413468 0.1018729 -0.22068328 -0.06877319 -0.0023268 -0.09053767 0.11415229 -0.0992507 -0.011880181 0.110330425 0.03816906 -0.25268328 -0.026590029 -0.045050614 0.025868453 -0.22325234 0.18685088 0.08347653 -0.022925092 0.0014272318 -0.01505076 0.13563485 0.08571851 -0.08780778 -0.13447022 -0.06467644 -0.047070645 -0.038934175 -0.034001917 -0.128134 0.046024892 0.023461938 -0.06787688 -0.13688523 -0.011837769 -0.10260489 0.09590962 -0.041564997 -0.16814467 -0.14450638 -0.04258874 -0.14534156 0.19881117 0.0014932095 -0.0104711745 -0.28156397 -0.07364244 0.11690686 0.10397735 0.16125628 0.092275195 0.01784925 -0.020130295 -0.0035374374 0.057052545 0.16277553 0.03712076 0.24049672 -0.06650732 -0.124484785 0.10107021
1620 0.07471044 -0.041838102 0.014264418 0.03870711 -0.09970084 0.17953779 -0.058508933 0.027101414 0.18890409 0.003489368 0.037974413 -0.04535266 0.21630472 -0.069421776 -0.06968779 0.04536827 0.019506061 -0.066951856 0.03064506 -0.15180515 0.033247676 -0.047701377 -0.0819208 -0.048532575 -0.065234035 0.21378471 -0.002968594 0.004274973 0.14571023 -0.19359292 0.07189234 -0.058134392 -0.04572913 0.1076026 0.141665 -0.08193872 0.061127584 -0.29046977 -0.02602546 0.09646047 0.0976159 -0.15633947 -0.08092877 0.07648157 -0.15774465 0.08158803 -0.100739904 -0.07167737 0.13293521 0.04847316 -0.20512539 0.13331333 0.040336754 -0.052657492 -0.20589025 0.14253038 0.073605575 -0.20704994 -0.034698088 -0.07527747 0.08946754 0.15195774 -0.06712386 -0.07641748 -0.03649368 -0.028329162 -0.039544377 0.006501566 -0.07467772 0.056719944 0.05877342 -0.10824291 -0.09295353 0.110016 -0.09747074 0.004539459 -0.06658288 -0.13589676 -0.13289465 -0.07038607 -0.18375397 0.13776553 -0.060578596 -0.029684799 -0.24143454 -0.06232205 0.05163732 0.07392075 0.21181613 0.0828519 0.1325465 -0.0040234183 0.11897809 0.03467738 0.1304896 0.07795016 0.21145895 -0.14251898 -0.10522899 0.10934592
1629 -0.38842675 0.18285525 0.32814354 0.33806655 0.3169457 0.12353313 0.08356558 -0.21619016 -0.3753118 0.52634966 -0.23327087 -0.14299174 0.7032632 -0.025835427 -0.010202182 -0.22142336 -0.0569808 -0.025843848 0.10722766 -0.50797623 -0.2713223 -0.00829308 0.014033961 0.32154468 -0.30908158 0.32724243 0.31275597 -0.6695826 0.60831565 -0.28899395 -0.040495213 -0.116992846 -0.42252427 0.029113555 0.2882321 0.24597557 -0.08367504 -0.16210717 0.5063475 0.070439786 -0.11074261 0.16684984 -0.043797642 -0.13475874 -0.38670576 0.46192893 -0.07425459 -0.15713006 -0.039089654 -0.31988198 -0.19976902 -0.44500026 -0.041870724 -0.20092137 -0.49059823 -0.38088715 0.3310345 0.33885047 -0.46642134 -0.230361 0.052652635 0.012992205 0.48557884 0.3032734 0.0732106 -0.059119307 -0.0071470356 0.31982037 -0.33520615 0.1832628 0.50948536 -0.21209802 -0.0140079 0.05066326 -0.04484035 0.45268124 -0.16720828 0.03743816 -0.53978574 0.113628305 -0.5161793 0.62150085 -0.093801096 0.38004908 -0.26336226 0.14400175 0.53430474 0.31221795 0.3638723 0.56687564 0.03560117 0.2510418 -0.11819441 0.3487979 -0.060085643 -0.44176826 0.47939345 -0.046389874 -0.0904515 0.5565654
559 0.05212188 0.015983265 0.07469179 -0.032404482 -0.13241677 0.08695506 -0.16442986 0.067400075 0.1301753 -0.03371839 -0.15360221 0.0975889 0.16063558 -0.0913128 -0.030675218 0.033088725 -0.06698504 0.09276579 0.053028166 -0.2099539 -0.06383885 0.07029559 -0.008073755 -0.044616815 -0.23451559 0.20599236 0.058665544 0.014386431 0.13589905 -0.10387787 0.22881505 -0.061669935 -0.1162212 0.23241746 0.20714395 -0.09583171 0.001766737 -0.19768251 0.00083929097 0.233806 0.1936124 -0.08289735 -0.16513756 0.020827089 -0.22346404 0.027900238 0.009630534 -0.12998427 0.14703444 0.065823354 -0.14135413 0.055301573 -0.029917369 -0.06078768 -0.008650076 0.08767797 0.11126411 -0.06397811 -0.045767415 -0.014524709 0.13266864 0.03441704 -0.048316274 -0.16005364 -0.030935755 -0.041939337 -0.015853733 -0.08330554 -0.009483325 0.08008208 -0.10158281 -0.056190714 -0.0111833215 -0.06659265 -0.17173392 0.1175446 -0.25877783 -0.040939335 -0.13468152 0.07381296 -0.22230569 0.07407761 -0.010039354 0.066842936 -0.26308316 -0.004314823 0.03279925 0.07413737 0.21031721 0.21312134 -0.01847563 -0.16433354 0.050170597 0.046864916 0.20345302 0.17352492 0.21267831 0.06893684 -0.011515909 0.13668658
558 0.020728223 0.018308492 0.00030703362 -0.0046172724 -0.02160613 0.04923688 -0.05580875 0.002893129 0.05076282 0.011059711 -0.02346634 0.0074351556 0.053864487 -0.018178452 -0.035007756 0.007437349 0.018008577 -0.004679594 0.018642424 -0.08520266 -0.0118258605 -0.0074248 -0.030679815 -0.03145295 -0.04050296 0.057303872 0.023027586 -0.010103685 0.035327602 -0.055579647 0.049862627 -0.017447673 -0.014343799 0.04871235 0.051456857 -0.013095716 -0.0016708303 -0.057789136 0.0037904382 0.03803944 0.04905367 -0.063280314 -0.020936964 0.009982316 -0.0441997 0.020096121 -0.023577616 -0.026209448 0.04760759 0.027549582 -0.065199845 0.0026451317 -0.006159025 -0.015252746 -0.04610848 0.05089354 0.040076338 -0.05312183 -0.020731647 -0.015872024 0.01204665 0.030300962 -0.013019026 -0.044146404 -0.022129647 -0.017701378 -0.019032352 -0.006328772 -0.031254858 0.001716363 0.015561252 -0.021299152 -0.053917978 0.0055105696 -0.052711856 0.021405205 -0.022477832 -0.04194037 -0.056563415 -0.01896842 -0.088729136 0.03319243 -0.0055253506 -0.005894693 -0.09571261 0.005624061 0.03729963 0.051307604 0.0826612 0.049367767 0.032655913 -0.0048996215 0.012413325 0.03237698 0.03681779 0.041017193 0.08183645 -0.014254826 -0.044394914 0.011365497
555 0.0013395613 0.18302119 0.10647869 -0.08135392 0.18514568 -0.09750616 -0.25892425 0.08849535 -0.00914972 0.5044688 -0.24030618 0.1668821 0.1433363 0.093156785 -0.09750617 -0.1513967 0.14667809 0.09922495 -0.06968982 -0.20376475 -0.23016185 -0.056745544 -0.044547193 -0.3123986 -0.28680086 0.30414295 -0.045332212 -0.31822157 0.1767461 -0.07923868 0.12361436 -0.19599655 -0.17045619 0.04284773 0.09716989 -0.047624156 -0.030697856 0.105147 0.014845312 0.13666728 0.18493232 -0.016067369 0.0120077375 -0.2035238 -0.17492975 0.0390043 0.066750385 0.025264814 -0.17264852 -0.11628032 -0.15519574 -0.015201827 -0.36552218 -0.20888138 0.0598427 0.15059568 0.1439604 -0.010086437 -0.25562748 -0.27754226 0.082005404 0.27169162 0.1538003 -0.17475961 -0.09194217 0.051424906 0.10864288 0.14617804 -0.0715158 0.23512751 0.25334057 -0.1029335 0.008480253 0.32152626 -0.17982882 0.3507321 -0.04484771 -0.177841 -0.2416526 0.17226762 -0.44772872 0.11490186 0.24519585 -0.10969102 -0.18076253 0.11907179 0.21937083 0.19539502 0.32768622 0.32244155 0.15561962 0.12896626 -0.015234641 0.04654427 0.2856384 -0.022117954 0.17673874 0.05424556 -0.13331914 0.11601543
1376 0.028991835 0.0039795977 -0.0060660234 0.0028831481 0.021943016 0.057458024 -0.10702024 0.024416834 0.12440734 -0.010476203 -0.02527701 -0.06439992 0.13449953 -0.040103253 -0.074947305 0.013948477 -0.01639984 -0.014027475 0.03963618 -0.14589718 -0.024717791 -0.021427093 -0.043052007 -0.037898023 -0.07541411 0.10727385 0.049882434 -0.019677699 0.09086256 -0.12993336 0.12224327 -0.01632929 -0.054589633 0.09609409 0.12594591 -0.024156317 -0.0039806836 -0.14586651 0.015972696 0.07131599 0.094179645 -0.13059527 -0.06607622 -0.00011520483 -0.118708 0.06890837 -0.067342296 -0.10118566 0.07333886 0.05629391 -0.12835711 0.068518125 0.020048764 -0.063574545 -0.08702234 0.108654805 0.08170363 -0.10889445 -0.09974824 -0.029320711 0.0147816185 0.078098446 -0.017861478 -0.08484278 -0.051864807 -0.0060705943 -0.02604213 0.009091077 -0.029544014 0.026880547 0.023760822 -0.055597294 -0.082091734 0.007454367 -0.10293833 0.06194153 -0.07997432 -0.03902396 -0.1153645 -0.046057183 -0.17783186 0.10323682 0.008927667 0.0067599323 -0.18747269 0.015320182 0.03638159 0.100905396 0.17246042 0.13946778 0.060828295 -0.032354753 0.016682763 0.04448373 0.06667345 0.105326824 0.13002643 -0.048847027 -0.03971161 0.016325904
557 0.29082847 -0.08224513 0.050775804 0.047427624 -0.042847633 0.103703715 0.006175013 0.18500574 0.10591358 -0.050732996 0.03731481 -0.15321763 -0.050038002 0.026521863 0.034491822 -0.014572946 -0.2243462 0.11241593 0.1361089 -0.05521163 0.056416515 0.21337442 -0.11704463 -0.12862232 -0.009544011 0.14026392 0.10152523 -0.03187634 -0.016108856 -0.005677486 0.15159816 -0.21484287 0.016647812 0.27022198 0.2387366 -0.059886627 -0.0387097 -0.19406237 -0.09141347 0.2138859 0.18124844 -0.22646368 -0.07407277 0.12409566 -0.21427006 0.10926053 -0.33860087 -0.317104 0.04601655 0.004806206 -0.086476 0.31569278 0.014738488 -0.08724347 -0.039670784 0.32810053 0.06753819 -0.2155614 0.056330644 -0.077101305 -0.035233077 0.15012561 -0.09686327 -0.2846097 0.08469528 -0.20217112 -0.119114086 -0.0033771994 -0.30066296 0.063830994 -0.06066912 -0.08005502 -0.008780676 0.19730122 -0.2709834 0.0073446035 -0.07008212 -0.03971781 -0.1739471 0.054063458 -0.4092763 -0.07762155 -0.120334335 -0.05320057 -0.093230516 0.18792774 0.03857171 0.07309187 0.48131624 0.061616495 0.08109376 0.0073971334 -0.0016750944 0.016983062 0.08468264 0.2861832 -6.0174574e-05 -0.21179144 -0.083038725 -0.04657912
556 0.024110511 0.03531452 -0.06492633 -0.09306102 -0.029017316 0.1983321 -0.22280125 -0.000991684 0.2515069 -0.07877347 -0.104988076 0.0632171 0.3533525 0.09091736 -0.050849915 -0.04659289 0.114708334 -0.042306848 0.030189797 -0.04953491 -0.16747025 -0.17278175 -0.07594811 -0.07031049 -0.12795652 -0.00768454 0.12619469 0.025695492 0.105762966 -0.20417236 0.17592588 0.020572308 -0.16260624 0.0030459284 0.19650489 0.00467625 0.09101852 -0.16058394 0.13449655 0.097529985 0.1421 -0.12090112 -0.024426764 0.12332495 -0.0869173 0.04356891 -0.10891341 0.101981044 0.11862 0.1345823 -0.231192 -0.05483789 -0.022131175 -0.1084879 -0.1219178 0.077420905 0.08878712 -0.15510792 0.009845485 -0.09123601 0.052758135 0.13084897 -0.063490495 0.021626374 0.025758334 0.011941684 -0.1293325 0.014494525 0.062409084 -0.06548156 0.17297176 -0.15025803 -0.14533523 -0.0065647475 -0.1534227 0.08527644 -0.07745909 -0.07339037 -0.15403642 -0.047715586 -0.21378645 0.18408178 -0.08546722 -0.07399045 -0.21996701 -0.19734417 0.21064672 0.22642945 0.105154425 0.05816658 0.13473126 0.11327235 0.1162487 0.111473046 0.1490558 0.012554842 0.19143598 -0.06924168 -0.24952027 0.1465898
551 0.098162346 0.12306601 -0.14895262 0.075526856 -0.22444643 0.35227892 -0.08208935 0.14641583 0.05895694 0.42585748 -0.0010192068 0.04178726 0.08466068 -0.022183564 -0.121434964 -0.0026140825 0.21135882 0.15548323 -0.028147478 0.047619652 0.018509135 0.004329155 0.1466023 -0.0744114 -0.1401674 0.1989533 0.010965167 0.33147737 0.25008667 -0.41412643 0.04688211 -0.24345542 0.41867685 0.070937 0.0051257764 -0.26048878 0.0055287885 -0.14143004 -0.4952236 0.38848647 0.30226412 0.025064815 -0.22675203 0.007915953 -0.1742846 0.0906009 0.0026459934 0.035872262 0.309905 -0.12731344 -0.41695732 0.056787252 0.29972768 0.049112283 -0.4978057 0.43979323 0.2052387 -0.06989068 0.36453086 0.11524298 0.41575065 0.1502496 -0.2906749 -0.023443324 -0.037271976 -0.14171597 0.19679417 -0.45013496 -0.127327 0.072528616 0.1519158 -0.16608173 -0.5234637 -0.060837746 0.108812444 -0.023927901 -0.23097844 -0.21329619 0.20011894 -0.21699381 -0.07776157 0.35156968 -0.1947675 -0.4336913 -0.47103715 -0.3096525 0.12789457 0.0584551 0.37130934 0.21208318 0.14960049 -0.081015535 -0.035872173 -0.2522997 0.1348333 -0.13340254 0.25156718 -0.18907334 -0.11790845 0.23408403
550 0.044578735 0.05116848 -0.0021468464 0.007034602 0.06401374 0.07358787 -0.12423872 0.02000379 0.06951736 0.048066266 -0.03843743 0.04571238 0.17497621 -0.0009872833 -0.101208754 -0.040282305 0.056861088 -0.0050595757 0.020452382 -0.15588592 -0.070826955 -0.08644164 -0.025543736 -0.07020192 -0.058769297 0.14669427 0.047078446 -0.16482449 0.11078691 -0.09469349 0.11436219 -0.047941428 -0.028382082 0.055403836 0.13739938 -0.03214533 0.02783855 -0.10921892 0.02594944 0.07348724 0.11071495 -0.10533409 0.0067643984 -0.10006689 -0.1103667 0.09501632 -0.096829444 -0.023165572 0.068918735 0.014561531 -0.11006895 0.047005095 -0.035060097 -0.042947914 -0.11502147 0.115559235 0.11928927 -0.055741116 -0.105631925 -0.09612682 0.03226284 0.13454525 -0.032526493 -0.067275025 -0.012023138 -0.036665257 -0.024376523 0.014541696 -0.098179735 0.09185445 0.05384142 -0.025678024 -0.09318173 0.09781287 -0.16628088 0.12111145 0.007757404 -0.12715405 -0.13381666 -0.022733107 -0.1687597 0.11965257 0.079017855 -0.04887198 -0.22932284 -0.005521219 0.1176829 0.10155068 0.15662791 0.17416202 0.09050416 0.019717876 -0.02801473 0.008423199 0.079711474 0.05034822 0.18599623 -0.060939807 -0.059866272 0.039496694
553 0.05797712 0.18674141 -0.3317951 0.0481595 0.027895764 0.34593377 -0.15470447 -0.014479018 0.3594911 -0.05065781 0.10245579 -0.19611646 0.09112973 0.100337334 -0.18279088 0.06608757 -0.042255275 0.16889557 0.13217649 -0.2168833 -0.2551436 0.078434326 -0.2824252 -0.14186423 -0.19114758 -0.17440253 0.03787219 -0.14027993 0.32179365 -0.082430236 0.057232592 -0.13653792 0.19504093 0.22480412 0.16938408 0.20831929 -0.01898513 -0.20771329 0.15194069 0.08827597 0.22514856 -0.2343694 -0.087981164 0.3055518 -0.09869886 0.1928677 -0.2920459 -0.39520356 0.06524252 -0.1300994 -0.1868952 0.15454452 0.202706 -0.048911177 0.019570785 0.18722169 0.37476596 -0.08346837 -0.24440755 -0.19455661 -0.2052365 -0.07262175 -0.052797683 -0.43796155 -0.13505183 -0.33198074 -0.29332006 -0.109650604 -0.28373 -0.12773535 0.06153891 -0.22819497 -0.1126288 0.19193725 -0.3167957 0.1383755 -0.55578053 0.12810175 -0.3300496 -0.07146502 -0.18928318 0.042837575 -0.38154182 -0.09337668 -0.19544539 0.20874304 0.06413724 0.24467282 0.3137909 -0.09106253 0.24462563 0.015525646 0.31941003 0.026208345 -0.019651953 -0.026384555 -0.09872461 -0.083839275 -0.022558345 -0.31251287
552 0.042414047 0.0004910066 0.069118425 -0.031975504 -0.08429379 0.06358479 -0.13920397 0.02880828 0.16249041 0.0065162973 -0.011911824 0.04654866 0.15217137 -0.0017378681 -0.09686634 -0.014809579 0.015236682 0.03461982 0.08143951 -0.18023668 -0.05844738 -0.013417319 -0.02623419 -0.036099724 -0.10478526 0.21136865 0.119660996 -0.026805697 0.0668808 -0.18767236 0.17480434 -0.045261953 -0.11570899 0.12741564 0.11669719 -0.072285056 -0.0013399447 -0.17973134 0.040098034 0.1818235 0.18974496 -0.11382847 -0.090936795 -0.014814152 -0.16215399 0.11134334 -0.035941456 -0.098158516 0.11220841 0.06724328 -0.19431172 0.045916416 -0.012965978 -0.09171109 -0.124060124 0.121800005 0.08876418 -0.09963134 -0.040726915 0.0033403402 0.06654504 0.11875803 -0.025120143 -0.058691457 0.00080256787 -0.059000276 0.002186771 -0.025114974 -0.05387727 0.04604 0.05002469 -0.03413036 -0.09892136 0.00084909704 -0.17751901 0.049053043 -0.11365387 -0.097006224 -0.15065216 0.028863262 -0.21441698 0.115955144 0.04895037 -0.0025042803 -0.2614825 -0.01187871 0.089718744 0.13311523 0.21600056 0.1746173 0.069812775 -0.04825872 0.034679156 0.05520622 0.09126069 0.10812728 0.25641704 -0.093612835 -0.11684403 0.09139718
1199 0.11949098 0.06429328 -0.03139787 0.08743178 -0.020155774 0.15915366 -0.13140938 0.045179576 0.08279183 -0.0024503479 -0.08809776 0.06457323 0.18611284 -0.053131323 -0.08539646 -0.022415083 0.049029168 0.04631144 0.032596808 -0.23571296 -0.031236356 -0.052061822 -0.07260145 -0.0718615 0.0045821294 0.18748732 0.06423599 -0.05818049 0.09602116 -0.16404615 0.17943518 -0.056084637 -0.041630697 0.14676872 0.20097767 -0.032542445 0.071789205 -0.20226085 0.024536025 0.10083547 0.055862624 -0.16968033 -0.010271752 -0.033263005 -0.121610016 0.12859035 -0.13073234 -0.06261387 0.117109865 0.028231699 -0.15171538 0.01848243 -0.033362214 -0.09842156 -0.20980652 0.13756399 0.076361254 -0.101689346 -0.08011687 -0.0055242414 0.07392304 0.10759328 0.022103274 -0.05414278 -0.011330735 -0.041205328 0.0128141 -0.02234814 -0.093000144 0.10525032 0.05627571 -0.0022740753 -0.10460206 0.034637112 -0.11959722 0.128664 0.012878003 -0.08832564 -0.14394477 0.0018469397 -0.17201985 0.14250177 0.11341794 0.030334573 -0.27270582 0.0060600745 0.15224957 0.045054697 0.20660934 0.17449085 0.015196488 -0.014049624 -0.048215784 0.07805164 0.11834284 0.06080158 0.2664868 -0.069671035 -0.114484355 0.17969811
1198 -0.48109227 -0.03660856 0.060908396 -0.046583634 0.295178 -0.093782134 -0.41114628 0.050420802 0.25021538 0.016426278 0.14911275 -0.4239255 0.49647433 0.04796385 -0.37718555 0.50230587 -0.06189641 0.12026748 -0.054892827 0.03465986 -0.1199521 -0.008366798 -0.24786752 -0.15319903 -0.15970048 0.54325145 -0.40832332 0.063266985 0.4257307 -0.38918248 -0.20174114 -0.2654002 -0.014202678 0.0534867 0.09571237 -0.07479304 0.19137332 -0.8091021 -0.2810865 0.081559695 0.23446298 -0.17002 -0.14812791 -0.050933607 -0.03605111 0.27106246 -0.005097896 0.06574708 0.11515428 0.14278053 -0.550649 0.23725705 0.14825247 0.02476075 -0.3891173 0.26799968 0.21890292 -0.06299162 -0.14094166 0.15692094 -0.21100344 0.29896322 -0.5710349 -0.19768807 -0.23234104 0.0052060504 0.39858735 -0.023079006 0.26953053 0.38617808 0.07615926 -0.14516547 0.04148133 0.0034034732 -0.22589952 -0.24115941 -0.34936312 -0.36704308 0.13094047 0.20179588 -0.144607 0.3638416 -0.008566218 -0.12757161 -0.06428995 0.120718755 -0.23513699 0.041415077 0.13793457 0.16388442 0.14987057 0.019728348 0.38621372 -0.3983852 0.26044393 0.30984494 0.17235927 -0.037422337 0.04855446 0.09333301
1191 0.017102612 -0.16910377 -0.36541072 -0.1161181 -0.22082739 -0.06461901 -0.11755764 -0.029525198 0.14595574 0.17570361 0.17283584 0.08688917 -0.048173524 -0.047458697 -0.17840923 -0.038864713 0.14232872 -0.23398916 -0.024774486 -0.30093315 0.31973672 -0.22121191 0.08200261 -0.17657438 -0.04300976 0.097701356 -0.0073581305 0.013520784 0.33727816 -0.34786284 -0.16646968 0.047100894 0.29868773 -0.134307 0.04940855 -0.07653135 -0.051511902 0.037338007 -0.6540823 0.2502518 0.05673276 -0.535194 -0.13641116 -0.30428672 0.07975108 0.24976546 -0.16239838 0.10563586 0.44455212 -0.054560073 -0.47195813 0.15304449 0.04883617 -0.026854778 -0.40052894 0.4967201 0.3862341 -0.0017689876 0.1178583 -0.17384586 0.19990222 0.29172927 -0.40902507 -0.030748315 0.1336151 -0.11500349 0.0072800065 -0.15482803 -0.30511913 0.049374294 -0.21492562 -0.1998934 -0.4103041 0.106506005 -0.060003016 -0.07406712 0.039354894 -0.38752016 0.17989835 -0.5204916 -0.23116831 0.36456463 0.44888082 -0.4231568 -0.30687067 -0.36781046 0.22335835 0.04592879 0.20857206 -0.07801436 0.27632672 -0.017246755 -0.029536808 -0.21299697 -0.11775415 -0.11599612 0.4997816 0.004950483 -0.0030902387 -0.020064125
1193 -0.08729189 -0.010513303 -0.015399667 0.061967667 0.20056489 0.0011396057 -0.1269477 -0.09358665 0.17423002 -0.0063764113 -0.045775175 -0.17686233 0.19590339 -0.02410511 -0.0667072 -0.06306836 -0.022603352 -0.011263242 0.09614603 -0.15140298 0.027014324 -0.06259027 0.056766406 -0.06390648 -0.06604637 0.1891027 0.016122598 -0.1510511 0.07696075 -0.31104612 0.19476052 0.07767782 -0.15667735 -0.013684575 0.13641408 -0.077347234 0.08417628 -0.19850107 0.13228329 -0.057654604 0.064657986 -0.07980024 -0.060218856 -0.10375308 -0.1790581 0.10405441 -0.037622005 -0.017671457 0.033461943 0.13920078 -0.19627999 0.13338985 -0.019512685 -0.1592725 -0.14573643 0.12292553 0.09261065 -0.18645485 -0.2799969 -0.05300289 -0.0041222037 0.20174506 0.030139161 -0.009561283 -0.045760404 0.06897965 0.03051338 0.06055926 0.23236707 0.08909814 0.14705206 -0.06966052 -0.09416982 0.07880552 -0.081383035 0.13561131 0.021496072 -0.20274937 -0.26987526 -0.024767626 -0.2785119 0.15210184 0.06932833 -0.057335958 -0.17720968 0.013014113 0.07276837 0.17334533 0.19501874 0.16893028 0.09640014 -0.024022073 -0.010993674 -0.0059494576 0.14360921 0.2120722 0.12067178 -0.0639681 0.008205491 -0.00919221
1195 0.019897908 0.0061419723 -0.16028239 0.08931081 -0.043834835 0.064128205 -0.14942934 -0.016372964 0.17313628 -0.042158827 -0.010910181 0.051764753 0.20789732 -0.13900967 -0.10960763 -0.04302474 -0.020767758 0.05123827 -0.027668575 -0.11747535 0.034474492 -0.07763102 -0.0234541 -0.05633623 0.0928713 0.15408446 0.0369462 -0.026320344 0.11630281 -0.1816386 0.15782967 0.004416818 -0.024481183 0.21826726 0.21163434 -0.122255005 -0.032629393 -0.16604625 0.044415217 0.1312716 0.013393782 -0.15884992 -0.0828498 0.017418513 -0.09019271 0.10100432 -0.16263413 0.05749407 0.14498396 0.044237334 -0.08140833 0.035380542 0.01745473 -0.12951072 -0.12945062 0.1598355 0.0369982 -0.15027046 -0.08108121 0.10054749 0.016307294 0.16768366 -0.067102306 -0.07532848 -0.07943284 -0.08178082 -0.030687816 -0.1780103 -0.06367183 0.10428902 0.03725619 -0.054610852 -0.1087247 -0.040862396 -0.20041184 0.0888183 -0.12174822 -0.09104791 -0.20535064 -0.11290915 -0.1796032 0.059562866 0.09693024 0.0050631785 -0.18338098 0.009153804 0.1177115 -0.0013344183 0.23896408 0.17800084 0.0628891 -0.003581254 0.00976427 0.07113891 0.1124707 0.07299802 0.282487 0.024148718 -0.056219418 0.14896578
1194 0.029226542 -0.093603574 -0.30873972 -0.27091232 -0.08481696 0.16084073 -0.1915736 0.054804564 0.22894233 -0.1899638 -0.63909644 -0.15772246 0.09987971 0.075413175 -0.4676222 0.23141453 -0.17054541 -0.22837262 0.058386717 -0.6468652 0.28290614 -0.06048982 -0.13388672 -0.5823612 -0.16218615 0.3084609 0.44648847 -0.11534956 -0.33247158 -0.088128425 0.31880265 -0.17860106 -0.1886115 -0.055843003 -0.02477627 -0.02382214 -0.3870774 -0.24395652 -0.15253328 0.12835768 0.13192077 0.29616818 -0.48354864 -0.22242486 0.06470013 -0.24887413 0.21218263 -0.35301134 0.20385486 0.4586306 -0.4099682 0.0095197195 0.13610762 -0.19482368 0.07294371 0.46210375 0.5857896 -0.18601431 -0.13346249 0.17383446 0.24566074 -0.11349268 -0.14653279 -0.47454107 0.24708 -0.40032533 0.021974074 -0.06012554 0.23607467 -0.020930786 -0.27624673 -0.09388894 -0.26034617 -0.15679997 -0.09392814 -0.09309475 0.16903111 0.03443082 -0.7411531 -0.19499856 -0.5005306 -0.045417406 -0.21026178 0.32347506 -0.33489886 0.093848586 -0.23743246 0.3591771 0.33632502 -0.02572256 -0.34558144 -0.055911694 -0.11898329 -0.12855195 0.39459118 0.47473115 0.11153798 0.1735338 -0.18915479 -0.33465177
1197 0.3619371 0.23241784 -0.3467036 0.07854458 0.11907825 0.35280418 -0.6027372 0.23024802 0.22711152 -0.07848013 -0.08838524 0.03940698 0.31154963 0.09678336 -0.32631856 0.18504511 0.089542285 -0.115860604 -0.04668764 0.090974264 -0.4446154 -0.2639871 -0.41570672 -0.435324 0.062040266 -0.13691607 -0.07346662 0.117424265 0.3916385 -0.106265225 0.019889843 -0.3228432 0.28392556 0.23463446 0.40226662 -0.058593024 -0.045674406 -0.3712154 -0.032759618 0.016584804 0.070308626 -0.23996027 0.21250254 0.06175776 0.1185047 -0.023996262 -0.3324802 0.17486909 -0.041913647 -0.035570987 -0.3670441 -0.056026395 -0.014716765 0.03013333 0.16723537 0.050380863 0.21885064 -0.04384782 -0.029823225 -0.20063205 0.0066311616 0.15975158 -0.276061 -0.3548586 -0.062710896 -0.20102873 -0.24554372 -0.08388224 -0.44267154 0.09687206 0.2518249 0.023567809 0.062241327 0.20384052 -0.53949505 0.18830016 -0.27488822 -0.12507437 -0.22094746 -0.07436523 -0.18712781 0.15015522 -0.2560969 -0.010360275 -0.38817224 -0.19394948 -0.009583936 -0.1399062 0.21244252 -0.02821902 0.287182 -0.011305365 0.092269234 -0.24088046 0.3812255 0.22899452 0.11885221 -0.14847761 -0.2222093 0.2822087
1759 0.058711383 -0.14495552 0.11870608 -0.18239832 0.00506067 0.22021714 -0.07114891 0.051568195 0.055592902 -0.23118545 -0.26071206 -0.013578173 0.42108786 0.06760513 -0.35538644 0.45744598 0.0415682 -0.1418813 -0.06347402 -0.22642832 0.10288483 0.37995505 0.050386067 0.026026065 -0.22107193 0.25299162 0.33674315 0.19781557 0.03689026 -0.31154492 0.07090898 -0.08189864 -0.010332567 0.182735 0.082251854 -0.02770782 -0.20434107 -0.60867596 -0.18608071 0.47226122 0.29709813 -0.28299308 -0.010703746 0.18357953 -0.21271986 0.13877806 -0.0045575714 -0.66107637 0.48249343 0.36402056 -0.3194514 0.13204224 0.099915266 0.11789667 -0.07442022 0.31932116 0.04539966 -0.3663363 -0.11487743 0.011288912 0.15566237 0.0360832 -0.105186 0.06114879 0.04406441 -0.051135533 0.31225452 -0.124637835 0.12506372 0.32234836 -0.15607262 0.14399529 -0.16342904 -0.08718841 -0.10183008 -0.20378871 0.030673593 -0.10316568 -0.0015376487 -0.1519753 -0.21448994 0.3011793 0.14690413 -0.066589005 -0.26998737 -0.10062896 -0.333371 0.21557069 0.063639045 0.037724134 -0.3072515 0.15572973 0.11091958 -0.051363867 0.27563405 0.08637714 0.013831424 0.09020304 -0.05706588 -0.010835449
1758 0.095662005 0.03873011 -0.016380414 0.07466277 -0.0371286 0.15022102 -0.086937256 0.095265396 0.11415403 0.04394846 -0.0026464174 0.020285176 0.10660951 -0.04917448 -0.002089778 -0.097826585 -0.003951244 0.019428901 0.13158037 -0.11975967 -0.031191567 -0.030460078 -0.07674054 -0.10514927 0.023118481 0.16555506 0.083571866 0.02259921 0.023630286 -0.17634861 0.12328043 -0.10734052 -0.05368037 0.18806264 0.18893479 -0.05198434 0.032597043 -0.20736887 -0.0068970886 0.09085289 0.03741603 -0.18863527 -0.008708085 -0.042357646 -0.12780416 0.11462228 -0.14198269 -0.034441657 0.075404376 0.033250775 -0.12823161 0.124400996 0.028422844 -0.07163377 -0.089689665 0.12667005 0.03068405 -0.1691902 -0.04268927 -0.042590696 0.046290696 0.09070769 0.012199033 -0.0041659437 0.008788249 -0.050432403 -0.0066532562 0.01303193 -0.09956629 0.020701725 0.124138534 -0.023622219 -0.06315702 0.14036866 -0.13050057 0.060168047 0.025458246 -0.103085704 -0.10183794 0.012901314 -0.2562538 0.030519467 0.040887028 -0.07142898 -0.14902559 -0.031892207 0.08214184 0.010662733 0.24313958 0.13104936 0.15614296 -0.030849954 0.002706583 0.021889795 0.04926799 0.16315943 0.19283508 -0.15872179 -0.10892675 0.101336196
1754 0.07045582 -0.014742559 -0.17798574 0.023409544 -0.078600764 0.23664846 -0.05170565 -0.0935426 0.14501993 -0.14011523 -0.07798337 0.004603325 0.26228335 -0.06020744 -0.17584164 0.053473372 0.08895441 -0.167834 -0.07311194 -0.22587614 0.12938413 -0.19416216 0.15750363 -0.035445716 -0.05961029 0.081244 -0.12109637 -0.0770779 0.20797338 -0.06679127 0.07853497 0.0945325 0.031480234 -0.19931294 0.05582394 -0.16986157 0.18532178 -0.24049091 -0.13285294 0.17271453 -0.08341492 -0.07460242 0.09152937 0.05455313 -0.318771 0.21166429 -0.05425374 0.12698448 0.37540403 0.3353809 0.026968239 -0.030150244 0.062991165 0.0037925194 -0.24239598 0.11055668 0.10635105 -0.16796662 -0.03364672 -0.1853274 -0.14937833 0.15668678 -0.13606901 -0.16218573 -0.07362854 -0.040252775 -0.16620219 -0.09652303 0.091909006 -0.011932819 -0.03174282 -0.16074331 -0.33825988 -0.014010225 -0.08858852 0.1251094 -0.05336052 -0.11079566 -0.30452535 -0.30069175 -0.10282749 0.24403109 -0.14896974 0.019045185 -0.36455166 -0.17152433 0.045571834 0.17067507 0.08871982 0.23890634 0.16600373 0.08722475 -0.06401528 0.08510466 0.20515126 0.004198562 0.2650188 0.14819546 -0.14882132 0.0100814
1753 0.10999967 -0.05342739 -0.042936023 -0.020004382 -0.015531895 0.021523833 -0.15356891 0.1450735 0.06622723 -0.023730533 -0.08808966 -0.07096165 0.11318696 0.03409553 -0.10849876 -0.00128815 -0.10904704 0.032792058 0.09724085 -0.12276703 -0.06665776 0.11230278 -0.13184376 -0.13838741 -0.10108656 0.083685055 0.06879259 0.12242459 0.06518067 -0.12961516 0.11996993 -0.107008465 0.0080822855 0.13086109 0.15933947 -0.023603091 -0.12596747 -0.25389355 -0.0010479474 0.23011594 0.21294846 -0.23965552 -0.086727194 -0.026557775 -0.13874267 0.20452848 -0.16105884 -0.1596995 0.13702582 0.17010218 -0.17635234 0.14164643 0.117195375 -0.056079004 -0.07115483 0.13317516 0.029443039 -0.0782917 -0.017098352 0.03227593 0.0037515527 0.011661697 -0.0036797447 -0.0666443 -0.056091458 -0.16194512 0.021003813 -0.050219752 -0.061064195 0.004745813 0.0059356843 -0.00934226 -0.21125312 -0.015670013 -0.23024005 -0.03359434 -0.18319306 -0.060003746 -0.10311718 -0.019120904 -0.30315903 0.06014534 0.066726126 0.03674039 -0.21738844 0.08997936 -0.0026707833 0.12720135 0.19012837 0.13935037 0.035839036 -0.031771183 -0.07564806 0.06961348 0.003927813 0.15724501 0.22996323 -0.13522302 -0.11518602 0.049198065
1752 0.054371823 0.030548016 -0.0140589755 0.020005971 0.010260845 0.07014027 -0.11395785 0.02802039 0.10845568 0.031228324 -0.0638211 -0.0014674489 0.1539358 -0.04570296 -0.09019518 -0.03540717 0.015864765 -0.016523585 0.030085111 -0.15698472 -0.05406497 -0.047575712 -0.052934565 -0.08787297 -0.023569169 0.14515354 0.050759494 -0.086259216 0.08723369 -0.11162616 0.1309893 -0.048306063 -0.0380275 0.06874463 0.1304306 -0.033121496 0.021818656 -0.14737433 -0.003668845 0.085968986 0.10866174 -0.10060501 0.0019028997 -0.0383712 -0.1151967 0.07323979 -0.06436966 -0.031905368 0.100008085 0.067563504 -0.12963438 0.05656163 0.027449535 -0.07421656 -0.120033234 0.13150048 0.1000875 -0.12547266 -0.080068566 -0.038618196 0.034043863 0.09944968 -0.024877353 -0.06359542 0.0061896304 -0.046144724 -0.013856909 0.0052536023 -0.063784264 0.09049412 0.041656904 -0.05056908 -0.12613626 0.077617444 -0.13663861 0.07105173 -0.03600386 -0.11137921 -0.1709789 -0.04416722 -0.182725 0.10235843 0.0026260586 0.012215986 -0.19007325 0.0074295877 0.08696138 0.0981979 0.17228347 0.13077565 0.060480908 0.007819174 -0.008562801 0.018895842 0.085052066 0.079615355 0.18993717 -0.033263594 -0.07211139 0.03751441
1751 0.09959561 -0.1837524 -0.4887847 -0.089493826 -0.17921038 0.2209377 -0.21734793 0.16787621 0.15057713 -0.022861553 0.05268385 -0.019329602 0.24561955 -0.025900722 -0.20026812 0.23880492 0.1190898 -0.10885695 -0.208452 -0.3372068 -0.13148442 -0.16466203 0.12674265 -0.16794327 -0.11147426 0.054372434 -0.16989398 -0.1949354 0.49540636 -0.19139528 -0.21706271 -0.23911542 0.22222966 0.20257059 -0.24912967 -0.08536731 0.12905172 -0.10143734 -0.35679838 0.6165455 0.09045976 -0.08958709 0.1111771 0.10760095 -0.18309823 0.17819138 -0.01179576 0.026567167 0.44992232 0.103363976 -0.17660914 -0.048921045 0.3945804 0.1553528 -0.47537604 0.4462901 0.47567588 0.052298788 0.093483046 0.09429392 -0.0050740847 0.056602865 -0.3399136 -0.10113625 0.16474298 -0.29145026 0.030646455 -0.42951107 -0.2653703 0.21418056 -0.19303691 -0.24773595 -0.4575732 -0.005574264 0.0037988382 -0.03562235 -0.2191742 -0.03673522 0.16404577 -0.42574865 -0.09105285 0.28107288 0.13168772 -0.25596392 -0.35563424 -0.25621963 -0.079782374 -0.061542865 0.21959323 0.12950934 0.23990025 -0.09559382 -0.109599374 0.100806475 0.0789322 -0.28140125 0.38467228 0.10094668 0.022075769 -0.10403095
1177 0.2881709 0.09098619 0.08970533 -0.23428287 -0.22755367 0.25761998 -0.06764102 0.26452723 0.46484163 0.13281249 0.05803645 -0.13134398 0.017485028 -0.3106923 -0.07238114 0.20948666 -0.20989032 -0.11482344 0.35957146 -0.3035518 -0.0032508099 0.029097235 -0.15058902 0.0021396975 -0.3261179 -0.024557224 -0.060666915 0.16351214 0.0062430166 0.11089399 0.27558956 0.22100773 -0.024408463 0.37012172 0.03786652 0.019908154 -0.21217327 -0.1045539 -0.11589548 0.326912 0.180109 -0.41586068 -0.2308795 0.4372549 0.0055522383 -0.31652644 -0.13821022 -0.029759012 0.36678335 0.22208536 -0.24019541 0.263532 0.26085714 -0.051571634 0.01061845 0.2920647 0.055682186 -0.5576657 -0.01398457 -0.043907005 -0.2069565 -0.046493664 -0.37017256 -0.5901021 -0.44714078 0.16137226 -0.6694837 0.072837666 -0.48881197 -0.30411875 -0.11005323 -0.5404275 -0.23429452 0.03500585 -0.08238024 0.24819829 -0.5126766 -0.009608474 -0.34308 -0.22110233 -0.19892906 0.109529614 -0.5603888 0.11826347 -0.17333497 -0.44008887 0.086201295 0.4199335 0.23208281 0.08850452 0.28391236 -0.058452904 0.45849115 0.44198102 -0.044937134 -0.09162544 0.087354384 0.18951727 -0.19703916 -0.4469797
1175 -0.10251964 0.043261167 -0.060824554 0.06992999 0.1094971 -0.017688433 -0.11821216 0.060445316 0.16124272 0.008630571 -0.007972145 -0.05563263 0.25852987 0.08102617 -0.13981527 -0.05355704 0.009679693 0.011719485 0.05044412 -0.24646406 -0.00039885042 -0.10419554 0.007308088 -0.12822282 -0.03169614 0.23589909 0.10361531 -0.1313626 0.10516144 -0.10571805 0.14353561 -0.054288544 -0.018747542 0.0020370798 0.12747785 -0.13903004 0.010973459 -0.17448792 0.026983581 0.10637612 0.14484285 -0.06408322 -0.06247665 -0.16412891 -0.25761837 0.21628153 -0.07112129 -0.15532368 0.023309156 0.20750302 -0.13462383 0.084305465 -0.042034827 -0.06645104 -0.07534442 0.14789751 0.19624536 -0.06311691 -0.20290501 -0.10056446 0.07317075 0.14760889 -0.029538209 -0.0025357052 -0.059468787 -0.064022094 -0.011433676 0.068873316 0.10402326 0.18301027 0.10311285 0.037541274 -0.12361482 0.06754591 -0.16235158 0.09270296 -0.012142055 -0.12142873 -0.20945968 -0.08412779 -0.2845413 0.15990311 0.16645882 -0.047499456 -0.21642283 0.031621285 -0.07137421 0.06245814 0.1705836 0.21779667 0.040293913 0.0037674147 -0.080320485 -0.05925985 0.13634501 0.1431255 0.14849283 0.002503886 0.08191191 -0.026601935
1173 -0.078113906 -0.023223566 0.33294654 0.19427775 0.18152069 -0.09363568 -0.21715192 0.0579673 0.44185767 -0.17943574 0.3307759 0.12783678 0.52541167 0.14158118 -0.39030898 0.53468406 -0.061168544 -0.14382833 -0.1933271 -0.0842023 -0.03226317 0.13391323 -0.14172131 -0.21859038 -0.34813973 0.8462104 -0.5507538 0.10647727 0.2565554 -0.26122072 -0.04117312 -0.43006116 0.21854115 -0.05650299 -0.053580068 0.12119113 0.32147843 -0.7207162 0.019645987 0.3409165 0.36743355 -0.061483633 0.036836505 0.1152637 -0.05986332 -0.0014213405 0.00824696 -0.39439642 0.45249358 0.2672709 -0.29796368 0.30789277 0.0061747306 0.12448583 -0.51904833 0.17075285 0.27675104 -0.10348605 -0.048986867 -0.19033259 0.18794593 -0.04565135 -0.35530755 -0.11539444 -0.16137 0.0483772 0.28671739 0.043290682 0.09415893 0.0650943 0.30634168 -0.047449533 0.37810802 0.25736636 -0.30900016 -0.16996603 -0.18251261 0.072336584 -0.16363557 0.31993198 -0.15988494 0.36017746 -0.37654543 0.17108727 -0.18792965 0.01854655 -0.20349312 0.057219718 0.37035084 0.3182646 -0.091548845 0.19451731 0.35477084 -0.11855193 0.24447572 0.33383402 -0.13906889 0.1328888 -0.018427912 0.18065035
1179 -0.34857014 0.10458029 0.25527638 -0.206542 -0.022724628 -0.40168333 -0.37654144 -0.107889 0.15629195 0.6514572 -0.1264198 0.28806427 0.27710673 0.10583891 -0.16179505 -0.29949576 0.14146864 0.113644145 -0.16414237 -0.054182194 -0.26553035 0.17957595 -0.29024854 -0.2663885 -0.5229872 0.49935168 0.053470638 -0.15862894 0.029964553 -0.45039022 0.14324524 -0.13817503 -0.50839144 0.17335641 -0.010951698 0.12654729 -0.4282637 0.044251848 0.24354562 0.28175226 0.34512654 0.12211522 -0.23742853 -0.06722926 -0.33125514 0.04326629 0.24153818 0.04031012 0.054658644 -0.036284134 -0.012433061 -0.13920093 -0.39328295 -0.6054011 0.07679538 -0.032564335 0.09299937 0.03668896 -0.10577359 -0.029248133 -0.11060123 0.23469332 0.110477544 -0.27857357 -0.17526764 -0.12838778 0.36644655 -0.09921003 -0.09992849 0.24997064 0.4544002 -0.06648526 0.08937665 0.19606122 -0.16715987 0.18954147 -0.45390448 -0.06680058 -0.36441848 0.3781452 -0.4765015 -0.04166878 -0.0005751875 0.184328 -0.12308529 0.119632885 0.29548702 0.3305135 0.40790832 0.16876344 0.15292205 0.25954473 0.21431231 0.09897397 0.13983516 -0.12696856 0.32423952 -0.01554097 -0.38284296 0.27984688
511 0.064677574 0.015571067 -0.024723392 0.01139791 0.038463384 0.07917668 -0.11839731 0.0103062745 0.14151457 0.009898816 -0.035172634 -0.03747249 0.15679547 -0.026355952 -0.10476832 -0.0067679663 0.029018596 0.011687113 0.06558952 -0.15204477 -0.020462213 -0.074398264 -0.014218141 -0.055804357 -0.043277528 0.15117851 0.050632242 -0.07209263 0.10511899 -0.17732863 0.16922241 0.001005354 -0.041344486 0.045156535 0.12820332 -0.061944645 0.045256197 -0.17796066 0.023547128 0.055314735 0.097689115 -0.13893978 -0.037840683 -0.047323186 -0.1342368 0.11562061 -0.05006188 -0.06609382 0.09409962 0.059908792 -0.1520299 0.0855645 0.0051446003 -0.08127339 -0.14414188 0.15860887 0.09951432 -0.133976 -0.11512099 -0.031014178 0.033723067 0.15089713 -0.028060528 -0.058756147 -0.026779825 -0.014322947 -0.009797777 0.0021303997 -0.0020716707 0.08534469 0.03433266 -0.064660296 -0.12298141 0.06198001 -0.10052386 0.091201276 -0.045580372 -0.1157598 -0.17937739 -0.08031133 -0.16453937 0.1360561 0.06741916 -0.01890831 -0.22539555 -0.004569896 0.06329566 0.123914555 0.16656014 0.15469368 0.081288375 -0.024704866 0.004139664 0.0033934128 0.113918714 0.062813535 0.17854214 -0.06338294 -0.059444997 0.013899402
1285 0.16222258 0.24775057 -0.38133767 0.51889193 0.018665278 0.25828215 0.036016803 0.17266372 0.30042142 -0.026274323 0.098493196 0.033965174 -0.08455486 -0.32024878 -0.15944383 -0.029682774 0.0056986664 -0.06377689 0.07070743 -0.14872527 0.22584641 -0.08160724 0.11635189 -0.15644814 0.27740264 0.050367802 0.20787649 0.25751516 0.05207644 -0.32621408 0.060429707 -0.18381064 0.005514978 0.6008397 0.41666952 -0.30002135 -0.064369746 -0.25749332 -0.30099538 -0.020198364 -0.2884848 -0.32978758 -0.21532601 0.117519 -0.23276222 0.28316402 -0.53505176 0.096123084 0.027939072 -0.27027753 0.07488354 0.09893173 0.0025365194 0.06180577 -0.12892364 0.30646762 0.030615449 -0.023153862 -0.055293195 0.052216414 0.07215514 -0.070970744 -0.084272675 -0.27175817 -0.10884025 -0.22831646 -0.30987224 -0.15983525 -0.31281954 -0.3026442 0.11002924 -0.26198605 -0.31563014 0.022384178 -0.16145079 0.12097703 -0.005203064 -0.18574229 -0.16262211 -0.28279504 -0.28480148 -0.101244375 0.23552267 -0.17040361 -0.1889974 0.052309167 0.2268237 -0.06532686 0.3684003 0.08170547 0.25759643 0.31811514 -0.24654917 0.19544809 0.15629415 0.17099081 0.4252189 0.06019049 -0.1994652 0.029198594
1284 0.21472667 0.07805331 -0.10764893 0.16287304 -0.03615131 0.01939562 0.02644828 0.26112416 -0.056747563 0.11824097 -0.01617901 0.09028671 0.23442583 -0.17132327 -0.025185 -0.03843069 -0.05197807 -0.056858882 0.20319624 -0.23592903 0.061219838 0.031159004 -0.06930492 -0.1515499 -0.015631612 0.20859744 -0.04386108 0.24061243 -0.065546915 -0.20988318 0.033133328 -0.12333592 -0.1542339 0.28235942 0.2552352 -0.27546024 -0.06155128 -0.34367993 -0.060274046 0.1937942 0.08910452 -0.17625768 -0.24683666 -0.10970965 -0.12690082 0.13863868 -0.040164646 0.048609257 0.13870227 0.016210966 -0.19282024 0.1353732 -0.09217899 0.0042808503 -0.12011388 0.0029180336 -0.080904 -0.15598597 0.07537476 0.0038684881 0.09302517 -0.04363824 0.06290006 0.04635271 -0.11050736 -0.09704881 -0.03358863 -0.16471168 -0.1980202 -0.074943304 0.11991257 -0.15616345 -0.20640315 0.00036948003 -0.16799664 0.13396178 -0.018605394 -0.05070776 -0.13968104 -0.00652138 -0.19215773 -0.008212893 0.3152257 0.05592483 -0.20328106 -0.053938102 -0.08950222 0.0011569088 0.21040562 0.24787547 0.0147221275 -0.12236575 -0.14216234 -0.04469251 0.027276574 0.1924185 0.47848317 0.018905029 -0.31874213 0.16364643
1286 0.0983186 0.0399984 -0.04857804 -0.0068094535 0.032474995 0.17271309 -0.28464818 0.012436944 0.21036567 0.09096741 -0.09839415 0.03188886 0.39471635 -0.056394976 -0.19204952 -0.08189451 0.05689884 0.029309308 0.060398627 -0.35879093 -0.057809245 -0.16987947 -0.018516406 -0.19174801 -0.13049439 0.36324355 0.08879406 -0.16898797 0.22836904 -0.3806415 0.31473768 -0.046272457 -0.11151765 0.13612062 0.2599523 -0.22254947 0.038226396 -0.3061171 0.037051808 0.2227249 0.24920584 -0.24788126 -0.072749406 -0.06351423 -0.32808983 0.1933619 -0.14043432 -0.041814785 0.17180061 0.10157804 -0.3184514 0.14776371 -0.09346393 -0.14608307 -0.27243245 0.27381292 0.14260367 -0.28286088 -0.19964287 -0.1596258 0.089086145 0.38276264 -0.017738689 -0.15646012 -0.07809434 -0.037092824 -0.057740517 -0.05785417 -0.09211332 0.18998352 0.15563883 -0.15475816 -0.25858596 0.1490113 -0.3285236 0.2743603 -0.10042527 -0.2812139 -0.37129015 -0.09554253 -0.42715082 0.2792706 0.18586782 -0.14890757 -0.48731998 -0.033547375 0.1494924 0.2785842 0.4086215 0.3438098 0.19244845 -0.030399954 0.027141416 0.028816715 0.2995903 0.1786495 0.44000924 -0.1166001 -0.19059959 0.12800881
1280 0.10171485 0.22664598 -0.1822681 0.12905477 0.33450538 0.021620445 -0.6198351 -0.10018609 0.1560688 0.19223581 -0.2764897 0.33988515 0.26178193 -0.32352415 -0.20073973 -0.08569032 0.14718056 -0.0017877892 -0.034856956 -0.38152158 -0.20650461 -0.27887 -0.3707016 -0.54128486 0.25519308 0.121946715 0.05979768 -0.3923369 0.23327696 -0.11972746 0.25355127 -0.06141132 -0.04047385 0.3052055 0.19455537 0.028794976 -0.06382136 0.066463314 0.23994885 -0.22320715 -0.09533023 -0.4247716 0.2636686 0.061468814 0.13564043 -0.24192347 -0.19068265 0.23449033 -0.13896644 -0.118965596 -0.21222936 -0.20260854 -0.610713 -0.08906687 -0.050576087 0.14562118 0.45282277 -0.45567727 -0.6031701 -0.13442904 -0.23132394 0.30077913 -0.0012876433 -0.07274718 0.036521167 -0.17005429 -0.18972968 0.28643435 -0.18334816 0.27646863 0.087137416 0.108498484 -0.09803493 0.37502125 -0.54308885 0.25599325 0.28479508 -0.2511585 -0.21734218 -0.275659 -0.31039515 -0.34932402 0.23717538 0.075689875 -0.32144326 0.37597904 0.45605016 -0.06920939 0.376789 0.15099083 -0.07446911 0.2507681 0.016191108 -0.015342516 0.21615036 0.3030089 0.31009954 0.06925491 0.022178654 0.29563254
1283 0.020152038 0.0065902374 0.021110872 -0.011227707 -0.058791 0.08056278 -0.109961316 -0.025685107 0.15506403 -0.028082436 0.0030837175 -0.0041207154 0.17853037 0.030012907 -0.047618907 -0.031258367 0.018112728 0.056571312 0.03699561 -0.19315572 0.033431463 0.010931784 -0.0246819 0.025326014 -0.049319953 0.17185166 0.095085695 -0.12536429 0.09540681 -0.13697445 0.15024169 0.01079392 -0.053123042 0.08501342 0.16990112 0.021404065 0.084952705 -0.13193682 0.03918783 0.0865723 0.06915513 -0.12272858 -0.03419276 -0.0068639796 -0.19057833 0.10255524 -0.06976398 -0.0795246 0.20039338 0.03669608 -0.20176761 0.012031965 -0.0056278394 -0.12751767 -0.20907636 0.15791464 0.13461766 -0.08047903 -0.07285185 -0.03685379 -0.041927814 0.0909077 -0.1293326 -0.084030695 0.05319079 -0.04013107 0.02233407 0.0031062432 -0.0149707245 0.13286489 0.015589068 -0.111986764 -0.043778297 0.030280488 -0.028889285 0.07243632 -0.06472167 -0.09885786 -0.22723016 -0.011691204 -0.2418961 0.14678308 -0.059678983 -0.01598179 -0.16346624 -0.05681503 0.17923565 0.1047335 0.21433029 0.15604238 0.09165039 0.024103519 -0.016455038 0.10327427 0.05884303 0.021877341 0.18981825 -0.0616295 -0.00077715144 0.07453091
1003 -0.33111098 0.16140322 0.051045213 -0.13543104 -0.055552248 0.34313196 -0.013372591 -0.5636409 0.75614315 -0.031442057 -0.078370295 0.03398087 -0.041949093 0.29519278 -0.34383404 0.08112261 0.01059757 0.02877942 0.42695758 -0.164384 -0.2238113 0.17265023 0.11288315 0.056602295 -0.14838885 -0.16097566 0.44424966 -0.3235186 0.09417169 -0.34376955 0.43798655 -0.029913144 -0.41220254 0.085260786 0.25935164 0.39739615 0.23020427 -0.15498327 0.5575701 0.22229959 0.21859983 -0.544976 0.245342 0.0022056797 -0.06256853 0.045316357 -0.08802998 0.19942339 0.5378747 0.4525066 -0.3266716 -0.17869076 0.44981796 -0.19788328 -0.14463839 0.02668628 0.25172698 -0.15697917 -0.16553636 0.14393985 -0.24474798 -0.3555201 -0.1547226 -0.060683616 0.1284686 -0.4333983 -0.23521344 -0.16575602 0.15073958 -0.33326182 -0.054343358 0.09666334 -0.36733302 0.042595316 -0.17374857 -0.22595036 -0.10089071 -0.15594307 -0.5575151 -0.03872229 -0.35064885 -0.039406087 -0.08230166 0.15624079 -0.2013898 0.19954383 0.5622506 0.68664885 0.061177988 -0.028728666 0.28825718 0.39417586 -0.08708039 0.5700865 -0.10762635 -0.06787103 0.4930979 -0.099704154 -0.15537988 -0.50420165
879 0.0993219 0.0165447 0.014737736 0.016857494 -0.04322822 0.1795637 -0.23918357 0.0398291 0.23221613 0.006962692 -0.08168837 0.015162719 0.31253183 -0.024616634 -0.16851549 0.0317402 0.03970069 -0.0066257063 0.10073268 -0.3373966 -0.03224357 -0.08192023 -0.037669465 -0.09374694 -0.13732453 0.29093054 0.12157432 -0.14590694 0.2120207 -0.29617923 0.29584503 -0.07611956 -0.107400894 0.15968274 0.24153894 -0.08796567 0.053741343 -0.2927165 0.041490998 0.24150212 0.26323688 -0.2815739 -0.10882615 -0.04558306 -0.22719982 0.18793383 -0.17207833 -0.123576835 0.20804554 0.17835353 -0.31313732 0.08604097 -0.0072605317 -0.15194836 -0.30735007 0.28868392 0.17482479 -0.23914199 -0.10042007 -0.06653772 0.11385492 0.23047096 -0.057986293 -0.14321621 -0.026073277 -0.10555497 -0.02537946 -0.057062525 -0.118506 0.13243535 0.067234635 -0.082306504 -0.25275305 0.026278574 -0.22699118 0.12401466 -0.123114355 -0.19653928 -0.30202645 -0.10172724 -0.38014156 0.26555637 0.14199786 -0.0544626 -0.45931894 0.0088251885 0.15260963 0.2649723 0.36412597 0.27894258 0.12262408 -0.020010414 0.016896646 0.13245635 0.19335635 0.09229922 0.40525076 -0.14703739 -0.2074647 0.08117108
1578 0.016723676 0.044766005 -0.010951203 0.028315866 0.06259796 0.028107276 -0.12928855 0.052355256 0.14370003 -0.050220497 -0.005110934 -0.06411947 0.16656984 -0.0035164326 -0.050600782 0.049358413 -0.013496743 -0.018771505 0.038680688 -0.16673656 -0.042302206 -0.049683597 -0.046236604 -0.092809804 -0.06041765 0.15548111 0.0051716305 -0.04283218 0.059993107 -0.17824432 0.0981417 -0.044718195 -0.08485346 0.12018246 0.149581 -0.050402064 0.055796806 -0.1849119 0.011663292 0.049790524 0.09194055 -0.17597714 -0.08105521 -0.06504038 -0.10394552 0.13617237 -0.06386987 -0.043687966 0.0027537814 0.02622146 -0.16289744 0.08328614 -0.0643078 -0.036840923 -0.0463953 0.088905305 0.044201527 -0.11551014 -0.078054145 -0.04373498 -0.0006485383 0.1437785 -0.03282548 -0.07912338 -0.059550647 0.050122574 -0.0057250718 0.026339123 0.0060713557 0.06072467 0.11616971 -0.037369672 0.015201418 0.05812131 -0.1044644 0.07787877 -0.05735766 -0.08325988 -0.10967657 0.048836954 -0.18452796 0.13822658 0.09086313 -0.04774268 -0.1437387 -0.019357165 -0.018223584 0.06112412 0.15092751 0.14417449 0.08545581 -0.045036387 0.043118093 0.0064925547 0.13348763 0.2002813 0.11772117 -0.07425953 -0.053318784 0.04368754
689 0.08069425 0.029295621 -0.07506671 -0.12850146 -0.058636066 0.056485932 -0.11870396 0.06714863 0.23632823 0.07871131 -0.075359106 -0.11025071 0.13452649 -0.028659703 -0.18495823 0.038363896 0.028844224 -0.040563017 0.034922797 -0.20430867 -0.01023545 0.053452644 -0.13297936 -0.08218722 -0.124590464 0.13830355 0.044045836 0.06585732 0.10597112 -0.12274149 0.1213013 0.010209758 -0.041064043 0.09258187 0.17955571 -0.026993392 -0.100075975 -0.16902117 -0.040563885 0.12405526 0.14477275 -0.16336122 -0.18207812 0.07388233 -0.17809337 0.052250415 -0.063564725 -0.17008743 0.1080995 0.09469701 -0.27006322 0.12301579 0.02332144 -0.079946674 -0.13815342 0.1896676 0.09594908 -0.14735961 -0.18348068 0.00021952903 0.0032088675 0.09320599 -0.083372906 -0.16169685 -0.1029258 -0.029567473 -0.09528751 0.05466276 -0.031240862 -0.01876474 -0.0077397064 -0.17075214 -0.17433812 -0.006467193 -0.11548981 0.08175592 -0.13345811 -0.013582889 -0.1781721 -0.059342027 -0.18090627 0.13289735 -0.006290928 0.06571923 -0.27040884 0.0003212672 0.038375523 0.15555249 0.21759054 0.13381697 0.069131665 -0.03106145 0.04861639 0.037934467 0.10261262 0.093955554 0.16996762 -0.016110824 -0.05142443 -0.056704354
688 0.07653177 -0.014832055 -0.031179538 -0.012634877 -0.0091119455 0.108189814 -0.09594286 0.03654451 0.07018134 0.018665476 -0.07472624 -0.057193752 0.18524683 -0.017144496 -0.106247686 -0.009838996 0.022608688 0.0005429398 0.048550025 -0.17860647 0.007917606 -0.036190353 -0.014977255 -0.0856589 -0.07547656 0.16929272 0.069650285 -0.067311525 0.11288447 -0.1730078 0.14097065 -0.03738153 -0.03738166 0.077831954 0.13895178 -0.07641237 0.0030454334 -0.19354823 -0.032350745 0.14688377 0.15379427 -0.12908411 -0.07798403 -0.017271006 -0.14133498 0.13517961 -0.08673263 -0.059346344 0.13060279 0.06286762 -0.1885757 0.106541 0.021242104 -0.07466105 -0.2104291 0.17137416 0.060796835 -0.12871577 -0.048993237 -0.03138565 0.06498215 0.16343628 -0.05139403 -0.07372019 -0.012885556 -0.042534087 -0.0111883795 -0.068978466 -0.0709564 0.07332514 0.036032844 -0.094603024 -0.19961552 0.03089917 -0.1236046 0.081752695 -0.070874184 -0.15334041 -0.16439158 -0.044597186 -0.19103588 0.17091806 0.08344533 -0.02751431 -0.23785509 -0.024126988 0.0804061 0.17670724 0.1876055 0.16784805 0.063726984 -0.015844168 0.0043751993 0.033963494 0.12738709 0.04510221 0.24282089 -0.073078796 -0.14818326 0.030974548
684 0.1051126 -0.025864484 -0.09444439 -0.009747477 -0.0436417 0.057171356 -0.11602552 0.08533259 0.16793321 -0.03320079 -0.04739878 -0.10056693 0.15507291 -0.029343968 -0.026203716 0.044137903 -0.005442733 -0.03817375 0.038257558 -0.18649855 -0.0025508474 -0.02525973 -0.11974824 -0.053332116 -0.05558689 0.092489325 0.032805137 0.010104801 0.075330526 -0.16977902 0.112140685 0.0018725789 -0.05384045 0.10815878 0.16372749 -0.03749749 0.0056522163 -0.19865711 -0.017651271 0.09706649 0.052681617 -0.21968833 -0.15927234 -0.006732197 -0.12897171 0.16356666 -0.114877656 -0.062101953 0.09714617 0.06803505 -0.18202315 0.12029195 0.032854 -0.08233834 -0.14139725 0.16838439 0.093140945 -0.12316625 -0.024018269 -0.032324042 -0.0029505272 0.11004174 -0.1262684 -0.09904181 -0.00797163 -0.04049155 -0.04189295 -0.023230862 -0.06917805 0.047407977 -0.012133629 -0.15074039 -0.088609084 0.020803295 -0.03094701 0.012646954 -0.1485804 -0.052137464 -0.16502097 -0.077032104 -0.21043782 0.123787045 0.047895916 0.0061422093 -0.18720117 -0.073289886 0.021605596 0.08099124 0.1525176 0.091625564 0.09497411 -0.05214705 0.03730875 0.11748432 0.049957506 0.041173603 0.20710151 -0.13823086 -0.08609562 0.04378786
687 0.037283584 -0.08454517 0.0062046875 -0.14634165 -0.04147232 -0.2658156 -0.19922972 -0.055211384 0.18940525 -0.018638838 -0.20585 -0.68803537 0.36381263 0.36526182 -0.09099765 0.1191694 -0.028275745 0.17084657 -0.08994191 -0.4443579 0.031136414 -0.070666395 0.0071321037 -0.045771476 -0.60714996 -0.07031234 -0.08220449 -0.04090721 -0.08094617 -0.0738073 -0.09235265 -0.0138065815 -0.24024294 -0.15549998 0.03286585 -0.23749165 -0.1528726 -0.32799134 -0.10553802 -0.07797359 0.24129127 -0.15153559 -0.33829844 -0.28955126 -0.14766145 0.25990376 0.22146355 -0.33253586 -0.07026549 0.6862283 -0.2728703 0.06825439 0.257401 0.20727248 0.04103176 0.46903917 0.56379586 -0.081524976 -0.20509154 -0.041493565 -0.31647506 0.033037372 0.26172978 -0.099423856 -0.106663406 -0.21325004 0.02074041 0.24626563 0.67321604 0.1417511 -0.3429891 -0.16295576 -0.73305106 0.011610382 0.14521225 0.2943251 -0.065059505 0.21407539 -0.5137011 -0.5609289 -0.86161274 0.07473964 -0.09025863 0.12650909 -0.6601501 0.3204556 -0.04576058 0.043593515 0.24338818 0.35089466 0.12769645 -0.40122637 -0.55712473 0.2732901 -0.19486766 0.36822242 0.17906144 0.06940588 0.12609759 -0.33515352
516 0.08099808 0.0013972357 -0.06707524 -0.014029814 -0.0138597675 0.08827453 -0.09938296 0.03836846 0.113181114 -0.009041927 -0.11040882 -0.06161555 0.15333793 -0.06439483 -0.12366421 0.0279106 -0.005472076 -0.00028341648 0.027074803 -0.19102 -0.03750901 0.014619567 -0.07213005 -0.07378404 -0.07771714 0.105847426 0.013323814 -0.015614981 0.07388945 -0.2104676 0.10571382 -0.036283605 -0.015054015 0.06511583 0.114973225 -0.023578512 -0.054446507 -0.1715245 -0.011043375 0.13166775 0.122369714 -0.1026421 -0.07991673 0.007023907 -0.15039231 0.13073884 -0.03926148 -0.10083443 0.09419102 0.038268767 -0.1359101 0.083135754 0.08488746 -0.055159245 -0.11399496 0.12991923 0.098606035 -0.09955394 -0.087502405 -0.010119842 0.04528619 0.04769576 -0.007659952 -0.094168864 -0.028320113 -0.047997084 -0.015469975 -0.07392458 -0.06645873 -0.011536196 0.009650997 -0.109771855 -0.16068496 -0.015475077 -0.12677144 0.0674312 -0.14790198 -0.07164373 -0.16248357 -0.054121275 -0.22126925 0.11187321 -0.0045858747 0.013860881 -0.21770823 0.063946 0.0056312964 0.14090192 0.210453 0.12337281 0.03322493 -0.052881006 0.0021962053 0.060993195 0.09269443 0.0782709 0.21377824 -0.05658828 -0.11562626 -0.004086803
1577 0.20743017 0.05402363 -0.12935215 0.18591028 0.012352173 0.30147386 -0.02675051 0.052055757 0.060988523 -0.20347357 0.33257052 -0.10476602 0.23829336 0.22285211 -0.04255493 -0.0635444 -0.19438833 -0.035611525 0.23325357 -0.06916194 0.02115356 -0.12741952 0.081625275 -0.06452563 0.05920918 -0.030926805 0.27517638 -0.039964844 0.18720078 -0.046753224 0.08678854 -0.21459669 0.16500546 0.02749828 0.11321276 -0.1726544 0.08932789 -0.3762661 -0.0029878216 0.085582234 0.08950413 -0.31504002 0.13720153 -0.030200101 -0.33258042 0.3072523 -0.43551794 -0.14642085 0.051586293 0.105357714 -0.099536166 0.15531863 0.15210043 -0.016072912 -0.13080762 0.03876839 0.120958574 -0.13358045 0.16263118 -0.23203401 -0.04549957 0.0848389 -0.04806223 -0.045602195 0.043702483 -0.21031854 -0.24528995 -0.04080942 -0.2835746 -0.105837025 0.30484256 -0.20248103 -0.16067344 0.22730346 -0.20685087 0.057793193 -0.015403438 -0.236986 -0.24951272 -0.28771597 -0.28977922 0.15351689 0.0072506154 -0.3461424 -0.22830036 -0.0664496 0.03845228 0.15838748 0.25213087 0.11201938 0.16508813 0.05590862 0.12430902 0.02544741 -0.04559494 0.0837538 0.1349471 -0.2973801 -0.017194353 -0.006233644
1576 -0.10211048 0.028368039 -0.055780496 0.10024638 0.11360971 -0.009845034 -0.101332344 0.014979968 -0.100917384 0.07678456 -0.21561924 -0.02172784 0.34079963 -0.06137299 -0.0762844 -0.109398246 -0.067375325 0.10137636 0.015789399 -0.3044378 -0.050096523 0.019898336 -0.04701547 -0.053341493 0.008075247 0.20606542 0.008914532 -0.14437178 0.14162211 -0.23464082 0.13772234 0.04193092 -0.21963498 0.15012993 0.1819836 -0.07798155 -0.12096387 -0.20919222 0.3212439 0.0697836 -0.0020851907 0.052900072 -0.10958697 -0.040674075 -0.24550122 0.21889324 -0.04499082 0.0054551126 0.055172127 0.016991422 -0.19198579 -0.10447827 -0.04196648 -0.1599836 -0.10647361 -0.109170005 0.093796775 0.035570208 -0.26419827 -0.010607326 -0.032349985 0.119414225 0.12032813 0.074857816 -0.072131135 -0.088790596 0.021015791 0.0089609865 0.05738232 0.12279773 0.1437802 -0.039781485 -0.0843728 -0.0037803883 -0.107270464 0.29280886 -0.13296813 -0.031080982 -0.3757247 0.0987722 -0.35923502 0.13634557 0.103793666 0.22576681 -0.16083758 0.025993347 0.09714203 0.10578557 0.17183505 0.2868871 0.11554793 -0.037665587 -0.16487877 0.17415495 0.13568221 -0.019845001 0.3564823 0.034977183 -0.0025857452 0.22122541
1575 0.17576844 0.076346375 0.17875504 -0.30834794 -0.14730112 -0.1985247 -0.25674945 0.10619224 0.10135891 0.043273076 -0.09766822 0.43447614 0.025513787 -0.0792037 0.048127163 -0.29739773 -0.028808538 0.4292122 0.0566497 -0.19448102 -0.12369981 0.049156416 0.004338494 -0.26052132 -0.07505945 0.62642044 0.110563196 0.3314453 -0.17004465 -0.437332 0.46089736 0.085459545 -0.3971764 0.36252412 0.13461512 -0.37873027 -0.103009254 -0.25532702 0.047373936 0.42758256 0.1841671 -0.036748044 -0.115318745 -0.112266816 -0.42046165 0.0873846 0.3203345 0.15269174 0.27253506 0.035147727 -0.10311672 0.14542252 -0.16160932 -0.24988325 0.19176625 0.042572334 -0.29154596 -0.22078544 -0.041469783 0.18157025 -0.11175439 0.26980874 0.07340483 -0.06567679 -0.100896426 0.0045300056 0.20329486 -0.10114028 0.09261604 0.25856227 0.057477705 -0.099765904 0.14444432 0.09150592 -0.21305892 0.25688598 -0.26604956 -0.14407514 -0.43404895 0.54043686 -0.115107894 -0.004912015 0.08750659 0.041287124 -0.25040007 -0.15425701 -0.031021435 0.23314802 0.21576317 0.47364396 0.19488002 -0.2589415 0.051570736 -0.19944677 0.16617282 0.50653285 0.60177624 0.005003174 -0.14954425 0.3423984
1227 0.02553152 0.02533024 -0.032354522 -0.00024299932 -0.0150248315 0.021483116 -0.11386373 0.031733066 0.12395042 0.0027982737 -0.08536864 -0.054251492 0.13273966 -0.018731423 -0.08250631 -0.040261347 -0.006600598 -0.00073412666 0.045468666 -0.15818726 -0.013677091 -0.036898118 -0.055311922 -0.090955764 -0.089900635 0.10469852 0.08200291 -0.010391921 0.041396696 -0.12017384 0.12748279 -0.025466705 -0.043835264 0.10204552 0.1194941 -0.021950828 -0.061828144 -0.14946763 0.00622635 0.08294372 0.09132092 -0.11709661 -0.060836 -0.013950314 -0.10460685 0.06553294 -0.058891796 -0.05895695 0.05794554 0.102590494 -0.13039841 0.069801696 0.014558215 -0.088961944 -0.08472982 0.11914945 0.07047446 -0.12519984 -0.07572646 -0.0042809416 0.026388243 0.05174655 -6.405758e-05 -0.07266047 -0.03501816 -0.042667076 0.022678994 -0.004406295 0.014008355 0.040103152 0.0296426 -0.04509728 -0.11972997 -0.015879346 -0.1270753 0.06827257 -0.08167294 -0.062160138 -0.15426612 -0.025025519 -0.2225153 0.11447163 0.02331489 0.014441071 -0.18070336 -0.022443268 0.0617464 0.08677543 0.17332137 0.13806513 0.030251395 -0.025296083 0.038533807 0.055821925 0.07460819 0.1144109 0.17899333 -0.0062005925 -0.07950715 0.04424184
819 0.079103425 0.036841802 -0.050511178 -0.040129755 -0.06934712 0.11450436 -0.14720626 0.06543792 0.12627114 -0.011660184 -0.04857792 0.061435256 0.1747215 -0.048710324 -0.074737996 0.0077173267 -0.0074849427 -0.013149898 0.03080334 -0.19170807 -0.03609732 -0.024293074 -0.06845957 -0.048790872 -0.070339784 0.12783955 0.056192465 -0.00856141 0.08884357 -0.14131159 0.13159351 -0.024722863 -0.075430825 0.1427935 0.17160617 -0.03376521 -0.029057324 -0.15643916 -0.015480651 0.106080964 0.11102872 -0.1604509 -0.10103193 0.03395944 -0.121752374 0.034910843 -0.10638532 -0.0433678 0.12727359 0.030148322 -0.20111814 0.06379729 -0.0071397647 -0.06040257 -0.10795233 0.15663409 0.08848527 -0.16192666 -0.08117108 -0.040791225 0.027158616 0.13383171 -0.07019055 -0.10772425 0.00800388 -0.0017555048 -0.06466693 -0.004628268 -0.10421443 0.017871138 0.042299695 -0.12223 -0.07184226 0.026714927 -0.11428883 0.11016835 -0.06945602 -0.088673644 -0.12549184 -0.027559306 -0.20827968 0.11594067 0.049626887 -0.037056025 -0.22080977 -0.08277165 0.09814239 0.11630251 0.19270109 0.10264666 0.04909505 -0.037844595 0.072744645 0.094420075 0.08545102 0.09436326 0.19975942 -0.043145422 -0.09473321 0.094593756
